0.0000000000,-0.0150742037,-0.0544682853,-0.0370192118,0.2120935321,-0.1221669093,-0.0104838274
0.0098569393,-0.0136830015,-0.0411698930,-0.0287668295,0.2408522069,-0.1166171506,-0.0115501564
0.0199449062,-0.0053865118,-0.0229539406,-0.0192865916,0.2549160719,-0.1356009543,-0.0126250088
0.0300250053,0.0108570652,-0.0076711308,-0.0242451616,0.2783388197,-0.1280188709,-0.0189894978
0.0402959585,0.0094556706,-0.0020117292,-0.0415702648,0.3304779232,-0.1126721427,-0.0136874095
0.0503150225,0.0089345770,0.0048438776,-0.0438668914,0.3794896901,-0.1048371196,-0.0168813393
0.0606199503,0.0162558164,0.0128366221,-0.0360323377,0.4146301150,-0.0970810577,-0.0137016578
0.0728830099,0.0235005822,0.0043755043,-0.0396654792,0.4242385328,-0.0969417766,-0.0052096359
0.0807570219,0.0345769711,-0.0020218024,-0.0237449594,0.4306447506,-0.0968657508,-0.0020251614
0.0905759335,0.0397419520,-0.0151990782,-0.0253142305,0.4401578307,-0.0871705115,0.0075334562
0.1008520126,0.0399255641,-0.0215379726,-0.0211053081,0.4314951897,-0.0745138377,0.0075427773
0.1107759476,0.0371368118,-0.0123232137,0.0013015685,0.3939491510,-0.0558043309,-0.0019945351
0.1208180189,0.0363687463,-0.0092112552,0.0056438860,0.3222085834,-0.0331761800,-0.0157690030
0.1310619116,0.0356114693,-0.0209961664,0.0129907550,0.2224042118,0.0210321937,-0.0305817723
0.1409949064,0.0309563186,-0.0390747301,-0.0050570550,0.1206248105,0.0593142025,-0.0443405919
0.1510080099,0.0370339341,-0.0341011398,-0.0200891085,0.0551970676,0.0916021019,-0.0496168472
0.1610879898,0.0449955650,-0.0283326041,-0.0191331692,0.0050558671,0.0900947526,-0.0506653376
0.1712069511,0.0318312831,-0.0127325784,-0.0224869438,-0.0320869759,0.0696648434,-0.0421717167
0.1812599897,0.0313683338,-0.0095847379,-0.0193308182,-0.0460866280,0.0822967514,-0.0389767215
0.1913179159,0.0176187959,-0.0083310734,-0.0101746498,-0.0418788306,0.0887416005,-0.0326037742
0.2014210224,0.0109594660,0.0109747518,-0.0207023807,0.0072936416,0.0807110369,-0.0283740778
0.2115139961,0.0137995379,0.0359478481,-0.0120474277,0.0534171946,0.0566049032,-0.0443248115
0.2215520144,0.0123792486,0.0615317710,0.0053742346,0.1036451831,0.0495525189,-0.0538961515
0.2316149473,0.0021133025,0.0652724952,0.0172484331,0.1451779753,0.0584040657,-0.0539022759
0.2416709661,-0.0076496406,0.0668618530,0.0280669145,0.1857865006,0.0535299480,-0.0422357619
0.2517669201,0.0005538363,0.0562748797,0.0104249539,0.2380542308,-0.0463817343,0.0245943982
0.2617700100,0.0240602102,0.0504044183,0.0075093922,0.2713833749,-0.4804376960,0.2951288223
0.2719609737,0.0850678608,0.0775969476,0.0180498175,0.2355859578,-0.4223416448,0.3025995195
0.2819849253,0.0427585430,0.0920199603,0.0109563889,0.1896853596,-0.0057705240,0.1339929253
0.2920569181,-0.0122955544,0.0486510880,0.0037972745,0.1764808744,0.0297139660,0.0607498735
0.3021349907,0.0090151327,0.0348629840,0.0061546979,0.1104314774,0.0186021253,0.0724409521
0.3121370077,-0.0124671860,0.0420852192,0.0192866735,0.0334203169,0.0348101258,0.0576034151
0.3222780228,-0.0014013450,0.0343451388,0.0269901566,-0.0369745679,0.0310319643,0.0608055331
0.3323539495,-0.0064626737,0.0512919910,0.0496381335,-0.0702254623,0.0477259904,0.0618841127
0.3423869610,0.0004106362,0.0393360741,0.0518396907,-0.1085856408,0.0421269611,0.0682618469
0.3523799181,0.0118194418,0.0265679825,0.0317782573,-0.1395978779,0.0494013838,0.0863239393
0.3625369072,0.0096442895,0.0182720292,0.0117628993,-0.1545839757,0.0547014736,0.1054418385
0.3725899458,0.0131699936,0.0236138571,0.0149384560,-0.1449782103,0.0560056232,0.1298614293
0.3826639652,0.0188261475,0.0283278693,-0.0012480798,-0.1375223249,0.0582827628,0.1436641961
0.3926429749,0.0102183716,0.0425199755,-0.0031318250,-0.1141110063,0.0660325587,0.1617127061
0.4027999640,0.0001653034,0.0462564118,0.0037951288,-0.1000349224,0.0460227653,0.1659459323
0.4128270149,0.0030584533,0.0584882982,0.0151545824,-0.0881431028,0.0313266441,0.1744299680
0.4228799343,0.0037527282,0.0436188467,0.0052776751,-0.0849041641,0.0281695984,0.1744295657
0.4329349995,-0.0017556350,0.0203596223,0.0027707038,-0.0784076527,0.0186487976,0.1701759547
0.4429769516,-0.0011993449,0.0186543334,-0.0029639187,-0.0686711073,0.0048777922,0.1606099606
0.4530630112,0.0004094441,0.0169039238,-0.0049326005,-0.0739785284,0.0015997074,0.1531770676
0.4631599188,-0.0029142301,0.0153401960,0.0071334657,-0.0612108260,0.0048753284,0.1499885321
0.4731760025,-0.0028177898,0.0018605462,-0.0051142755,-0.0527387783,0.0113020688,0.1478659958
0.4832699299,-0.0113336844,-0.0030071267,-0.0010751667,-0.0444138683,0.0325963721,0.1478748620
0.4933630228,-0.0159556661,-0.0022003779,0.0015345630,-0.0380100310,0.0326661468,0.1499968618
0.5034400225,-0.0129164560,-0.0011356005,0.0046335277,-0.0272936057,0.0285357833,0.1531778127
0.5134639740,-0.0090320809,-0.0047226679,0.0120590152,-0.0143378582,0.0138074383,0.1552907526
0.5235929489,-0.0060493452,-0.0023869404,0.0139728608,0.0018606326,-0.0051507400,0.1552771032
0.5336009264,-0.0089171333,-0.0009600648,0.0141092362,0.0009069545,-0.0168795679,0.1478388906
0.5436940193,-0.0166158173,-0.0085049402,0.0147341313,-0.0185051188,0.0030766297,0.1425452679
0.5537480116,-0.0253479872,-0.0159483682,0.0058646020,-0.0431833006,0.0155111952,0.1298161596
0.5637969971,-0.0260540042,-0.0177404415,0.0093095126,-0.0646666735,0.0290403850,0.1181498468
0.5738729239,-0.0206956062,-0.0167471897,0.0136025371,-0.0561227202,0.0280054808,0.1107145697
0.5839579105,-0.0133583052,-0.0235947501,-0.0034938636,-0.0421622470,0.0185449347,0.1053953692
0.5939769745,-0.0130061312,-0.0264787804,-0.0138437925,-0.0229267646,0.0154673858,0.0958327577
0.6040849686,-0.0146429939,-0.0253312122,0.0023199138,0.0082570929,-0.0076480536,0.0894446298
0.6141510010,-0.0112334890,-0.0240822565,0.0121549191,0.0574605912,-0.0189110935,0.0862411186
0.6242449284,-0.0194695387,-0.0246199500,0.0234716348,0.1151337177,-0.0237465277,0.0809141994
0.6344059706,-0.0275225434,-0.0230266582,0.0306705050,0.1654160619,-0.0360474028,0.0798334852
0.6444230080,-0.0296889339,-0.0193892848,0.0449938588,0.1910100728,-0.0348386616,0.0681475997
0.6543989182,-0.0308641884,-0.0264972579,0.0426776223,0.1780703068,-0.0223015640,0.0554155596
0.6644870043,-0.0339863710,-0.0384803526,0.0248305015,0.1640146077,-0.0056129312,0.0299443565
0.6745439768,-0.0341127329,-0.0446744077,0.0205604248,0.1467940658,0.0079271113,0.0140285064
0.6846209764,-0.0262427423,-0.0335917585,0.0129030170,0.1286612749,0.0055160853,-0.0061432738
0.6946699619,-0.0182471368,-0.0304603111,-0.0028023901,0.1115461960,0.0084322467,-0.0241880547
0.7048139572,-0.0091075106,-0.0371824019,0.0036493358,0.0976004750,0.0145309512,-0.0464785099
0.7147970200,-0.0144635839,-0.0323902480,0.0127579393,0.0954736769,0.0134097617,-0.0528493263
0.7249239683,-0.0158299301,-0.0266539585,0.0306033306,0.1179088354,0.0103180977,-0.0687830150
0.7349499464,-0.0093166633,-0.0178939234,0.0526924543,0.1425736994,-0.0010900854,-0.0613623857
0.7450109720,-0.0076895161,-0.0187321436,0.0499325804,0.1585514992,0.0022744192,-0.0549941026
0.7551039457,-0.0109889908,-0.0418606512,0.0259992294,0.1779217422,-0.0134451557,-0.0507596768
0.7651449442,-0.0104065044,-0.0444075577,0.0179220848,0.2026276290,-0.0291252490,-0.0475881882
0.7752379179,-0.0098486645,-0.0292839538,0.0208779983,0.2122818530,-0.0343879238,-0.0539640598
0.7852820158,-0.0151648028,-0.0230212938,0.0022481498,0.1897535175,-0.0240689050,-0.0688200369
0.7953460217,-0.0155028803,-0.0353880040,0.0017168340,0.1500721574,-0.0053918897,-0.0804804265
0.8054829836,-0.0030164223,-0.0382799618,-0.0031697932,0.1362286359,-0.0087946774,-0.0953421220
0.8154689074,0.0144141810,-0.0345196836,-0.0074207964,0.1276751012,-0.0078844083,-0.1070192829
0.8255449533,0.0191403832,-0.0307905804,-0.0049939337,0.1084548309,-0.0069907182,-0.1070144325
0.8356269598,0.0218704548,-0.0347643010,0.0072679934,0.0754249766,-0.0126123857,-0.1112560481
0.8459190130,0.0275501814,-0.0329882018,0.0154805006,0.0433297530,-0.0043911403,-0.1091191918
0.8557839394,0.0273628440,-0.0323471539,0.0097084465,0.0176158678,0.0060436577,-0.1016748548
0.8658089638,0.0340499170,-0.0444122665,-0.0019815150,-0.0176828671,0.0142590441,-0.0963531211
0.8758859634,0.0347517915,-0.0399569981,-0.0081166802,-0.0497025847,0.0151027329,-0.0867883787
0.8859559298,0.0342496820,-0.0364810340,-0.0134577928,-0.0743215084,0.0223226286,-0.0857170597
0.8960099220,0.0335722156,-0.0368832462,-0.0199902244,-0.0946518183,0.0274297725,-0.0888947472
0.9060829878,0.0279730763,-0.0246985089,-0.0257412978,-0.0967731848,0.0263493285,-0.0888939500
0.9161559343,0.0242230501,-0.0105435383,-0.0412149616,-0.0615574047,0.0266638473,-0.0878409371
0.9262409210,0.0212952103,-0.0000487098,-0.0437116213,-0.0092166793,0.0218091048,-0.0889189094
0.9362989664,0.0213272478,0.0183960665,-0.0515064783,0.0314721614,0.0083633373,-0.0899977535
0.9463509321,0.0182485785,0.0274272431,-0.0538786836,0.0517586321,0.0074793007,-0.0900032222
0.9564579725,0.0161622372,0.0239338148,-0.0384757705,0.0836558416,0.0194368940,-0.0889435485
0.9666029215,0.0190259423,0.0292977560,-0.0411564894,0.1286630183,0.0018956511,-0.0730372220
0.9765589237,0.0247390773,0.0338587649,-0.0454073735,0.1466508061,0.0180522501,-0.0602921285
0.9866179228,0.0207298901,0.0170540679,-0.0408441015,0.1520452052,0.0128701385,-0.0486164317
0.9966880083,0.0256853011,0.0070043076,-0.0440048762,0.1404505968,-0.0009561949,-0.0380024016
1.0068379641,0.0287270751,0.0163420904,-0.0443780608,0.1384665221,-0.0146582257,-0.0210188255
1.0168299675,0.0249269810,0.0120136607,-0.0439096875,0.1065559909,-0.0243899487,-0.0061503975
1.0269019604,0.0171848740,0.0026854745,-0.0360554047,0.0499689318,-0.0216805823,-0.0029488788
1.0369669199,0.0045065479,-0.0019973645,-0.0298130699,0.0093024643,-0.0103429724,0.0002525070
1.0470279455,-0.0102408333,0.0068338383,-0.0287690349,-0.0078599062,-0.0008746358,0.0108803837
1.0568929911,-0.0142797632,0.0107881892,-0.0258381553,-0.0227911826,-0.0020938311,0.0066363704
1.0669909716,-0.0153923435,0.0176110733,-0.0259537883,-0.0431390628,0.0051837894,0.0108923679
1.0770349503,-0.0235195253,0.0234625209,-0.0223747678,-0.0646616742,0.0230482742,0.0130303539
1.0875430107,-0.0298246834,0.0263932217,-0.0160581656,-0.0711523518,0.0326523632,0.0300253835
1.0973489285,-0.0273616109,0.0205842126,-0.0290889330,-0.0571449250,0.0201315135,0.0438189581
1.1074270010,-0.0210523400,0.0197342504,-0.0428831764,-0.0324045308,0.0013386507,0.0576058775
1.1174799204,-0.0167138670,0.0229446758,-0.0378878899,-0.0054621287,-0.0237816162,0.0745752752
1.1275539398,-0.0161782596,0.0242897142,-0.0374513455,0.0235773809,-0.0457054898,0.0904822648
1.1376079321,-0.0175716970,0.0179554690,-0.0377006717,0.0535661727,-0.0560199134,0.0957784951
1.1476709843,-0.0189298484,0.0127491821,-0.0297526307,0.1071276143,-0.0757138580,0.0957559869
1.1577370167,-0.0171631370,0.0134957898,-0.0203937478,0.1415415108,-0.1019475907,0.0946723521
1.1678489447,-0.0191787276,0.0162207354,0.0085719647,0.1489879191,-0.0998235866,0.0851162672
1.1779849529,-0.0279921088,0.0043195356,0.0200201683,0.1232042611,-0.0830989331,0.0808839649
1.1879749298,-0.0319478028,-0.0184169542,0.0156140747,0.0726645812,-0.0453831814,0.0745455846
1.1980079412,-0.0330262892,-0.0414059870,0.0037968573,0.0319176801,-0.0266947150,0.0660708696
1.2081439495,-0.0253175590,-0.0489937775,0.0012517391,-0.0183819234,-0.0134087373,0.0554720201
1.2181349993,-0.0184730683,-0.0529198162,0.0011558351,-0.0803286508,-0.0098438300,0.0342535488
1.2282329798,-0.0183836315,-0.0494175069,-0.0084108887,-0.1498494595,0.0043361718,0.0236592293
1.2383099794,-0.0221583042,-0.0520762913,-0.0177023001,-0.2096720487,0.0089876493,0.0035025624
1.2484300137,-0.0199698899,-0.0501048081,-0.0187860318,-0.2213275582,0.0003196588,-0.0081773298
1.2583959103,-0.0176749621,-0.0384166948,-0.0100798784,-0.2029647976,-0.0218306500,-0.0124402521
1.2684749365,-0.0221648607,-0.0206524264,0.0030722436,-0.1514774114,-0.0479079261,-0.0124667501
1.2785339355,-0.0237343702,-0.0162155759,0.0170009546,-0.1021546125,-0.0708143041,-0.0114289159
1.2886359692,-0.0204259250,-0.0135253798,0.0265440159,-0.0605145916,-0.0725588053,-0.0093168961
1.2986899614,-0.0240687523,-0.0106634628,0.0189040117,-0.0113371937,-0.0805626735,-0.0008389896
1.3088150024,-0.0159397218,-0.0202907454,0.0079021277,0.0250119977,-0.0865914747,0.0023346329
1.3188389540,-0.0058180494,-0.0307896864,-0.0048102322,0.0346049704,-0.0854535028,0.0012709665
1.3289469481,-0.0054938300,-0.0384090059,-0.0157036372,0.0185444839,-0.0803095400,-0.0019073165
1.3390399218,-0.0120173795,-0.0383789651,-0.0153173981,-0.0168145709,-0.0668933317,-0.0125096273
1.3490740061,-0.0125415726,-0.0356530063,-0.0114327250,-0.0467722304,-0.0608899668,-0.0284282062
1.3590400219,-0.0139675541,-0.0341220014,-0.0128632961,-0.0800273865,-0.0442513376,-0.0358440466
1.3692239523,-0.0144148273,-0.0336720459,-0.0058024111,-0.0928658545,-0.0412723236,-0.0496405512
1.3792419434,-0.0068397028,-0.0255059134,-0.0103637753,-0.0789116845,-0.0496876463,-0.0570808910
1.3893209696,-0.0002334814,-0.0221135151,-0.0108209429,-0.0745880678,-0.0560488105,-0.0623963587
1.3993870020,-0.0005446475,-0.0215652119,-0.0034021917,-0.0736626163,-0.0422879905,-0.0687605143
1.4094430208,0.0010890861,-0.0219305288,-0.0074677053,-0.0437483415,-0.0451896377,-0.0655837655
1.4195719957,0.0047541456,-0.0211764108,-0.0101411520,0.0139799323,-0.0553378798,-0.0719742849
1.4295920134,0.0065779584,-0.0095142256,-0.0131886182,0.0866729915,-0.0674647167,-0.0762450695
1.4396899939,-0.0022989910,0.0003941527,-0.0080018817,0.1229079589,-0.0629661009,-0.0858082101
1.4497230053,-0.0150777502,0.0074034799,0.0011570868,0.1270244122,-0.0481377579,-0.0953573734
1.4598009586,-0.0200189147,0.0104870666,0.0024879393,0.1153397858,-0.0535383821,-0.0942953005
1.4698549509,-0.0180631075,0.0017955175,-0.0118581830,0.1035322398,-0.0473228283,-0.1017223299
1.4799169302,-0.0190536473,-0.0069331061,-0.0079090176,0.0843942314,-0.0549730249,-0.1102156788
1.4899879694,-0.0131324930,-0.0021048912,-0.0030947509,0.0705311447,-0.0561690517,-0.1123363599
1.5000679493,-0.0151008470,0.0055765379,0.0015123305,0.0426675603,-0.0447542109,-0.1144471765
1.5101199150,-0.0121642752,-0.0005022415,0.0028808531,0.0051678540,-0.0302402489,-0.1165540069
1.5201950073,-0.0072090132,-0.0019251832,0.0008957205,-0.0290846583,-0.0199007913,-0.1122929454
1.5302559137,-0.0022008519,0.0052785147,-0.0013725939,-0.0333598070,-0.0188073628,-0.1016737893
1.5403689146,0.0027376015,0.0154170860,0.0012176451,-0.0376251228,-0.0188031029,-0.0953019112
1.5504029989,0.0066293972,0.0188900698,0.0156949572,-0.0311091933,-0.0292884335,-0.0846903473
1.5604969263,0.0114121335,0.0165655483,0.0020777998,-0.0129259285,-0.0321814269,-0.0645222291
1.5705879927,0.0101443129,0.0241209138,-0.0026223245,0.0223665200,-0.0392591096,-0.0581641309
1.5809040070,0.0098798471,0.0191019643,-0.0052216235,0.0245231483,-0.0413486250,-0.0560421236
1.5910329819,0.0075903432,0.0140817631,-0.0069043818,0.0085173901,-0.0415030904,-0.0581609346
1.6008859873,-0.0034734707,0.0245367754,-0.0078354059,-0.0097127464,-0.0332219899,-0.0655847639
1.6109579802,-0.0067010326,0.0261983741,-0.0040251794,-0.0226180255,-0.0238474626,-0.0751326606
1.6210110188,-0.0098799868,0.0296635497,-0.0150081096,-0.0323090032,-0.0154640973,-0.0783114135
1.6309469938,-0.0131345494,0.0369933136,-0.0164237209,-0.0248842705,-0.0111681530,-0.0804352835
1.6410419941,-0.0066202981,0.0366470702,-0.0175880380,-0.0142342877,-0.0089529352,-0.0804368779
1.6510639191,0.0028216739,0.0333927758,-0.0284311362,-0.0173825175,-0.0131077329,-0.0623870380
1.6612069607,0.0032215018,0.0272905100,-0.0257620402,-0.0389706343,0.0123014869,-0.0421946831
1.6712219715,-0.0005623799,0.0222384799,-0.0164219327,-0.0358442143,0.0209632181,-0.0198937058
1.6812909842,-0.0005207460,0.0269414056,-0.0119281588,-0.0303897951,0.0105590466,0.0045210882
1.6913559437,0.0042877393,0.0385023840,-0.0112950979,-0.0325506851,0.0137926564,0.0151412413
1.7013520002,0.0021832783,0.0325627215,-0.0136261759,-0.0443812460,0.0232876260,0.0225815810
1.7114789486,-0.0039084060,0.0353683718,-0.0063930932,-0.0552675575,0.0443938412,0.0194093566
1.7215650082,-0.0100300414,0.0410473831,-0.0148174344,-0.0478381366,0.0487308018,0.0236568321
1.7316129208,-0.0093369884,0.0428928621,-0.0230702944,-0.0307535306,0.0477976277,0.0204671640
1.7416759729,-0.0027934711,0.0448768623,-0.0242402144,0.0003551217,0.0321805850,0.0246986616
1.7517799139,0.0008395512,0.0527799018,-0.0435692258,0.0463963300,0.0178391971,0.0416675247
1.7618089914,-0.0034923356,0.0453960784,-0.0420589037,0.0880718678,0.0129530951,0.0501488969
1.7719500065,-0.0128088100,0.0421067961,-0.0187988468,0.1222427264,0.0111430790,0.0522630438
1.7820219994,-0.0171973798,0.0262436140,-0.0128244935,0.1319976300,-0.0036063064,0.0554385968
1.7920689583,-0.0165824089,0.0152196158,-0.0067172828,0.1405200809,-0.0025191377,0.0480043143
1.8020739555,-0.0179129634,0.0012848249,0.0071235118,0.1307204515,0.0164465643,0.0405836850
1.8121709824,-0.0299412999,0.0037703386,0.0119896354,0.1092885286,0.0247069560,0.0342221260
1.8222179413,-0.0301359389,0.0002368560,-0.0009565534,0.0717824325,0.0391378291,0.0193736702
1.8322999477,-0.0293323789,-0.0054162871,0.0032325801,0.0117640235,0.0639815927,0.0045375330
1.8423439264,-0.0313717537,-0.0162245166,-0.0107000647,-0.0364980474,0.0868142024,-0.0092421947
1.8524079323,-0.0304401908,-0.0145655405,-0.0133629618,-0.0504185781,0.0908962265,-0.0156081486
1.8625109196,-0.0245421324,-0.0129649173,-0.0150943575,-0.0514159352,0.0833975673,-0.0251678303
1.8725439310,-0.0195748601,-0.0015843043,-0.0089452444,-0.0374699943,0.0760921836,-0.0251754895
1.8826159239,-0.0214817915,0.0020435920,-0.0066037956,-0.0194273442,0.0857650489,-0.0304842331
1.8926569223,-0.0272162948,0.0067055095,0.0056122360,0.0136645082,0.0849858075,-0.0315545574
1.9028089046,-0.0270210598,0.0173715819,-0.0001234593,0.0660944283,0.0716771930,-0.0273273215
1.9128429890,-0.0297764335,0.0185190309,0.0053018746,0.1099409461,0.0624468811,-0.0368981250
1.9228860140,-0.0275324080,0.0197817553,0.0043545184,0.1271247268,0.0520275272,-0.0305368975
1.9330149889,-0.0253520403,0.0152644981,0.0034597930,0.1174798533,0.0562296622,-0.0241620224
1.9430599213,-0.0262375865,0.0029480329,0.0053273854,0.1024564281,0.0646079630,-0.0209686253
1.9531589746,-0.0232354198,-0.0045924317,-0.0046814266,0.0918512940,0.0581977405,-0.0135370744
1.9631429911,-0.0163078699,-0.0014897713,-0.0148140965,0.0695923269,0.0431687236,-0.0103535317
1.9732729197,-0.0211037491,-0.0014704594,-0.0175783820,0.0204896852,0.0448951796,-0.0050298059
1.9832799435,-0.0220457707,-0.0103261601,-0.0090815006,-0.0308502000,0.0561118834,-0.0060729664
1.9934139252,-0.0269285832,-0.0096936356,-0.0031013074,-0.0811241344,0.0673525557,-0.0049935873
2.0034089088,-0.0249770079,-0.0023339519,0.0084954323,-0.0916569382,0.0534663014,-0.0049978481
2.0138568878,-0.0112850172,0.0050290097,0.0123582901,-0.0917284340,0.0609206893,-0.0007465777
2.0238318443,-0.0103465421,0.0104319919,0.0035083708,-0.1012660116,0.0545054004,0.0045616347
2.0335929394,-0.0085571809,0.0188401807,0.0054194746,-0.0970581472,0.0609786771,0.0151810572
2.0436978340,-0.0049426360,0.0156624187,0.0006456194,-0.0885365605,0.0632514209,0.0268598162
2.0537748337,-0.0023301940,0.0173929799,-0.0137782274,-0.0777738020,0.0549255125,0.0374712497
2.0638189316,0.0031443734,0.0241355766,-0.0133298216,-0.0381179936,0.0383151136,0.0406382792
2.0739159584,0.0145299928,0.0183964837,-0.0066085639,0.0068936343,0.0196297076,0.0438025147
2.0839660168,0.0220984127,0.0186153520,-0.0101910410,0.0625979081,-0.0010987408,0.0448398180
2.0940527916,0.0159383621,0.0238819588,-0.0085499464,0.1084896848,-0.0007069232,0.0437686257
2.1041250229,0.0048394399,0.0186470021,0.0080650868,0.1425925344,0.0038007433,0.0384532250
2.1143651009,-0.0012852352,0.0163708199,0.0093283476,0.1671850681,-0.0012811008,0.0395043716
2.1242370605,-0.0005314749,0.0151041616,0.0039736447,0.1695318520,-0.0224894490,0.0384313837
2.1343607903,0.0051419334,0.0129352082,0.0114099802,0.1611565202,-0.0384441800,0.0437342711
2.1443638802,0.0069158571,-0.0058510434,0.0070260582,0.1356210709,-0.0460810624,0.0458605401
2.1544418335,0.0036832888,-0.0169481765,-0.0083809672,0.1099478230,-0.0387612320,0.0639224946
2.1644968987,0.0002505381,-0.0144078862,-0.0113670407,0.0865247920,-0.0442643873,0.0649874955
2.1745648384,0.0076649385,-0.0158823263,-0.0086922226,0.0513320193,-0.0467086360,0.0628724173
2.1846389771,0.0082302587,-0.0156015884,0.0003027139,0.0052958177,-0.0322623178,0.0618295185
2.1946740150,-0.0029502909,-0.0135390889,0.0078829946,-0.0279155299,-0.0198396724,0.0586584285
2.2047848701,-0.0004230838,-0.0116025936,0.0074921069,-0.0524264649,-0.0232232176,0.0607865602
2.2148249149,0.0099313455,-0.0175050627,0.0040826616,-0.0620047972,-0.0264950432,0.0597235560
2.2248988152,0.0153566198,-0.0214298498,-0.0090240417,-0.0607832000,-0.0412705280,0.0703338534
2.2349739075,0.0216713753,-0.0174252521,-0.0092621623,-0.0468915924,-0.0421350561,0.0820105523
2.2450389862,0.0201012101,-0.0201915037,-0.0172156282,-0.0437285565,-0.0378076844,0.0905063003
2.2550940514,0.0184383001,-0.0238613021,-0.0173638649,-0.0352665745,-0.0303272661,0.0873228908
2.2652258873,0.0128211575,-0.0187580716,-0.0165653415,-0.0278733745,-0.0228626933,0.0830775499
2.2752218246,0.0082752900,-0.0175528657,-0.0050068679,-0.0172298104,-0.0207234398,0.0713959262
2.2852978706,0.0077681141,-0.0115379225,-0.0050810161,-0.0076858401,-0.0154245505,0.0575927608
2.2953639030,0.0073021846,-0.0181685816,-0.0099581061,-0.0120138777,-0.0102257263,0.0469781347
2.3054649830,0.0098343687,-0.0258125197,-0.0206780024,-0.0173745528,-0.0081987940,0.0395479128
2.3154799938,0.0143324630,-0.0276156794,-0.0187921710,-0.0258404762,-0.0157702938,0.0289289597
2.3255510330,0.0199390259,-0.0265756976,-0.0169537850,-0.0396513641,-0.0222851858,0.0246820170
2.3356349468,0.0225842800,-0.0274841320,-0.0044717374,-0.0536241457,-0.0128700454,0.0225655362
2.3456869125,0.0164813604,-0.0392460339,-0.0068450752,-0.0707860887,-0.0045657768,0.0172650460
2.3557710648,0.0163160171,-0.0345350020,-0.0112639247,-0.0642822236,-0.0140607459,0.0172605198
2.3657178879,0.0259554889,-0.0317485444,-0.0058533731,-0.0674649626,-0.0162453353,0.0119512416
2.3759629726,0.0238483753,-0.0182826649,-0.0005728783,-0.0834895000,-0.0142075513,0.0204505213
2.3859610558,0.0177375283,-0.0213397872,-0.0031151953,-0.0932747498,0.0037456159,0.0204619728
2.3960061073,0.0115678804,-0.0292768013,0.0039824662,-0.0953795761,0.0005235239,0.0172751658
2.4060988426,0.0054049687,-0.0167670976,0.0062443432,-0.0804163441,-0.0014402911,0.0215175822
2.4161429405,0.0041388469,-0.0100859534,-0.0040510478,-0.0600780174,-0.0076501835,0.0183241181
2.4262759686,0.0038958688,-0.0003771910,-0.0150372563,-0.0280529764,-0.0084246304,0.0193773992
2.4362759590,0.0007062454,0.0045824517,-0.0140656410,-0.0088175777,-0.0114808083,0.0129995942
2.4473350048,-0.0004728537,-0.0001875886,-0.0256825872,-0.0055847671,-0.0146427788,0.0119353952
2.4563639164,-0.0075398190,-0.0039893519,-0.0208556242,-0.0131292362,-0.0072810026,0.0119409878
2.4665689468,-0.0165309701,0.0048583616,-0.0140772043,-0.0023418348,-0.0188726783,0.0098088617
2.4765558243,-0.0068527563,0.0205673445,-0.0060582939,0.0214006975,-0.0451782532,0.0119126923
2.4865629673,-0.0009721618,0.0265710223,-0.0066115442,0.0310810227,-0.0525006130,0.0150919743
2.4967398643,-0.0029454927,0.0170261133,-0.0071761194,0.0160184503,-0.0398581848,0.0214735735
2.5068199635,-0.0069846911,0.0093909968,-0.0117914258,0.0009881007,-0.0303704087,0.0321001187
2.5167620182,-0.0032590728,0.0036889783,-0.0155110536,-0.0022314740,-0.0282134488,0.0416576043
2.5268969536,0.0033304591,0.0029095879,-0.0240432806,0.0010620579,-0.0365834981,0.0554559752
2.5369479656,0.0039665299,-0.0007590780,-0.0277127214,-0.0000684811,-0.0291128643,0.0639568493
2.5470519066,-0.0042242808,-0.0054084193,-0.0333989449,0.0020471336,-0.0269375965,0.0692663938
2.5571188927,-0.0164087210,0.0006511679,-0.0285046287,0.0061599067,-0.0120723620,0.0650239810
2.5671639442,-0.0306338463,0.0115780700,-0.0207850523,-0.0161880106,-0.0174623355,0.0820157453
2.5773139000,-0.0283332262,0.0195674170,-0.0054274383,-0.0387734808,-0.0007512649,0.0714118406
2.5873119831,-0.0122400029,-0.0094702374,-0.0007508578,-0.0481539331,-0.0231162254,0.0714030489
2.5974159241,0.0049814181,-0.0084612500,-0.0281489082,-0.0339590162,-0.0547905304,0.0766926184
2.6074218750,0.0113621848,0.0045109261,-0.0084226904,0.0100068431,-0.0756215081,0.0777328536
2.6175940037,0.0197999980,-0.0145077836,-0.0067814174,0.0271644983,-0.0839740559,0.0756005272
2.6276078224,0.0076864855,-0.0072713029,-0.0013257447,0.0268550403,-0.0532118753,0.0745541677
2.6376681328,-0.0162047241,-0.0078780781,0.0009894189,0.0158769563,-0.0225580931,0.0713882074
2.6477270126,-0.0194654260,-0.0125001799,0.0021935520,0.0104933763,-0.0184299275,0.0607736409
2.6578698158,-0.0157555435,0.0002298823,-0.0181606598,-0.0044744145,-0.0164929442,0.0522831492
2.6678569317,-0.0150812371,-0.0074584614,-0.0201849528,-0.0290998649,-0.0093703186,0.0384895727
2.6779918671,-0.0143902106,-0.0190989505,-0.0165338106,-0.0674945787,-0.0118423318,0.0363750905
2.6879839897,-0.0156353507,-0.0124350917,-0.0248974748,-0.0696528032,-0.0097735887,0.0310676787
2.6980829239,-0.0149556799,-0.0144285690,-0.0243552513,-0.0492735505,-0.0202268958,0.0278714839
2.7081198692,-0.0083325012,-0.0105854403,-0.0256269164,-0.0397322439,-0.0137631372,0.0299958885
2.7181949615,-0.0114288433,-0.0164949428,-0.0298435278,-0.0441832617,0.0042157969,0.0268206671
2.7282609940,-0.0116786761,-0.0194128882,-0.0097282110,-0.0261608548,0.0160245188,0.0236365926
2.7383430004,-0.0099033518,-0.0095944535,-0.0029437724,0.0123315165,0.0089682080,0.0289317556
2.7484569550,-0.0100710792,-0.0035586485,-0.0133117614,0.0487640910,-0.0055550747,0.0310388487
2.7584810257,-0.0015029113,-0.0128690135,-0.0057451907,0.0807721689,-0.0042232946,0.0299715213
2.7685160637,0.0002564687,-0.0211078059,0.0020612893,0.1096608117,-0.0113778766,0.0331460088
2.7785830498,0.0001045961,-0.0195818674,-0.0084152399,0.1353312284,-0.0175398979,0.0299499501
2.7887201309,0.0039010842,-0.0247372519,-0.0088543473,0.1715981513,-0.0162242968,0.0203852057
2.7987208366,0.0058813589,-0.0298490059,-0.0110143004,0.1811674088,-0.0141629437,-0.0019148400
2.8087968826,0.0021602113,-0.0321713798,-0.0172347613,0.1629963964,-0.0123101827,-0.0188980848
2.8188691139,-0.0054348512,-0.0258596074,-0.0042855921,0.1445855796,0.0139437914,-0.0358672142
2.8289949894,-0.0129818721,-0.0361977927,0.0026419577,0.1242100075,0.0232603289,-0.0443517789
2.8389930725,-0.0077544851,-0.0272477996,-0.0130537925,0.1007802635,0.0177097674,-0.0507204607
2.8490719795,-0.0025015573,-0.0270847213,0.0002921043,0.0718953535,0.0237133317,-0.0676989108
2.8591299057,-0.0059789820,-0.0289857518,0.0250409655,0.0451379344,0.0308520682,-0.0761830807
2.8692760468,-0.0143523319,-0.0241604578,0.0505414419,0.0364698768,0.0434679948,-0.0825453699
2.8792819977,-0.0158266220,-0.0194467437,0.0497067384,0.0300496332,0.0455540493,-0.0793565065
2.8893518448,-0.0133524938,-0.0196834933,0.0215706639,0.0193570424,0.0475828461,-0.0793527737
2.8994030952,-0.0089303656,-0.0316156261,0.0195811801,-0.0062375609,0.0451819412,-0.0878420621
2.9094691277,-0.0063701672,-0.0310396682,0.0212181024,-0.0286936015,0.0491817407,-0.0952669531
2.9195289612,-0.0165065322,-0.0032510289,0.0130441608,-0.0031032050,0.0515628047,-0.0899640098
2.9296030998,-0.0246855114,0.0138952602,0.0021323380,0.0161429271,0.0474242531,-0.0995271504
2.9396657944,-0.0230424795,0.0243023504,0.0088943066,0.0236523226,0.0431825705,-0.1090867668
2.9498169422,-0.0124511821,0.0219370592,-0.0038345042,0.0098430319,0.0366884507,-0.1101483032
2.9598040581,-0.0028543870,0.0225539077,0.0038888869,0.0259776060,0.0240962952,-0.1101587564
2.9705069065,0.0107274549,0.0252722371,0.0081903758,0.0796466917,-0.0061582802,-0.1027548984
2.9800758362,0.0223169532,0.0330889709,0.0061978516,0.1235788092,-0.0226274692,-0.0836619660
2.9902958870,0.0249297228,0.0255596507,0.0083674612,0.1342271864,-0.0192335360,-0.0656123906
3.0001320839,0.0304202940,0.0044349302,0.0183404498,0.1267707348,-0.0203109849,-0.0581787787
3.0101890564,0.0320115276,-0.0021745691,0.0125865759,0.1097243801,-0.0224990379,-0.0454339571
3.0202541351,0.0217693355,0.0038294664,0.0134267630,0.1062791049,0.0018756774,-0.0454205051
3.0302879810,0.0104865329,0.0000652543,0.0092610540,0.0795561448,0.0058589671,-0.0496589243
3.0417170525,0.0138917761,0.0000054708,-0.0010795178,0.0292266645,0.0223200992,-0.0613170490
3.0511620045,0.0103974240,0.0016569963,-0.0090919314,-0.0211345144,0.0419926047,-0.0687270239
3.0610089302,0.0107550221,0.0012589565,-0.0077466550,-0.0532180108,0.0480668060,-0.0708411112
3.0712680817,0.0160245504,0.0017339459,-0.0123689948,-0.0531248040,0.0384831540,-0.0761549100
3.0812940598,0.0193968620,0.0100370515,-0.0129598556,-0.0328374282,0.0375561081,-0.0825297236
3.0907430649,0.0119676189,0.0135691632,-0.0085942922,-0.0295811817,0.0322998278,-0.0793477818
3.1008191109,0.0075566070,0.0238891114,-0.0070801559,-0.0199553706,0.0302687027,-0.0782895088
3.1107249260,0.0070331590,0.0265121926,0.0004483280,-0.0018967409,0.0389498062,-0.0729807615
3.1207818985,0.0025367637,0.0272958744,-0.0054496708,0.0279977471,0.0382123142,-0.0634327307
3.1307759285,0.0028730829,0.0282406081,-0.0109934388,0.0633898228,0.0216269456,-0.0507084094
3.1409420967,0.0129585462,0.0235351790,-0.0045030299,0.0795267671,0.0090481695,-0.0485947952
3.1509809494,0.0093465345,0.0149489511,-0.0077267471,0.0774079561,0.0080308411,-0.0390385725
3.1610369682,-0.0011983912,0.0219712723,0.0055268225,0.0795538798,0.0070165768,-0.0347928293
3.1711120605,-0.0048765643,0.0279747713,0.0012711701,0.0795453638,0.0081052771,-0.0305450857
3.1811649799,0.0002476771,0.0281538237,0.0009400068,0.0752550364,0.0101759508,-0.0326663628
3.1913559437,-0.0004885595,0.0194960106,-0.0083384095,0.0537958145,0.0216674916,-0.0315933749
3.2014470100,-0.0062115891,0.0292558540,-0.0158807822,0.0462002940,0.0343904123,-0.0230914317
3.2115368843,-0.0110661788,0.0420167334,-0.0127216158,0.0546979085,0.0387505367,-0.0167206172
3.2216119766,-0.0081695421,0.0382825024,-0.0123843728,0.0516401753,0.0249917153,-0.0071703889
3.2316389084,-0.0053647561,0.0307739843,-0.0060820761,0.0793924406,0.0253240783,0.0066261170
3.2417330742,-0.0095513565,0.0244002808,0.0063014445,0.1072038561,0.0204204656,0.0310381837
3.2517738342,-0.0157860313,0.0278764237,-0.0034964266,0.1329550296,0.0080713890,0.0554468520
3.2617950439,-0.0114303036,0.0159476865,-0.0120793162,0.1340712309,0.0039482159,0.0724325553
3.2718470097,-0.0082200570,0.0147979725,-0.0002736630,0.1212294772,0.0081634670,0.0851795152
3.2820019722,-0.0118793650,0.0193976630,-0.0022942605,0.1041571796,0.0080421604,0.0894308463
3.2920420170,-0.0125671430,0.0141681302,-0.0093529401,0.0795578286,0.0131050954,0.0851924270
3.3021268845,-0.0103214188,0.0098257530,-0.0127213774,0.0571386963,0.0139414612,0.0809525400
3.3122038841,-0.0070198579,0.0072730053,-0.0231110640,0.0315755457,0.0083434973,0.0703382492
3.3223099709,-0.0046564145,0.0007327667,-0.0152940927,-0.0090567293,0.0153476112,0.0597335435
3.3323168755,-0.0090634329,-0.0059998762,-0.0107211648,-0.0326869562,0.0299411993,0.0512524433
3.3424057961,-0.0115459068,-0.0117762815,-0.0091777025,-0.0274983458,0.0448268726,0.0491360947
3.3524880409,-0.0111218495,-0.0126435291,-0.0026368084,0.0035330718,0.0366022326,0.0480623096
3.3625459671,-0.0067072315,-0.0095414650,-0.0046136561,0.0237962902,0.0378622413,0.0512420572
3.3725438118,-0.0043391390,-0.0160027873,0.0033765850,0.0535278209,0.0529911257,0.0533656590
3.3827319145,-0.0128045483,-0.0184573065,0.0086213173,0.0759070069,0.0563835911,0.0554854013
3.3927640915,-0.0153929396,-0.0130439531,0.0121354880,0.1004179418,0.0597671382,0.0533572696
3.4027948380,-0.0179927144,-0.0143748056,0.0012227711,0.1259901375,0.0642335266,0.0533543415
3.4128549099,-0.0176139865,-0.0165941846,0.0021914062,0.1377956718,0.0568120964,0.0384824499
3.4229841232,-0.0141265793,-0.0179015528,0.0041591940,0.1197819933,0.0427577980,0.0225519538
3.4330410957,-0.0143720312,-0.0320391171,-0.0057267728,0.0995550230,0.0372133628,0.0129981302
3.4431118965,-0.0213536713,-0.0307138097,-0.0080375252,0.0804556832,0.0252778735,-0.0018684345
3.4531400204,-0.0135803623,-0.0274653565,0.0198180489,0.0645478219,0.0144310836,-0.0167349987
3.4632220268,-0.0066670580,-0.0408834927,0.0280819349,0.0569863617,0.0239560120,-0.0103571266
3.4732370377,-0.0106781824,-0.0435921066,0.0342510752,0.0600679070,0.0368198790,0.0055755004
3.4833898544,-0.0148427589,-0.0471923463,0.0404607467,0.0632066280,0.0432774462,0.0151328528
3.4933919907,-0.0024464231,-0.0409849398,0.0506773405,0.0717037097,0.0476306491,0.0204418637
3.5035109520,0.0010825892,-0.0455478542,0.0529150181,0.0320958719,0.0600093566,0.0193978380
3.5135188103,-0.0110346181,-0.0514674298,0.0242623501,-0.0579860806,0.1026444286,0.0067004194
3.5236611366,-0.0221634600,-0.0587827079,-0.0034070197,-0.1575055420,0.1281853467,-0.0113125369
3.5336480141,-0.0175393019,-0.0519064181,-0.0026717964,-0.2449174225,0.1166309565,-0.0389028862
3.5437860489,-0.0107417507,-0.0405545346,-0.0016505900,-0.3218800724,0.1274645030,-0.0643609092
3.5538010597,-0.0223987196,-0.0334226005,-0.0061503830,-0.3679018915,0.1396988034,-0.0792082995
3.5638689995,-0.0310791526,-0.0371486060,-0.0022381726,-0.3958220780,0.1563202441,-0.0961802229
3.5739200115,-0.0269224439,-0.0321707241,0.0054979143,-0.3796702921,0.1415506154,-0.1046860889
3.5840530396,-0.0187078509,-0.0135516655,-0.0059700790,-0.3528188467,0.1237138361,-0.1100126803
3.5940527916,-0.0094099445,-0.0073891412,0.0034304080,-0.3163793683,0.1080810800,-0.1153387353
3.6042017937,-0.0009418529,0.0105391610,-0.0130273281,-0.2734647393,0.0862205848,-0.1079272255
3.6141648293,0.0036389430,0.0209131707,-0.0299856849,-0.2252591103,0.0686514452,-0.1005156487
3.6243228912,0.0101132290,0.0120612253,-0.0386497565,-0.1781201363,0.0510372296,-0.0984116867
3.6341159344,0.0126626389,-0.0023410448,-0.0146897612,-0.1257845014,0.0472984202,-0.0909942463
3.6441879272,0.0054165917,-0.0107400548,-0.0068956199,-0.0860999227,0.0286629498,-0.0729630515
3.6542580128,-0.0029275815,0.0073222388,0.0051555452,-0.0295479707,0.0302802864,-0.0634204075
3.6647648811,-0.0044466956,0.0052102674,0.0129149975,0.0229552910,0.0095735444,-0.0549508929
3.6745848656,-0.0010703604,0.0256185997,0.0162286572,0.0679589882,-0.0080304826,-0.0486003198
3.6846261024,-0.0045061810,0.0335063823,0.0120909633,0.0797844604,-0.0164095201,-0.0475452431
3.6947197914,-0.0108507676,0.0199262369,-0.0037861052,0.0497333519,0.0002916956,-0.0496528670
3.7047910690,-0.0192163084,0.0111443270,-0.0053733769,0.0198033340,0.0042205909,-0.0581389666
3.7148900032,-0.0197110567,0.0080621112,-0.0149862943,0.0082151210,-0.0107221399,-0.0560198873
3.7249159813,-0.0113429232,0.0098267663,-0.0303474851,0.0190663580,-0.0286584627,-0.0549703985
3.7349748611,-0.0067584319,0.0077228416,-0.0358933397,0.0204083249,-0.0562629253,-0.0592317246
3.7450289726,0.0007859666,0.0027707687,-0.0169398971,0.0322875157,-0.0699684843,-0.0613639876
3.7551951408,-0.0082975430,-0.0089563858,0.0010350165,0.0396988243,-0.0634679794,-0.0507446304
3.7651839256,-0.0243682060,-0.0040853154,0.0102849426,0.0577758066,-0.0557652488,-0.0326943249
3.7752490044,-0.0249052439,-0.0039219987,0.0314272456,0.0641077384,-0.0482338294,-0.0252595767
3.7853550911,-0.0136999590,0.0000867715,0.0263336711,0.0609838478,-0.0556258336,-0.0157069527
3.7954399586,-0.0024950604,0.0069261063,0.0075136242,0.0342736728,-0.0526758470,-0.0156986974
3.8054671288,0.0018083353,-0.0067514908,-0.0106583415,-0.0181340352,-0.0414824486,-0.0188650619
3.8155341148,0.0031915803,-0.0206296574,-0.0263791271,-0.0672895983,-0.0355936699,-0.0262822304
3.8255910873,0.0026335318,-0.0103418957,-0.0308007188,-0.0821595937,-0.0432206281,-0.0369000547
3.8356969357,0.0022026498,0.0018727055,-0.0361913629,-0.0670733228,-0.0579788014,-0.0422202535
3.8456950188,0.0037881036,0.0024354926,-0.0258965082,-0.0798551589,-0.0602063984,-0.0411556512
3.8558049202,-0.0064070625,0.0058411825,-0.0168193169,-0.0885189623,-0.0475350805,-0.0390235260
3.8658549786,-0.0079710586,0.0034918061,-0.0019056381,-0.0810864195,-0.0431352071,-0.0252204295
3.8759949207,-0.0028026800,0.0109864343,0.0073799309,-0.0501743108,-0.0385170169,-0.0092989868
3.8859989643,0.0012978215,0.0156739224,-0.0103069721,-0.0277779009,-0.0361025296,0.0055619180
3.8960309029,0.0131096439,0.0136939753,-0.0238627978,-0.0139590241,-0.0306832641,0.0044993171
3.9062459469,0.0170529392,0.0185742844,-0.0276295133,-0.0043779286,-0.0284553971,0.0076821940
3.9162058830,0.0102330642,0.0254099835,-0.0343719907,-0.0140561229,-0.0211053379,0.0087501211
3.9262909889,0.0024578173,0.0156087149,-0.0480914898,-0.0355065539,-0.0107239373,0.0023906259
3.9363529682,-0.0004271071,0.0144613851,-0.0503568836,-0.0484436564,0.0018477808,-0.0050324029
3.9464898109,-0.0022764902,0.0220714081,-0.0458506532,-0.0333996452,-0.0086593879,-0.0092887338
3.9564869404,-0.0021994214,0.0219905842,-0.0295142718,-0.0163783170,-0.0031983103,-0.0082285292
3.9665579796,-0.0080521507,0.0064177979,-0.0101002036,-0.0058453297,0.0106878784,-0.0082242023
3.9767251015,-0.0198197160,0.0073795188,-0.0199059434,0.0079810033,0.0162040833,0.0055784299
3.9866781235,-0.0160385761,0.0055414904,-0.0168437548,0.0197934266,0.0088797910,0.0055715721
3.9967770576,-0.0004499655,0.0046855677,-0.0117649017,0.0017715497,-0.0029220073,0.0098174494
4.0068187714,0.0034229655,0.0046343673,-0.0351576991,-0.0324350484,0.0031864850,0.0162007809
4.0168719292,-0.0074790521,0.0035662523,-0.0316775627,-0.0688255504,0.0134588303,0.0130297551
4.0269799232,-0.0096072955,0.0072833169,-0.0274326988,-0.0752249137,0.0134372581,0.0183406305
4.0371160507,-0.0098011000,0.0148981083,-0.0260992236,-0.0612845905,0.0072408817,0.0257665887
4.0470819473,-0.0061282022,0.0157524217,-0.0198058672,-0.0623227209,0.0040424918,0.0247025881
4.0571718216,-0.0073484285,0.0127152670,-0.0203390904,-0.0560856014,0.0211367887,0.0342657343
4.0672206879,-0.0136524243,0.0088188518,-0.0042824331,-0.0412795395,0.0350870937,0.0385170728
4.0773677826,-0.0102134747,0.0108225811,-0.0016898693,-0.0176173542,0.0173104927,0.0469965786
4.0873718262,0.0001051027,0.0158613790,-0.0104086576,0.0144946687,0.0080758492,0.0522926711
4.0973038673,0.0006353456,0.0142255295,-0.0091285286,0.0380689725,-0.0012473452,0.0554674268
4.1075658798,-0.0017755430,0.0107279886,-0.0018708290,0.0455480292,-0.0022425684,0.0554644950
4.1176776886,-0.0080922944,0.0033103696,0.0005217014,0.0454516262,0.0072995378,0.0544074886
4.1274890900,-0.0144150658,0.0055886377,0.0027825055,0.0315217488,0.0124421027,0.0480425358
4.1375217438,-0.0098908646,-0.0009755620,0.0010844885,0.0230555609,0.0048920400,0.0406083204
4.1477632523,-0.0003965895,-0.0037014016,-0.0035621705,0.0198957454,0.0005990911,0.0374217778
4.1578340530,0.0013022025,-0.0171805751,-0.0024909559,-0.0056205327,-0.0091874935,0.0352997743
4.1679539680,0.0029808779,-0.0219512712,0.0013183174,-0.0311538838,-0.0167895537,0.0427348539
4.1779608727,0.0016910334,-0.0219084751,0.0185580663,-0.0545263141,-0.0276323482,0.0384881794
4.1880698204,0.0044308798,-0.0200896990,0.0142151536,-0.0716018155,-0.0277951993,0.0363687016
4.1980690956,0.0052067237,-0.0241665971,0.0174393468,-0.0952512175,-0.0110519063,0.0321358703
4.2082309723,0.0010955234,-0.0273680221,0.0145911397,-0.1092496738,0.0015582284,0.0321464576
4.2182269096,0.0018268425,-0.0189182293,0.0087766470,-0.1039039120,0.0005369062,0.0310827903
4.2283468246,-0.0023548405,-0.0084681641,0.0156491213,-0.1018497869,0.0079276441,0.0225911029
4.2383599281,-0.0035590928,-0.0126273166,0.0137924375,-0.1061198935,0.0078695873,0.0194067601
4.2484750748,-0.0047292514,-0.0129231345,0.0022090492,-0.0911834240,0.0079941563,0.0183402319
4.2584857941,-0.0078485711,-0.0024622807,-0.0043727341,-0.0622420534,-0.0044723665,0.0204502549
4.2686119080,-0.0011611681,-0.0035307535,-0.0028162184,-0.0450321473,-0.0181580186,0.0140684545
4.2786340714,-0.0032281380,-0.0094284546,-0.0040618959,-0.0353832468,-0.0222904440,0.0183111355
4.2887611389,-0.0101825995,-0.0075179469,0.0015579878,-0.0299169514,-0.0349840038,0.0172428079
4.2987399101,-0.0072311861,-0.0104153883,0.0093751969,-0.0030837394,-0.0507283472,0.0076719406
4.3088541031,-0.0021864574,-0.0084144007,0.0145395221,0.0238527246,-0.0759532079,0.0087150345
4.3189268112,-0.0039320691,0.0033835641,0.0053181467,0.0346220173,-0.0853813291,0.0129547874
4.3289999962,-0.0017475288,-0.0071517359,0.0049995598,0.0388163850,-0.0790312886,0.0044603683
4.3390541077,-0.0024781923,-0.0177152287,-0.0002201977,0.0387641862,-0.0737124234,0.0065866364
4.3491601944,-0.0110772653,-0.0000025758,0.0110906782,0.0589198172,-0.0619060285,0.0002168209
4.3591880798,-0.0117859645,0.0031079522,0.0069739637,0.0579895750,-0.0757291690,-0.0029752438
4.3692750931,-0.0036435525,0.0012810698,0.0027944264,0.0343659781,-0.0611166060,-0.0082691424
4.3793220520,-0.0053149564,-0.0074759256,-0.0095267473,0.0096840682,-0.0475310199,-0.0071942899
4.3894309998,-0.0021926563,0.0012709370,-0.0103178797,0.0054294821,-0.0485593341,0.0034235329
4.3994379044,0.0057658153,0.0032181612,-0.0150320707,-0.0083861984,-0.0539370552,0.0108569488
4.4094848633,0.0117006497,0.0031958690,-0.0178879090,-0.0190872326,-0.0507911295,0.0193548948
4.4195709229,0.0106826024,-0.0065223109,-0.0217641182,-0.0202049613,-0.0454608127,0.0246668346
4.4297208786,0.0145206647,-0.0035495290,-0.0187982507,0.0031980723,-0.0377863124,0.0310346540
4.4397101402,0.0173754301,0.0014133325,-0.0225427933,0.0116482824,-0.0292444900,0.0278513785
4.4498090744,0.0152655737,0.0113006700,-0.0039027515,0.0125535978,-0.0134261139,0.0119341966
4.4598598480,0.0112878578,0.0084951986,0.0069567380,0.0092632622,-0.0050145192,0.0045066406
4.4699802399,0.0112526016,0.0086209644,0.0130472602,0.0391418524,-0.0047318251,0.0076836585
4.4799780846,0.0072995322,0.0088301171,0.0038114008,0.0595153011,-0.0140760578,0.0119210146
4.4901132584,0.0013753374,0.0022986403,0.0072974977,0.0509420261,-0.0110158864,0.0044919266
4.5001211166,-0.0123464866,0.0005487076,0.0106276097,0.0359255224,-0.0037470548,0.0002521741
4.5102062225,-0.0241360459,0.0045918692,0.0147970142,0.0252573285,-0.0038200254,0.0034407771
4.5202617645,-0.0261438880,-0.0011350641,0.0159627013,0.0061049396,-0.0092582004,0.0087519195
4.5303130150,-0.0242136512,-0.0050342213,0.0033138213,-0.0119842906,-0.0147212092,0.0087533174
4.5403709412,-0.0203173552,-0.0099084508,0.0061965403,-0.0117712375,-0.0359412767,0.0087426640
4.5504961014,-0.0144231422,-0.0099367034,0.0081320228,-0.0232819784,-0.0582907237,0.0140438862
4.5605716705,-0.0123386784,-0.0032105574,0.0041725454,-0.0337375477,-0.0795693845,0.0193449091
4.5705947876,-0.0112650199,-0.0071681272,0.0021716771,-0.0410664603,-0.0934001058,0.0235871896
4.5807299614,-0.0052781804,0.0054993499,0.0227018408,-0.0195406619,-0.1112230420,0.0278200209
4.5907959938,-0.0089835031,0.0152375568,0.0180522613,-0.0066889385,-0.1153137907,0.0341856405
4.6008129120,-0.0098307235,0.0055632461,0.0164020471,-0.0111273630,-0.0983681008,0.0352570266
4.6108698845,-0.0107074482,-0.0100292098,-0.0029584351,-0.0432882532,-0.0837588683,0.0405812897
4.6209011078,-0.0048460169,-0.0139883291,-0.0050568166,-0.0530777723,-0.0658610985,0.0320983194
4.6309981346,0.0010015566,-0.0101742279,-0.0032838169,-0.0454897881,-0.0774600878,0.0331525356
4.6410579681,0.0108396010,-0.0034828910,-0.0209315009,-0.0413608178,-0.0636436045,0.0310347863
4.6511392593,0.0079050856,-0.0035179981,-0.0229883976,-0.0296478383,-0.0614602864,0.0246617757
4.6612062454,0.0147927897,-0.0025615820,-0.0278161354,-0.0019781282,-0.0538047627,0.0225349776
4.6712751389,0.0138406651,0.0062978733,-0.0275448151,0.0407059267,-0.0534386449,0.0214623213
4.6813421249,0.0148470597,0.0124310721,-0.0210023113,0.0781294629,-0.0605463535,0.0203874689
4.6914520264,0.0178253856,0.0060496796,-0.0102228699,0.1047956944,-0.0592945367,0.0140111968
4.7014908791,0.0149518447,0.0055709351,0.0007052241,0.1196508035,-0.0506690927,0.0150735304
4.7115402222,0.0081647532,0.0060759056,-0.0019551101,0.1325624883,-0.0611600094,0.0161264781
4.7216048241,0.0092122154,-0.0001306066,0.0072780070,0.1304905415,-0.0675654486,0.0129384082
4.7316679955,0.0093573825,-0.0112704765,0.0116060199,0.1166081205,-0.0666686296,0.0065730540
4.7417960167,-0.0002572935,-0.0079686772,-0.0048101726,0.0919262096,-0.0530830435,0.0076479055
4.7517976761,-0.0060459776,-0.0193126332,-0.0049747410,0.0427917130,-0.0492521562,0.0097840931
4.7618770599,-0.0030519168,-0.0182421934,-0.0046442929,-0.0032343669,-0.0358737670,0.0076788650
4.7719888687,-0.0059838397,-0.0202147495,-0.0037654224,-0.0343388095,-0.0202368814,0.0066337073
4.7819929123,-0.0118916435,-0.0242316257,0.0026597199,-0.0536456592,-0.0108902520,0.0013342830
4.7920699120,-0.0137970848,-0.0186425578,0.0050618467,-0.0632338375,-0.0131653901,-0.0092824092
4.8021540642,-0.0077516241,-0.0111858975,0.0035074768,-0.0845396668,-0.0176719911,-0.0209590383
4.8122258186,-0.0036591094,-0.0115994345,0.0182384662,-0.1135819182,0.0042884345,-0.0315589532
4.8222661018,-0.0073514981,-0.0062978398,0.0142648043,-0.1157337502,0.0064402688,-0.0241247378
4.8323669434,0.0006819565,0.0019982329,0.0056375680,-0.0815225169,0.0003870369,-0.0220135171
4.8424282074,0.0174933877,0.0075795520,0.0159437470,-0.0407452583,-0.0215052124,-0.0167258102
4.8524928093,0.0225897040,0.0123201478,0.0081117572,-0.0096057653,-0.0391551778,0.0013089830
4.8625388145,0.0187308397,-0.0022277960,0.0121151628,-0.0085865743,-0.0337716006,0.0119294031
4.8726329803,0.0167859402,-0.0158344042,0.0073167500,-0.0116697429,-0.0453998260,0.0225408338
4.8826918602,0.0177705791,-0.0100000631,-0.0072171274,-0.0126820104,-0.0506933928,0.0257238448
4.8927330971,0.0118624764,-0.0167933833,-0.0082127629,-0.0223950651,-0.0402304307,0.0161762126
4.9028019905,0.0001289446,-0.0090788137,0.0032496271,-0.0427173823,-0.0362189114,0.0076889847
4.9128489494,-0.0075943870,-0.0024985203,-0.0020720544,-0.0727510527,-0.0217023529,-0.0039755940
4.9229669571,-0.0114191575,-0.0222762953,0.0021154103,-0.0931623131,-0.0092512760,-0.0198911764
4.9330091476,-0.0112195713,-0.0207282435,0.0023113308,-0.0834854022,-0.0166079924,-0.0220211726
4.9430451393,-0.0178506766,-0.0016521343,-0.0032599750,-0.0695504099,-0.0228736103,-0.0252132379
4.9531121254,-0.0097647710,-0.0039258730,0.0059670028,-0.0748492479,-0.0272048432,-0.0315857828
4.9632148743,0.0003442366,-0.0120442044,-0.0051739994,-0.0684017316,-0.0313652344,-0.0273423009
4.9732389450,0.0036246378,-0.0055493247,-0.0181732960,-0.0458790585,-0.0417604856,-0.0241660830
4.9834518433,0.0108876424,-0.0038320550,-0.0270351954,-0.0222754627,-0.0543013103,-0.0263019390
4.9934387207,0.0181982722,0.0028393737,-0.0269080587,-0.0081722150,-0.0775066316,-0.0241952464
5.0034437180,0.0196354892,0.0066317189,-0.0276357718,0.0034287814,-0.0635972098,-0.0220676474
5.0136151314,0.0062816339,-0.0001778135,-0.0147527037,0.0054310262,-0.0497736000,-0.0199357197
5.0235729218,-0.0002138417,-0.0002265701,-0.0135780750,0.0032658763,-0.0465953834,-0.0178099833
5.0337400436,0.0049517648,0.0017005673,-0.0075290385,0.0095309895,-0.0327182524,-0.0135579137
5.0437140465,0.0061620073,-0.0041531455,-0.0073107663,0.0000328254,-0.0434191003,-0.0146226455
5.0538749695,0.0133168297,-0.0081518423,-0.0188887902,-0.0203826465,-0.0298381764,-0.0199192744
5.0638918877,0.0096301036,-0.0141341817,-0.0151735125,-0.0451950543,-0.0035551738,-0.0241470430
5.0739498138,0.0010047157,-0.0046474468,-0.0156028448,-0.0485613681,0.0123124067,-0.0273249261
5.0838642120,0.0031168659,-0.0039778482,-0.0219684429,-0.0636961162,0.0312384255,-0.0336824208
5.0940561295,0.0081230002,-0.0130419862,-0.0167639442,-0.0628386885,0.0524666160,-0.0336708389
5.1041240692,0.0101837413,-0.0114420783,-0.0291151591,-0.0478637256,0.0494556464,-0.0273053497
5.1142730713,0.0131883817,-0.0028875002,-0.0256417580,-0.0126537550,0.0497295521,-0.0326240845
5.1242237091,0.0122662978,0.0057973135,-0.0199746080,0.0119674364,0.0425515361,-0.0273249261
5.1343889236,0.0074379640,0.0116354693,-0.0209066458,0.0248732492,0.0331341326,-0.0241465103
5.1443901062,0.0055391984,0.0136694182,-0.0147858439,0.0558924153,0.0259497203,-0.0284051709
5.1544542313,0.0116142230,0.0109240878,-0.0238619037,0.0977140516,0.0061750845,-0.0252404027
5.1646280289,0.0138195055,0.0151153672,-0.0287219472,0.1201290935,0.0052405815,-0.0358645543
5.1746129990,0.0101757841,0.0106593240,-0.0158791132,0.1382017732,0.0117453523,-0.0390523523
5.1846561432,0.0025699933,0.0023206344,-0.0137285767,0.1338496357,0.0202168673,-0.0358616188
5.1947541237,0.0027460654,-0.0002296695,-0.0165673681,0.1188196391,0.0296618342,-0.0316046253
5.2048869133,0.0038018425,-0.0174153578,-0.0108536063,0.0877791643,0.0389682539,-0.0273448993
5.2149128914,0.0008952219,-0.0230531227,-0.0055204812,0.0565938391,0.0620272979,-0.0294501930
5.2249588966,-0.0010179381,-0.0356763713,-0.0073433104,0.0160525385,0.0605982468,-0.0315642133
5.2350301743,-0.0039117737,-0.0348432176,-0.0028162780,-0.0407099463,0.0801716149,-0.0453417413
5.2451686859,-0.0106869740,-0.0449655168,0.0079501094,-0.1007226780,0.1039419249,-0.0623034127
5.2551579475,-0.0154029531,-0.0417779200,-0.0032668295,-0.1392338872,0.1120550483,-0.0686625764
5.2652320862,-0.0102843745,-0.0260054003,-0.0019728127,-0.1402962208,0.1109085530,-0.0803426653
5.2752737999,-0.0011720459,-0.0209007394,0.0024254140,-0.1231666282,0.1057447568,-0.0814103931
5.2854251862,-0.0087539358,-0.0137587916,0.0020521102,-0.0933802426,0.1155893952,-0.0761040449
5.2954301834,-0.0193145666,-0.0074148308,0.0069026765,-0.0410210565,0.1086278930,-0.0750608891
5.3054828644,-0.0171106253,-0.0037927160,0.0152082266,0.0081707267,0.0984120071,-0.0803874806
5.3155608177,-0.0137572987,0.0057538617,0.0084054889,0.0563637987,0.0818120539,-0.0867770016
5.3256659508,-0.0200688932,0.0086176265,0.0077953753,0.0905129761,0.0809246898,-0.1058984920
5.3356800079,-0.0262614284,0.0105534662,0.0161302499,0.0925442502,0.0904024169,-0.1196977273
5.3457469940,-0.0254924688,-0.0032034644,0.0048999605,0.0722341835,0.0933737084,-0.1250000894
5.3558359146,-0.0257388446,-0.0014361271,0.0061458764,0.0647855401,0.0912006944,-0.1228760853
5.3659219742,-0.0142238839,-0.0113577377,0.0151697816,0.0468004085,0.0750787184,-0.1303121597
5.3759641647,-0.0044781966,-0.0194839966,0.0133101167,0.0160036162,0.0599398464,-0.1324348301
5.3860468864,-0.0046011014,-0.0179786813,0.0208104067,-0.0214886293,0.0745507479,-0.1196764261
5.3961000443,-0.0186033342,-0.0087626111,0.0250007324,-0.0451696180,0.0956764072,-0.1026709452
5.4062309265,-0.0229775403,-0.0054460298,0.0250484161,-0.0751967579,0.1102902368,-0.0994706303
5.4162292480,-0.0166279767,0.0016514531,0.0170703344,-0.0933915302,0.1154724807,-0.0941554904
5.4263029099,-0.0063341660,0.0067567099,-0.0036132517,-0.0954847783,0.1111890525,-0.0973424986
5.4363679886,0.0019839008,0.0216788519,0.0020971117,-0.0665572807,0.1008489951,-0.0941671431
5.4465007782,0.0015050967,0.0338025577,0.0022219834,-0.0504225194,0.0882567689,-0.0941775292
5.4564118385,-0.0028983157,0.0343129523,0.0015640673,-0.0290097445,0.0810390711,-0.0910033062
5.4666390419,-0.0062667830,0.0359058268,0.0011693058,0.0010168627,0.0664183125,-0.0952654257
5.4766321182,-0.0046410961,0.0375620611,0.0010890779,0.0248280279,0.0337806158,-0.0878550485
5.4866290092,-0.0030191343,0.0335320123,0.0158909969,0.0484683737,0.0181190968,-0.0804362819
5.4967641830,-0.0082940860,0.0150206555,0.0173460059,0.0710136890,0.0056938510,-0.0634596944
5.5068469048,-0.0117531223,0.0073689092,0.0219725780,0.0902859122,0.0006950980,-0.0422311053
5.5168108940,-0.0124307973,0.0026758781,0.0207463913,0.0648229495,-0.0131614618,-0.0178111140
5.5270009041,-0.0083676679,-0.0001542697,0.0143043818,0.0176727511,0.0066636410,-0.0061094519
5.5370368958,-0.0142642064,-0.0089852940,0.0169969015,-0.0444279574,0.0273339003,-0.0071428912
5.5470929146,-0.0151633425,0.0081436504,-0.0042110267,-0.0860710144,0.0290439166,-0.0145640559
5.5571718216,-0.0071936054,0.0222143400,-0.0199025460,-0.1234815940,0.0339258909,-0.0294174384
5.5672912598,-0.0079725785,0.0293006767,-0.0243502446,-0.1759493351,0.0503413491,-0.0453229025
5.5772981644,-0.0047761006,0.0177271236,-0.0301239677,-0.2016592920,0.0596179366,-0.0527440645
5.5873780251,-0.0025357406,0.0178323854,-0.0397741981,-0.1609656513,0.0462344848,-0.0442666896
5.5974788666,0.0074935453,0.0221982468,-0.0233667083,-0.0719871223,0.0067390753,-0.0368770175
5.6075391769,0.0136552649,0.0288359392,-0.0186578222,0.0233910661,-0.0315638371,-0.0178079847
5.6175842285,0.0069982903,0.0261679161,-0.0091680465,0.1226535738,-0.0316473283,-0.0008443159
5.6276450157,-0.0065885587,0.0335606225,-0.0076006236,0.2125549763,-0.0562384278,0.0129239606
5.6377091408,0.0003507931,0.0452105887,-0.0099741993,0.2885836959,-0.0809506997,0.0266956985
5.6478548050,0.0063364105,0.0405063517,-0.0109031377,0.3014291823,-0.0851174816,0.0213813614
5.6578450203,-0.0052653356,0.0250925887,-0.0041812244,0.2693599761,-0.0801269189,0.0160832014
5.6679000854,-0.0070675416,0.0094737876,-0.0037183347,0.2072843313,-0.0626443252,0.0139840990
5.6779780388,-0.0069944365,-0.0064258110,-0.0176023431,0.1270401776,-0.0420748033,0.0214472748
5.6881108284,-0.0021478634,-0.0235718619,-0.0206368752,0.0424983911,-0.0195244867,0.0129856123
5.6980781555,0.0006920595,-0.0254829656,-0.0215788670,-0.0345280543,-0.0010614565,0.0183219220
5.7081851959,-0.0024083655,-0.0208370220,-0.0280687399,-0.0902301967,0.0196946878,0.0215318296
5.7182512283,-0.0036408107,-0.0182733666,-0.0340112038,-0.1224147975,0.0363698751,0.0183634013
5.7283611298,-0.0048957868,-0.0070644151,-0.0431612320,-0.1395495683,0.0426283032,0.0247416720
5.7383780479,-0.0101762218,0.0129662026,-0.0367555209,-0.1162719429,0.0629841760,0.0236854609
5.7484216690,-0.0155398054,0.0107578505,-0.0320443697,-0.0790273696,0.0739412159,0.0268668737
5.7584877014,-0.0159752462,0.0242292751,-0.0376681872,-0.0447526760,0.0614936687,0.0247282889
5.7685618401,-0.0065989001,0.0320216902,-0.0428649373,-0.0010014670,0.0618619807,0.0225937665
5.7786569595,0.0017574031,0.0195590723,-0.0282541700,0.0255207960,0.0768803433,0.0119760083
5.7887239456,-0.0015462737,0.0178196896,-0.0300336666,0.0523502789,0.0622870214,0.0162091032
5.7987570763,0.0029921730,0.0278637279,-0.0295916386,0.0769345835,0.0582653172,0.0172616504
5.8089218140,0.0055709081,0.0194880236,-0.0260843821,0.0779234171,0.0656531900,0.0098324968
5.8189182281,-0.0016166370,0.0110348929,-0.0198484845,0.0564895757,0.0750283822,0.0119674858
5.8290052414,-0.0107836528,0.0112700928,-0.0138243614,0.0456782095,0.0887074396,0.0087916665
5.8390579224,-0.0189667437,0.0085533131,-0.0078703342,0.0414288417,0.0865275785,0.0056060599
5.8491210938,-0.0123817129,0.0154985655,-0.0077641192,0.0287804250,0.0704660565,0.0002922547
5.8592672348,-0.0107149882,0.0107138623,-0.0088299690,-0.0002028905,0.0871976987,0.0013694370
5.8692660332,-0.0159899089,-0.0048352014,-0.0013966742,-0.0206120238,0.1008759663,0.0109376423
5.8793621063,-0.0224015210,-0.0019338259,0.0028632698,-0.0344980657,0.1029949039,0.0289924089
5.8893990517,-0.0182230268,-0.0018853673,0.0023289141,-0.0120580047,0.1011863500,0.0470363908
5.8994641304,-0.0101867123,-0.0075635444,-0.0038088146,0.0020130184,0.0822853670,0.0587034337
5.9095358849,-0.0089889867,0.0004145375,-0.0021113935,-0.0031937268,0.0695205703,0.0608219802
5.9195919037,-0.0126479967,0.0015764704,0.0015131055,-0.0022149608,0.0779621229,0.0523319542
5.9296941757,-0.0152714057,-0.0031103620,0.0090651335,0.0053247139,0.0705380291,0.0427701399
5.9397249222,-0.0177579317,0.0135419834,0.0020426926,0.0033739740,0.0524814650,0.0427624844
5.9497990608,-0.0133720441,0.0117266644,0.0057489094,-0.0148790656,0.0628637969,0.0321543142
5.9598588943,-0.0099192066,-0.0067106616,0.0103176059,-0.0127721326,0.0649710223,0.0268446356
5.9700050354,-0.0083345277,-0.0018192062,0.0051596579,-0.0072021307,0.0416755527,0.0268315878
5.9799900055,-0.0037599306,0.0089450944,0.0108345570,-0.0071509713,0.0363357179,0.0215201117
5.9901719093,-0.0011520784,-0.0162722599,0.0184604339,-0.0147284633,0.0468666553,0.0194036979
6.0001311302,-0.0083603067,-0.0182249676,0.0161309056,-0.0254367162,0.0511008129,0.0321498550
6.0102148056,-0.0117956204,-0.0104306471,0.0205204301,-0.0308314804,0.0574825481,0.0417106040
6.0202312469,-0.0054548783,-0.0172498357,0.0142118158,-0.0435593911,0.0499710366,0.0459576100
6.0303349495,-0.0030920010,-0.0241233241,0.0008984623,-0.0618049763,0.0604503080,0.0502146743
6.0404129028,-0.0086028678,-0.0125011932,0.0049903807,-0.0595649071,0.0498520583,0.0491469465
6.0504941940,-0.0013126533,-0.0008770952,0.0033992943,-0.0380774625,0.0351290405,0.0406397432
6.0605869293,0.0040973620,0.0049928296,0.0030180034,-0.0229951814,0.0214935206,0.0448769666
6.0706210136,-0.0032129984,0.0021909943,0.0018880782,0.0111955442,0.0175477806,0.0448663160
6.0807409286,-0.0036326449,-0.0024160871,0.0088790478,0.0380312353,0.0018381267,0.0406043902
6.0907750130,-0.0039983792,0.0076599587,0.0200518779,0.0680834055,-0.0148492409,0.0448356196
6.1008358002,-0.0033390324,0.0071179736,0.0227299146,0.0852742940,-0.0263781305,0.0437637642
6.1109037399,0.0032375951,-0.0021318325,0.0207512788,0.0864261091,-0.0348637626,0.0426974371
6.1210041046,0.0040093260,-0.0202409159,0.0069547710,0.0650076941,-0.0276298169,0.0416444205
6.1310377121,-0.0021118920,-0.0316043012,0.0074353036,0.0328180678,-0.0110026365,0.0310429111
6.1410999298,-0.0052894754,-0.0284732115,0.0115911784,0.0231575854,-0.0058088740,0.0268004276
6.1511540413,-0.0005787414,-0.0283841025,0.0010255990,0.0060180137,0.0003872365,0.0236224774
6.1612148285,-0.0047065420,-0.0293177497,0.0076723513,-0.0283482410,0.0212254729,0.0109004909
6.1712799072,-0.0107257767,-0.0294569861,0.0100481333,-0.0583290420,0.0304442719,0.0002947182
6.1813631058,-0.0098235412,-0.0160923135,0.0161354952,-0.0721172914,0.0217997842,-0.0050144261
6.1914210320,-0.0019745629,-0.0076277386,0.0193368606,-0.0698051378,0.0037398234,-0.0113948276
6.2014708519,0.0078951614,-0.0117740165,0.0139569463,-0.0590727814,-0.0025177398,-0.0092784800
6.2113518715,0.0050088959,-0.0100579392,0.0047219214,-0.0440749265,-0.0076299440,0.0002713491
6.2214622498,0.0010788341,-0.0072140228,0.0141975703,-0.0163072124,-0.0094957538,0.0023869642
6.2317070961,0.0049884813,0.0034865609,0.0103278579,0.0072809919,-0.0198526550,0.0098087946
6.2417750359,0.0030205746,0.0083932150,-0.0060551944,0.0147327557,-0.0176167320,0.0172404125
6.2517862320,0.0029230316,-0.0051124822,-0.0068379822,0.0104317507,-0.0144779291,0.0161812734
6.2618241310,-0.0001108449,-0.0030502209,-0.0047186795,0.0233024359,-0.0207111910,0.0193601549
6.2720251083,-0.0031254094,0.0019892922,-0.0072622481,0.0543562248,-0.0310439896,0.0204089079
6.2820868492,-0.0002770226,-0.0015462169,0.0032032547,0.0790088698,-0.0414688699,0.0161517784
6.2921280861,-0.0022476416,-0.0060597192,0.0040739593,0.0800866485,-0.0425205491,0.0161509793
6.3022050858,-0.0051742001,-0.0164760482,0.0008749185,0.0554631948,-0.0353346094,0.0119126253
6.3121967316,-0.0090721054,-0.0211313497,0.0081801834,0.0393545292,-0.0260015596,0.0002415881
6.3222780228,-0.0069938703,-0.0151966345,0.0124168219,0.0179898553,-0.0241012629,-0.0050603664
6.3323578835,-0.0097973747,-0.0123502742,0.0065752682,-0.0259051658,-0.0107457750,-0.0135369413
6.3424439430,-0.0135555072,-0.0135016572,0.0197998099,-0.0613548234,0.0111532658,-0.0251985230
6.3524789810,-0.0094188554,-0.0197326075,0.0094183506,-0.0848428383,0.0120022800,-0.0262539349
6.3625841141,-0.0033215682,-0.0094999801,-0.0108831106,-0.0890965685,0.0108954040,-0.0273135416
6.3726611137,0.0027568240,-0.0069776904,-0.0097178398,-0.0805920288,0.0141460588,-0.0283758752
6.3826870918,0.0068528252,-0.0063193571,-0.0093397675,-0.0505813248,0.0017449828,-0.0177724324
6.3926529884,0.0040753679,0.0051456559,-0.0203780718,-0.0174545292,-0.0021685322,-0.0114120059
6.4028940201,0.0022270579,0.0099668968,-0.0184353180,0.0125189498,-0.0114700887,-0.0135481935
6.4128322601,0.0013994474,0.0090354551,-0.0123537956,0.0285690241,-0.0155673623,-0.0124925161
6.4229841232,-0.0043229265,0.0081836451,-0.0041873041,0.0562794544,-0.0121480636,-0.0135605112
6.4330029488,-0.0090280576,0.0093582738,-0.0035216990,0.0820284933,-0.0257243253,-0.0146356281
6.4431600571,-0.0009437304,0.0086711515,0.0023212251,0.1013422459,-0.0362231061,-0.0231390353
6.4532279968,0.0003678996,0.0157800782,0.0024055657,0.1024402678,-0.0394106433,-0.0252645053
6.4632291794,0.0016915996,0.0063089598,0.0072545228,0.0788306296,-0.0269459169,-0.0348085389
6.4733057022,0.0030160148,-0.0091610681,0.0020335135,0.0391258225,-0.0049751047,-0.0294784904
6.4834432602,0.0003582735,-0.0208728444,-0.0065169516,0.0016460894,0.0074244398,-0.0305252448
6.4934320450,-0.0004152458,-0.0151918065,-0.0047421637,-0.0219266135,0.0167684071,-0.0305145942
6.5035467148,-0.0011905830,-0.0202638041,-0.0011987868,-0.0454050712,0.0165496953,-0.0326325372
6.5135869980,-0.0018875699,-0.0167274605,-0.0095612584,-0.0625126883,0.0195627958,-0.0358120874
6.5237007141,-0.0055526597,-0.0141914617,-0.0064007225,-0.0711474270,0.0289809983,-0.0442987159
6.5336790085,-0.0062824292,-0.0145643484,0.0045817313,-0.0605645515,0.0375206918,-0.0506679304
6.5438399315,-0.0049729152,-0.0032516846,0.0039896783,-0.0338120908,0.0303125791,-0.0528016575
6.5538439751,-0.0006842714,0.0110797156,0.0008104263,-0.0037940042,0.0167805236,-0.0528160371
6.5638909340,0.0055372911,0.0197046269,0.0076554832,0.0186422504,0.0148950722,-0.0464511476
6.5739760399,0.0048493342,0.0206104387,-0.0009504142,0.0281995349,0.0203670710,-0.0337092541
6.5841479301,0.0079924660,0.0128657091,-0.0055020633,0.0507051647,0.0110493349,-0.0284115616
6.5940818787,0.0101846950,0.0237192381,-0.0000293436,0.0851206630,-0.0151636265,-0.0263097957
6.6042189598,0.0094850557,0.0279106963,0.0038700518,0.1140684262,-0.0286967456,-0.0252634399
6.6143469810,0.0088117318,0.0107821692,0.0118689360,0.1215159521,-0.0265233405,-0.0273878425
6.6241979599,-0.0006523233,0.0062268246,0.0080752792,0.1172229946,-0.0233447235,-0.0220744368
6.6342086792,-0.0052162511,0.0016786328,0.0033365306,0.1204659194,-0.0275746230,-0.0242009703
6.6443166733,0.0019602377,-0.0125990640,0.0083056511,0.0990293622,-0.0193694904,-0.0390570797
6.6543359756,-0.0015761952,-0.0104760658,0.0081135454,0.0755136535,-0.0152820703,-0.0316164754
6.6645760536,-0.0081283255,-0.0055166613,0.0095870914,0.0465499125,-0.0007073891,-0.0358490385
6.6746492386,-0.0058446927,-0.0035785565,0.0108409347,0.0230379310,0.0022290123,-0.0422123931
6.6847276688,0.0013857086,-0.0017830261,0.0050657210,-0.0025931308,0.0041197236,-0.0432660729
6.6947736740,0.0037096341,-0.0000902543,0.0018815217,-0.0379063822,0.0133334622,-0.0474997014
6.7049031258,0.0021295149,0.0005358330,-0.0005277576,-0.0464777648,0.0164356455,-0.0485584401
6.7148780823,0.0034730334,0.0050495733,0.0009022174,-0.0529029034,0.0184878763,-0.0506793819
6.7250099182,0.0028628309,0.0153712500,-0.0016048732,-0.0487067252,0.0259513855,-0.0506759211
6.7350420952,0.0002339084,0.0150583256,-0.0020801607,-0.0326539874,0.0218887329,-0.0443112329
6.7451467514,0.0025278230,0.0148103703,-0.0101336418,-0.0112053948,0.0115008736,-0.0390140042
6.7551898956,0.0027731259,0.0195899475,-0.0091173230,0.0305170193,0.0024261526,-0.0220403485
6.7652668953,0.0058286088,0.0148765910,-0.0038005295,0.0648153648,-0.0109732095,-0.0071890308
6.7753791809,0.0029435356,0.0161329377,-0.0059725824,0.0980209857,-0.0222583544,0.0076620867
6.7853851318,0.0000206728,0.0165728200,-0.0029647532,0.1237587035,-0.0347449183,0.0108337123
6.7954478264,0.0010256369,0.0180851687,0.0061044511,0.1345461160,-0.0463365950,0.0087015852
6.8055129051,0.0011435647,0.0185690392,0.0131969275,0.1163345873,-0.0402049981,-0.0029707167
6.8156418800,-0.0045720143,0.0111055840,0.0082846107,0.0797619224,-0.0119094430,-0.0082562929
6.8256487846,-0.0102999611,-0.0023374686,0.0058924374,0.0400928408,0.0057202168,-0.0177934058
6.8357319832,-0.0062352521,-0.0042806994,0.0050877747,0.0133160874,0.0150015987,-0.0230909642
6.8457651138,-0.0001931589,-0.0082833301,-0.0056457105,-0.0080097606,0.0126734637,-0.0262731761
6.8559217453,0.0068553882,-0.0065096151,-0.0068152132,-0.0219356976,0.0178573057,-0.0262670517
6.8659076691,0.0069876211,-0.0057205688,-0.0061633172,-0.0326846950,0.0262850132,-0.0209493842
6.8759946823,0.0080568986,-0.0049848687,-0.0163433738,-0.0380512327,0.0294352658,-0.0188228507
6.8860831261,0.0080554681,0.0065517295,-0.0108794151,-0.0144717088,0.0201600082,-0.0082149468
6.8961119652,0.0129382508,0.0074699987,-0.0080893217,0.0005762167,0.0097012427,-0.0050385948
6.9061880112,0.0099651115,0.0182353128,0.0007196484,0.0239694491,0.0184577834,0.0045148963
6.9162530899,0.0059131281,0.0154576767,0.0028635678,0.0367883071,0.0175432526,0.0098201791
6.9263067245,0.0067013400,0.0127485264,0.0031947312,0.0484869629,0.0219243523,0.0151284589
6.9364337921,0.0094433622,0.0110598672,0.0007232843,0.0614096858,0.0103651686,0.0151194045
6.9464530945,0.0082554417,0.0152618159,0.0022437391,0.0710152835,0.0104627740,0.0172407459
6.9565181732,0.0051631527,0.0077620018,-0.0001133861,0.0560515113,0.0124196643,0.0119365277
6.9665889740,0.0040520625,-0.0008065829,0.0011687097,0.0239791162,0.0174113605,0.0066372361
6.9767398834,0.0029583771,-0.0017074475,-0.0026662531,0.0059007811,0.0108730337,0.0045149634
6.9867038727,0.0087621408,0.0002555123,0.0031437096,-0.0121891126,0.0053889193,0.0013312871
6.9969401360,0.0097021656,-0.0056916010,0.0028803167,-0.0410436615,0.0093881879,0.0024024104
7.0068569183,0.0056529539,-0.0077828895,0.0110972943,-0.0625636876,0.0272588637,0.0056029307
7.0168981552,0.0044938521,-0.0089343917,0.0192246847,-0.0581646748,0.0145987300,0.0109044854
7.0270071030,0.0082355039,0.0015857688,0.0099068703,-0.0538778864,0.0136790071,0.0268297903
7.0370888710,0.0059628980,0.0014490357,0.0073651490,-0.0698816180,0.0135807367,0.0332046002
7.0471649170,0.0065452652,0.0081190336,0.0153857889,-0.0858743340,0.0124213295,0.0395790078
7.0571980476,0.0110953944,0.0010701886,-0.0058688107,-0.0911636353,0.0081791803,0.0470108278
7.0673389435,0.0126096802,0.0038528910,-0.0065998617,-0.0676556453,0.0051659462,0.0416950211
7.0773458481,0.0132059352,0.0087368358,-0.0020748558,-0.0152608836,-0.0050012041,0.0395530388
7.0874681473,0.0128927426,0.0098276008,-0.0030357423,0.0147104375,-0.0143233333,0.0342312455
7.0974688530,0.0087171094,0.0100390185,0.0049417433,0.0264046453,-0.0099975597,0.0310450420
7.1075959206,0.0055450099,-0.0014022717,0.0062396345,0.0403507948,-0.0173101351,0.0299758464
7.1176018715,0.0082682269,-0.0040527117,0.0067307767,0.0554317422,-0.0309380628,0.0352742076
7.1277480125,0.0100270109,0.0040914882,0.0044570980,0.0695875064,-0.0583482496,0.0437519774
7.1377758980,0.0098137753,-0.0042157900,0.0072822985,0.0728229806,-0.0614756010,0.0479967929
7.1478357315,0.0037337739,-0.0193736684,0.0099895420,0.0472562909,-0.0659226105,0.0511865281
7.1578788757,-0.0072673960,-0.0200683009,0.0007092772,0.0226494819,-0.0597571284,0.0533194542
7.1679019928,-0.0104184551,-0.0188728105,0.0010428843,0.0109334374,-0.0620176196,0.0480136387
7.1780419350,-0.0095968349,-0.0177722108,-0.0084993420,-0.0125987874,-0.0569453612,0.0437749512
7.1880679131,-0.0127270920,-0.0226372015,-0.0193355866,-0.0469684489,-0.0360418782,0.0406062528
7.1980981827,-0.0168524180,-0.0227087270,-0.0207040496,-0.0545177124,-0.0287424177,0.0310556274
7.2082037926,-0.0072086258,-0.0081759822,-0.0190103240,-0.0287796222,-0.0412789173,0.0267961007
7.2183480263,0.0034690697,-0.0022685656,-0.0179431625,0.0140328240,-0.0536450408,0.0257172529
7.2283430099,0.0014421840,0.0067188013,-0.0164860077,0.0589420833,-0.0616863221,0.0341963582
7.2383937836,-0.0006055039,0.0120270122,-0.0058381143,0.0963890553,-0.0708883405,0.0373676494
7.2484459877,-0.0036749642,0.0067574251,0.0079741897,0.1081120223,-0.0685876384,0.0490456112
7.2585906982,-0.0067985458,-0.0014565715,0.0013290462,0.1058936045,-0.0601044074,0.0511740111
7.2686328888,-0.0100188954,-0.0057235491,0.0053598103,0.0972831324,-0.0527025461,0.0586115532
7.2787818909,-0.0102510257,-0.0159282219,-0.0092066107,0.0812543631,-0.0507272780,0.0575548112
7.2888560295,-0.0095179779,-0.0281787645,-0.0210948773,0.0459937416,-0.0468467884,0.0490718447
7.2987899780,-0.0126636429,-0.0405662768,-0.0197155066,0.0074290363,-0.0335139371,0.0299759135
7.3089427948,-0.0176676903,-0.0336815231,-0.0206510015,-0.0097457161,-0.0241692401,0.0214903504
7.3189148903,-0.0225860272,-0.0268759262,-0.0226318426,-0.0001468845,-0.0241545923,0.0108699314
7.3290190697,-0.0206021760,-0.0219755303,-0.0225268193,0.0137016866,-0.0219602138,0.0034352508
7.3390970230,-0.0195482466,-0.0121714007,-0.0193445273,0.0307842679,-0.0228997767,-0.0008167522
7.3491511345,-0.0214061234,-0.0042573940,-0.0209332295,0.0467228852,-0.0164137147,-0.0040039569
7.3592190742,-0.0203140471,-0.0010824928,-0.0037300172,0.0820515826,-0.0278256256,-0.0114512201
7.3692827225,-0.0151667399,-0.0065781604,0.0050423560,0.1012420282,-0.0267080963,-0.0284438524
7.3793897629,-0.0157762561,-0.0150272977,0.0099945487,0.1086117923,-0.0171492118,-0.0369353406
7.3894147873,-0.0222339127,-0.0147509109,0.0071049747,0.1137955636,-0.0023116108,-0.0464847051
7.3994059563,-0.0158971343,-0.0173688661,0.0111172022,0.1212926209,-0.0054916916,-0.0560443886
7.4095678329,-0.0055300398,-0.0171875488,-0.0014688554,0.1020069420,0.0017187506,-0.0634681508
7.4196329117,-0.0108428402,-0.0229268800,0.0011977372,0.0655061901,0.0225526597,-0.0740664676
7.4296588898,-0.0249609444,-0.0249380004,0.0121622505,0.0279342309,0.0433715880,-0.0857275799
7.4397239685,-0.0262681637,-0.0212713610,0.0180427246,0.0183455199,0.0410895273,-0.0974060744
7.4498119354,-0.0195725951,-0.0148123037,0.0073243794,0.0089200865,0.0228555948,-0.1143993735
7.4599380493,-0.0098738773,-0.0025079974,0.0189885311,0.0035610078,0.0249032974,-0.1186441854
7.4699339867,-0.0148080988,0.0019321314,0.0168950371,-0.0017978847,0.0270007383,-0.1154576465
7.4800248146,-0.0148910983,0.0112284888,0.0060787019,0.0025505247,0.0196802411,-0.1048444211
7.4901037216,-0.0052933497,0.0109251607,0.0090180459,0.0069186157,0.0102240881,-0.0963560641
7.5001931190,-0.0025974910,0.0067444313,0.0051641879,0.0037364047,0.0092459088,-0.0793669596
7.5102109909,-0.0127780838,0.0113662947,0.0060316739,-0.0016977759,0.0199132003,-0.0634332672
7.5202808380,-0.0162573252,0.0082480777,0.0108052911,-0.0090664756,0.0103681656,-0.0528181680
7.5303907394,-0.0099424226,0.0089701284,0.0057830033,-0.0249926317,0.0028346814,-0.0475076251
7.5404901505,-0.0134365661,0.0125210751,-0.0072317305,-0.0463005826,-0.0005001288,-0.0421948880
7.5505537987,-0.0110827489,0.0121708382,-0.0028328481,-0.0590818115,-0.0038420632,-0.0496273004
7.5605678558,-0.0106324954,0.0185602773,0.0014443216,-0.0740748793,0.0013324589,-0.0496209115
7.5707130432,-0.0102221472,0.0161399711,-0.0031373086,-0.0741452128,0.0087721990,-0.0474924445
7.5807552338,-0.0039462550,0.0137861837,-0.0075790468,-0.0495165661,0.0004916325,-0.0485646315
7.5907688141,0.0043187933,0.0222799052,-0.0019799653,-0.0045995042,-0.0086452067,-0.0453951396
7.6008448601,0.0067032771,0.0270352233,-0.0037596407,0.0327963382,-0.0125145139,-0.0379739739
7.6108870506,0.0051306384,0.0280348528,-0.0014320794,0.0498183817,-0.0070465785,-0.0358518995
7.6209697723,-0.0003818374,0.0183700193,-0.0097028194,0.0583884344,-0.0101411715,-0.0337320231
7.6310210228,0.0009484488,0.0233477820,-0.0159153529,0.0754611120,-0.0099701965,-0.0305519458
7.6411080360,0.0032120247,0.0254961718,-0.0181024261,0.0861899257,-0.0151266083,-0.0220628530
7.6511631012,0.0063815909,0.0325730331,-0.0191893168,0.0969611034,-0.0245127212,-0.0114527512
7.6612739563,0.0055625932,0.0280458201,-0.0163561888,0.0873936936,-0.0277173016,-0.0018957318
7.6713171005,0.0066125290,0.0225626100,-0.0106280623,0.0821300149,-0.0340403132,0.0119062336
7.6813769341,0.0046409564,0.0170669425,-0.0108631430,0.0682184547,-0.0298690014,0.0193444435
7.6914482117,0.0016359885,0.0134584773,-0.0102744875,0.0447327346,-0.0289852340,0.0235979091
7.7015161514,0.0054567950,0.0068325270,-0.0089482246,0.0147141134,-0.0154601038,0.0225504879
7.7115859985,0.0042959647,0.0020530096,-0.0108463941,-0.0068174107,0.0034505376,0.0225664005
7.7216458321,0.0030616124,0.0157596339,-0.0070136371,0.0102614406,0.0036619925,0.0321183614
7.7317438126,0.0086683528,0.0197920669,-0.0146518527,0.0220640637,-0.0025802574,0.0352971777
7.7417750359,0.0142411785,0.0170950759,-0.0124879656,0.0230901800,0.0016938500,0.0384844467
7.7518038750,0.0099715190,0.0163155664,-0.0200994201,0.0209799726,-0.0003837487,0.0480394065
7.7619380951,0.0105628567,0.0175226796,-0.0199133940,0.0242660474,-0.0088507365,0.0469725430
7.7720088959,0.0082384245,0.0265834201,-0.0146885691,0.0488972515,-0.0171179865,0.0480244868
7.7820920944,0.0088801878,0.0250147451,-0.0131713329,0.0606990494,-0.0233883988,0.0469565615
7.7921118736,-0.0002560418,0.0244142283,-0.0126447855,0.0499741025,-0.0181693379,0.0480233580
7.8021888733,-0.0035978954,0.0111509431,-0.0044521275,0.0295287445,-0.0013634590,0.0490987413
7.8122777939,-0.0011394422,-0.0011900195,-0.0012645307,0.0262756143,0.0039557391,0.0554724187
7.8223466873,-0.0006408494,0.0058963764,-0.0097826896,0.0400950238,0.0093819294,0.0554716215
7.8324151039,0.0027564366,0.0052947868,-0.0093714176,0.0519083254,0.0020715529,0.0575883016
7.8424510956,0.0042349594,0.0046727527,-0.0167673416,0.0348012447,0.0050915778,0.0554705560
7.8525457382,-0.0001758140,0.0010491482,-0.0185292549,0.0176108070,0.0165989622,0.0533577353
7.8626189232,-0.0056174202,-0.0074340235,-0.0135763464,0.0239928067,0.0187838189,0.0544190034
7.8726758957,-0.0032309394,0.0025859943,-0.0162906833,0.0358739682,0.0051487023,0.0629035681
7.8827319145,-0.0008382898,0.0049152840,-0.0130267916,0.0402708463,-0.0075391298,0.0639579147
7.8927516937,0.0055135684,-0.0044371020,-0.0058158222,0.0391831025,-0.0054622637,0.0586514324
7.9028778076,0.0000829298,-0.0011516341,-0.0074265781,0.0370973162,-0.0096487533,0.0703296661
7.9129338264,-0.0034101408,0.0060438383,-0.0051329318,0.0381735787,-0.0106927780,0.0713899285
7.9229798317,0.0008613367,-0.0119957458,0.0060008583,0.0370206982,-0.0022209969,0.0703326538
7.9330921173,-0.0036573808,-0.0203743111,0.0033896384,0.0263307430,-0.0001504559,0.0767069981
7.9431319237,-0.0111645563,-0.0142194759,-0.0032976451,0.0102593638,0.0060688243,0.0756523833
7.9531831741,-0.0098925931,-0.0236386787,0.0084454836,0.0027111936,0.0133750075,0.0671637580
7.9632539749,-0.0065872474,-0.0234186780,0.0044835028,-0.0091017894,0.0206994992,0.0671704188
7.9733901024,-0.0091091497,-0.0194631945,-0.0142725883,-0.0272171162,0.0172961801,0.0576166660
7.9834032059,-0.0057218475,-0.0252361428,-0.0116818128,-0.0421958007,0.0202586800,0.0438185632
7.9935288429,-0.0022003155,-0.0282175075,-0.0121555505,-0.0538921133,0.0158482846,0.0342646725
8.0036754608,-0.0025505226,-0.0117670428,-0.0117015420,-0.0453337803,0.0138008464,0.0342614762
8.0136032104,-0.0018912356,-0.0176162850,-0.0032944861,-0.0304012448,0.0138841365,0.0268238634
8.0237007141,-0.0021552842,-0.0117502343,0.0004232345,-0.0046932204,0.0045726607,0.0289362837
8.0371665955,-0.0043905480,-0.0028591880,0.0033625779,0.0156053407,0.0026413363,0.0310540292
8.0446653366,-0.0037291448,-0.0113906991,0.0113579454,0.0229585953,0.0143845445,0.0321198255
8.0546445847,-0.0089799268,-0.0208769571,0.0057360944,0.0335890017,0.0187567230,0.0374279730
8.0645017624,-0.0083551807,-0.0196494590,-0.0027232352,0.0496912748,0.0093405843,0.0363573804
8.0746440887,-0.0018128555,-0.0183212887,0.0036321697,0.0604022406,0.0051267976,0.0267970338
8.0841321945,-0.0030203264,-0.0238847863,-0.0046934071,0.0411172248,0.0123583460,0.0225583464
8.0939016342,-0.0090571446,-0.0217949878,-0.0142629920,0.0165341441,0.0152512705,0.0108857770
8.1042041779,-0.0101198060,-0.0217803847,-0.0181939788,-0.0048473105,0.0181578454,-0.0029107293
8.1141414642,-0.0061704619,-0.0238101017,-0.0173660703,-0.0144590326,0.0179557111,-0.0209584404
8.1241149902,-0.0069835288,-0.0103623997,-0.0234005041,-0.0058602188,0.0116365617,-0.0252109747
8.1342811584,-0.0097372336,-0.0114104282,-0.0127629815,-0.0005840696,0.0169121511,-0.0368896015
8.1443033218,-0.0114638610,-0.0095263254,0.0037677106,0.0079950374,0.0127357813,-0.0379556641
8.1544065475,-0.0092821820,-0.0086190235,0.0019148408,0.0271663368,0.0171953775,-0.0305250455
8.1644487381,-0.0052448316,-0.0153148901,0.0100475373,0.0570496693,0.0175048374,-0.0230998881
8.1745872498,-0.0012147229,-0.0141453277,0.0028411564,0.0763676763,0.0071610534,-0.0082463063
8.1845712662,-0.0001592439,-0.0158468019,-0.0062307897,0.0784582570,0.0114098601,-0.0103683118
8.1946630478,-0.0021044712,-0.0174831282,0.0012231288,0.0783760250,0.0198968221,-0.0103629865
8.2047052383,-0.0079687042,-0.0211181175,-0.0079041300,0.0709087849,0.0198661946,-0.0050521102
8.2148151398,-0.0069678826,-0.0170257222,-0.0122900782,0.0538374409,0.0185877457,-0.0156673361
8.2248344421,-0.0088089211,-0.0178984534,-0.0129560409,0.0357031785,0.0173198152,-0.0230959579
8.2351150513,-0.0067006750,-0.0159055125,-0.0059313956,0.0271944050,0.0140066426,-0.0315896459
8.2451066971,-0.0123145385,-0.0139935743,-0.0048430744,0.0144170914,0.0106633101,-0.0390206613
8.2552747726,-0.0090741916,-0.0111602675,-0.0066662612,0.0219369791,0.0054033669,-0.0422111973
8.2652769089,-0.0067943139,-0.0111906659,-0.0045248452,0.0251159947,0.0075394884,-0.0443345346
8.2753896713,-0.0074433191,-0.0121999513,0.0015162048,0.0335837267,0.0150249684,-0.0464542769
8.2854385376,-0.0060965819,-0.0092533957,0.0038307724,0.0561201982,0.0024748221,-0.0485898666
8.2955455780,-0.0008021396,-0.0003661642,0.0083614411,0.0881070793,0.0048500290,-0.0528452657
8.3055591583,-0.0013104479,-0.0001818070,-0.0015024724,0.1073484197,0.0018486462,-0.0507280529
8.3156309128,-0.0018849771,-0.0096494686,-0.0015690508,0.1050196141,0.0208792612,-0.0581502132
8.3256826401,-0.0044546528,-0.0113424789,0.0060699997,0.1092247516,0.0272894911,-0.0570862815
8.3357543945,-0.0089277728,-0.0102191102,-0.0077884379,0.0910796970,0.0271181837,-0.0592063591
8.3457775116,-0.0104740961,-0.0100550186,0.0055068550,0.0792832226,0.0322583504,-0.0687569827
8.3559446335,-0.0080337031,-0.0158649813,0.0030996022,0.0590926334,0.0235933568,-0.0687563196
8.3659534454,-0.0065567000,-0.0110862385,-0.0014924589,0.0355087407,0.0339914039,-0.0698069409
8.3760509491,-0.0109696789,-0.0082984101,-0.0013928595,0.0248814486,0.0296323393,-0.0729907453
8.3860883713,-0.0026578705,-0.0035888085,-0.0003260555,0.0195159782,0.0327964425,-0.0687406063
8.3961343765,0.0007210869,0.0011242500,-0.0060988250,0.0206479821,0.0264820866,-0.0623740591
8.4062404633,0.0001537103,0.0049022902,-0.0050314846,0.0312995613,0.0287180766,-0.0591902472
8.4162864685,0.0054560499,-0.0019588002,-0.0018339935,0.0441122167,0.0277203899,-0.0666265190
8.4263458252,0.0098620551,0.0028797260,-0.0063202563,0.0655517280,0.0183716286,-0.0645130351
8.4364309311,0.0093569951,0.0126901139,-0.0047820392,0.0858083218,0.0206627473,-0.0655777678
8.4465036392,0.0058742063,0.0089838970,0.0105275931,0.0900118500,0.0270522032,-0.0676992461
8.4565467834,0.0072960453,0.0023206344,0.0102428617,0.0899695605,0.0313103311,-0.0655737743
8.4666862488,0.0047803121,-0.0004383454,0.0070461449,0.1048678160,0.0356986895,-0.0634517670
8.4766902924,0.0022414823,0.0105171669,0.0098441662,0.1231176034,0.0252890587,-0.0570912100
8.4867496490,0.0065568583,0.0176067818,0.0097965421,0.1071745902,0.0187832210,-0.0570904128
8.4968261719,0.0059276121,0.0100033153,0.0124099674,0.0632209778,0.0385739692,-0.0549457669
8.5069561005,-0.0026129882,-0.0046164524,0.0067203459,0.0150526538,0.0530293398,-0.0517409220
8.5169448853,-0.0033391814,0.0010030142,-0.0051782313,-0.0136645576,0.0432430916,-0.0496155173
8.5270195007,0.0086453753,0.0026835671,-0.0074339095,-0.0274823681,0.0378376730,-0.0464293137
8.5370969772,0.0157261100,0.0023932329,-0.0078270016,-0.0370610394,0.0356587432,-0.0421800390
8.5473051071,0.0100303786,0.0089078415,-0.0063870731,-0.0391058140,0.0272074658,-0.0336893462
8.5572319031,0.0092197554,0.0184227694,0.0049173650,-0.0219924226,0.0230924152,-0.0368817449
8.5673093796,0.0113074081,0.0163729656,0.0213032775,0.0025888216,0.0201930329,-0.0262714438
8.5773944855,0.0094913738,0.0270514358,0.0126267495,0.0401579551,-0.0006177740,-0.0135497246
8.5874423981,0.0125292437,0.0340515263,0.0199171714,0.0669134036,-0.0077771503,-0.0082510989
8.5975561142,0.0145644741,0.0285134185,0.0215921216,0.0755424947,-0.0161290225,0.0012994623
8.6075601578,0.0106499689,0.0190769900,0.0115242423,0.0615792759,-0.0066319238,0.0119257411
8.6177062988,0.0027197201,0.0222213138,0.0012387452,0.0423517339,-0.0046357512,0.0183020141
8.6276979446,0.0055104690,0.0146552790,0.0035307226,0.0232073329,-0.0111695509,0.0183036122
8.6378107071,0.0103212791,0.0040333141,-0.0099411784,0.0018860130,-0.0134637319,0.0204310790
8.6478385925,0.0013444920,0.0040428508,-0.0139678298,-0.0142588681,0.0001964211,0.0215037987
8.6579618454,-0.0086739464,0.0138234962,-0.0024323049,0.0006386945,0.0045707962,0.0215023346
8.6679449081,-0.0078634424,0.0168045033,-0.0014680806,0.0103243450,-0.0038818107,0.0140630612
8.6781005859,-0.0010868709,0.0169245470,0.0006745277,0.0265125297,-0.0217719954,0.0151116811
8.6880979538,-0.0031180184,0.0161592234,0.0068762717,0.0489552543,-0.0247454140,0.0172280967
8.6981945038,-0.0060689552,0.0174381007,0.0026299772,0.0779322237,-0.0403749086,0.0225226600
8.7082071304,-0.0012115638,0.0149600375,0.0025768098,0.0972603858,-0.0518435426,0.0278210193
8.7183685303,0.0046125548,0.0115964878,0.0036668000,0.1154016554,-0.0516566560,0.0320629664
8.7283258438,0.0006035466,0.0190135110,0.0028713760,0.1186387241,-0.0547632352,0.0394931845
8.7384529114,-0.0004808109,0.0118077863,0.0049698767,0.0983125567,-0.0496148765,0.0426866524
8.7484407425,-0.0045793159,-0.0178785454,0.0019103703,0.0554329939,-0.0309242792,0.0373978801
8.7586021423,-0.0086763902,-0.0370898955,0.0023006019,0.0116244210,-0.0260359142,0.0321023166
8.7686357498,-0.0098315580,-0.0321557038,0.0042306003,-0.0226211660,-0.0168059319,0.0289302245
8.7787532806,-0.0119608743,-0.0263707768,0.0146233859,-0.0505743213,0.0030131135,0.0140827689
8.7885837555,-0.0150142116,-0.0276140701,0.0091199698,-0.0838188231,0.0185907427,0.0066663977
8.7986927032,-0.0160934422,-0.0270400774,0.0052916822,-0.1031038389,0.0258222893,0.0024277105
8.8089189529,-0.0152239008,-0.0226488244,0.0003275690,-0.1128188670,0.0363144092,-0.0028741772
8.8190116882,-0.0133482022,-0.0114295017,0.0070813713,-0.0935503319,0.0300605763,-0.0113763856
8.8290176392,-0.0064894957,0.0037653914,0.0014851508,-0.0602759980,0.0112722414,-0.0082088215
8.8391284943,-0.0025183361,0.0142751802,-0.0008174362,-0.0249224566,-0.0022131403,-0.0082246009
8.8491468430,-0.0004321139,0.0083247293,-0.0067397538,-0.0035090456,-0.0095022116,-0.0156662706
8.8593082428,0.0017332037,0.0053867567,-0.0095088063,0.0233080797,-0.0230268091,-0.0103716422
8.8692789078,-0.0010197859,0.0094437469,-0.0012726368,0.0585962981,-0.0301670097,-0.0135695655
8.8793792725,-0.0066400869,0.0087190736,0.0052722511,0.0768029392,-0.0363893509,-0.0156999603
8.8894405365,-0.0043502254,-0.0017247924,0.0051162061,0.0704401210,-0.0407239124,-0.0210095048
8.8994989395,-0.0069398982,-0.0073532593,0.0135696353,0.0554546714,-0.0366448835,-0.0263127908
8.9095611572,-0.0085206432,-0.0120708477,0.0170798115,0.0586123839,-0.0323867574,-0.0284350626
8.9196329117,-0.0061718626,-0.0080537330,0.0196159892,0.0511283427,-0.0314039811,-0.0305571370
8.9297027588,-0.0077307923,-0.0139423739,-0.0044326368,0.0018188478,-0.0095239840,-0.0262864921
8.9397602081,-0.0084975762,-0.0258164536,-0.0056249085,-0.0528825037,0.0175585672,-0.0305058062
8.9498815536,-0.0053987904,-0.0204004180,-0.0111921607,-0.0839133933,0.0257901307,-0.0283702165
8.9599132538,0.0035942991,0.0005098453,-0.0207919665,-0.0849015564,0.0183735602,-0.0251872726
8.9699497223,0.0076169269,0.0137088168,-0.0254420824,-0.0827310830,0.0152645865,-0.0166949853
8.9800462723,0.0037818749,0.0103881825,-0.0213992186,-0.0859561116,0.0173381232,-0.0198787935
8.9901876450,-0.0010465782,0.0138751734,-0.0192887969,-0.0774052441,0.0163932350,-0.0135106426
9.0001935959,-0.0000475448,0.0291908253,-0.0033368650,-0.0378232077,0.0071953414,-0.0124628218
9.0104026794,-0.0009684365,0.0398254283,0.0062594828,-0.0003197771,-0.0072701508,-0.0029233790
9.0202884674,0.0020403166,0.0311097968,-0.0003565135,0.0242975503,-0.0144610181,0.0002511755
9.0304031372,0.0010871787,0.0205925573,0.0087885084,0.0456507765,-0.0153356008,0.0002453165
9.0404987335,0.0001626808,0.0276470054,0.0083486857,0.0617386661,-0.0225397162,0.0129792206
9.0505857468,0.0050503807,0.0250187386,0.0060716686,0.0585266277,-0.0215066765,0.0129805524
9.0606031418,0.0099213319,0.0077426899,-0.0070077959,0.0361190028,-0.0216604751,0.0193565600
9.0707349777,0.0088638859,0.0011005870,-0.0047798934,0.0093875248,-0.0165884849,0.0193658806
9.0807933807,0.0028583605,0.0021485558,-0.0018574181,-0.0108819278,-0.0167250391,0.0257427525
9.0908880234,-0.0002644460,0.0021547547,-0.0019697133,-0.0227449797,-0.0040539838,0.0321228877
9.1008987427,-0.0005108815,-0.0105046760,-0.0012631001,-0.0441109054,-0.0021176662,0.0321285501
9.1109313965,-0.0037249129,-0.0009026059,0.0050422964,-0.0632766187,-0.0065294588,0.0321312100
9.1212863922,-0.0010478299,0.0057226885,0.0151196541,-0.1004756242,-0.0216746554,0.0374416187
9.1310968399,0.0026749868,0.0112405289,0.0220631175,-0.1110979021,-0.0271282755,0.0289472025
9.1411390305,-0.0004675191,-0.0086083543,0.0084647955,-0.1335851252,-0.0187533684,0.0416991524
9.1512603760,-0.0056544347,-0.0099313986,0.0181212239,-0.1292431056,-0.0261569563,0.0395707525
9.1612920761,-0.0058707697,0.0003792515,0.0122635784,-0.1259323061,-0.0367187187,0.0427505001
9.1713619232,-0.0012104313,-0.0058063995,0.0132909240,-0.1258444190,-0.0451721251,0.0480552502
9.1814508438,-0.0043916209,-0.0061205756,0.0095038833,-0.1035721302,-0.0311694928,0.0501801856
9.1914911270,-0.0076202555,-0.0150645506,-0.0018327418,-0.0682908446,-0.0372002199,0.0544154122
9.2015619278,-0.0049512191,-0.0102650058,-0.0050577703,-0.0351151749,-0.0464883260,0.0501554832
9.2116298676,-0.0042060418,-0.0014455447,-0.0051366868,-0.0116308881,-0.0473858118,0.0437782779
9.2216691971,-0.0092585487,-0.0022387037,-0.0020082775,0.0267897919,-0.0481373556,0.0395193510
9.2317848206,-0.0172342453,0.0077942479,0.0023929295,0.0695590898,-0.0562663861,0.0373808332
9.2418289185,-0.0182706807,0.0257828105,0.0042950329,0.1048531383,-0.0633731037,0.0394930542
9.2519006729,-0.0134298010,0.0068901647,0.0035418090,0.1037801504,-0.0634585917,0.0278134942
9.2620067596,-0.0114368601,-0.0178997647,0.0046462831,0.0908615589,-0.0530078784,0.0203884020
9.2720727921,-0.0152790351,-0.0321251862,-0.0032457295,0.0716505796,-0.0532102771,0.0150841828
9.2821321487,-0.0121651096,-0.0260052811,-0.0005604806,0.0577574819,-0.0523950160,-0.0040243296
9.2921438217,-0.0069649620,-0.0297420155,-0.0009210887,0.0321064442,-0.0495395772,-0.0199433751
9.3022174835,-0.0094566150,-0.0337445848,-0.0133879362,-0.0129431607,-0.0277543850,-0.0358475074
9.3123092651,-0.0178137217,-0.0330800526,-0.0137039600,-0.0581338070,0.0078105316,-0.0538688526
9.3223686218,-0.0192934070,-0.0326016061,-0.0133985458,-0.0753077567,0.0171407163,-0.0644773543
9.3324451447,-0.0099817915,-0.0214254390,-0.0149701415,-0.0464106016,0.0088974340,-0.0655506104
9.3425006866,-0.0055137379,-0.0022916326,-0.0084265051,-0.0088561671,-0.0109149525,-0.0623843111
9.3525667191,-0.0030182998,0.0062903035,0.0062100706,0.0028289845,-0.0055074040,-0.0623845793
9.3626337051,-0.0054072244,0.0031797758,0.0033424911,-0.0035207104,-0.0108184796,-0.0549544245
9.3726730347,-0.0039499504,-0.0106490385,0.0032899198,-0.0239788461,0.0070207049,-0.0581257157
9.3827705383,-0.0044370992,-0.0158376824,0.0010598120,-0.0357638150,0.0111209080,-0.0644917339
9.3928184509,0.0020167429,-0.0045310985,-0.0079152165,-0.0123253344,0.0144258905,-0.0772376284
9.4029111862,0.0065624313,-0.0048309099,-0.0061184946,-0.0166928358,0.0238747187,-0.0867873877
9.4129333496,0.0042910771,-0.0013629922,-0.0103668151,-0.0371653549,0.0427264348,-0.0973907635
9.4230766296,-0.0039095981,0.0020457378,-0.0012005153,-0.0426798314,0.0607089661,-0.0984411761
9.4331502914,-0.0033060114,0.0161895026,0.0002710042,-0.0168945715,0.0440050885,-0.0910234749
9.4432067871,0.0051127868,0.0304395426,-0.0038519087,-0.0081498707,0.0240040831,-0.0782945007
9.4532155991,0.0095232921,0.0360534675,0.0009503184,0.0036295569,0.0210413150,-0.0602483898
9.4632873535,0.0050301449,0.0173885692,-0.0107837496,-0.0047920235,0.0104602436,-0.0443242155
9.4733552933,0.0082780616,0.0153539050,-0.0068257633,0.0167279150,-0.0062393742,-0.0305346344
9.4834156036,0.0104890363,0.0144318808,-0.0045532170,0.0393584743,-0.0272095706,-0.0220551938
9.4934616089,0.0127174454,0.0174975861,0.0037199077,0.0415710285,-0.0345694795,-0.0146268411
9.5035896301,0.0070464807,0.0136708487,-0.0027602497,0.0199531093,-0.0071063666,-0.0050525768
9.5136470795,-0.0007987421,0.0049854983,0.0060671982,0.0068594129,0.0214219484,-0.0060968017
9.5236930847,-0.0008120638,-0.0009103545,0.0020431695,-0.0123816077,0.0244374461,-0.0060906764
9.5337200165,0.0118539529,0.0155375469,-0.0020277682,-0.0059559308,0.0223921388,-0.0029079330
9.5438652039,0.0176655259,0.0154976714,-0.0089332042,-0.0037774397,0.0181804150,-0.0007867916
9.5539054871,0.0185474362,0.0076942910,-0.0138870655,-0.0101221530,0.0128817903,0.0087683639
9.5639066696,0.0164590683,-0.0030091533,-0.0110864220,-0.0090266364,0.0097164894,0.0098268371
9.5740337372,0.0114020603,0.0068008173,-0.0013864818,0.0147015965,-0.0143984333,0.0225503556
9.5841512680,0.0102559226,0.0128382910,-0.0020569745,0.0393930934,-0.0279091820,0.0331566632
9.5942068100,0.0061246352,0.0053641666,0.0061564860,0.0467671193,-0.0182949044,0.0331595913
9.6042871475,0.0000294346,0.0037797561,0.0086651864,0.0724534169,-0.0254699923,0.0373961478
9.6142930984,-0.0020821493,0.0149051417,0.0036215601,0.0950415432,-0.0433459282,0.0320724882
9.6244239807,0.0007744629,0.0135146249,0.0095790448,0.1164146438,-0.0464060344,0.0225105416
9.6344261169,-0.0002151530,0.0024213067,0.0088631334,0.1239282191,-0.0505709536,0.0246301517
9.6445569992,-0.0040976210,-0.0018831620,0.0013057409,0.1217646375,-0.0485145263,0.0171976015
9.6545295715,-0.0050420566,-0.0003510842,0.0034977612,0.1292782128,-0.0526794456,0.0193172116
9.6646957397,-0.0000773173,-0.0055821668,0.0038462100,0.1282749027,-0.0590760894,0.0161294080
9.6746959686,0.0059305625,-0.0177200567,-0.0007883491,0.1026068181,-0.0540432483,0.0087058460
9.6848011017,0.0001959402,-0.0260772239,-0.0018150392,0.0823228508,-0.0531316511,0.0129586486
9.6948461533,-0.0026398401,-0.0276581179,0.0058069048,0.0694933385,-0.0511561148,0.0076538976
9.7049493790,-0.0053974194,-0.0206023585,0.0122505249,0.0491044186,-0.0408060737,-0.0050775437
9.7149286270,-0.0051835580,-0.0136860739,0.0145835103,0.0191811398,-0.0368368961,-0.0071915612
9.7250261307,-0.0010510783,-0.0195631515,0.0108057084,-0.0183630921,-0.0181138106,-0.0146050034
9.7350921631,-0.0008856159,-0.0274961721,0.0135513963,-0.0333870500,-0.0097424295,-0.0124734081
9.7451276779,0.0002469022,-0.0179711115,0.0035471735,-0.0258490536,-0.0160162374,-0.0082305260
9.7552947998,0.0062610107,-0.0102779400,0.0005596099,-0.0033551939,-0.0243223701,-0.0103639849
9.7652921677,0.0103836255,-0.0063904654,-0.0021733227,0.0192127246,-0.0400197729,-0.0071932920
9.7753639221,0.0047377246,-0.0053398144,-0.0018537226,0.0320177376,-0.0399148464,-0.0082582906
9.7854270935,0.0049493806,-0.0051815640,0.0005693851,0.0490284897,-0.0334141366,-0.0103823608
9.7955780029,0.0003414948,-0.0059902202,-0.0095610796,0.0650540590,-0.0354309492,-0.0156964324
9.8055648804,-0.0003622275,-0.0086547267,-0.0030020657,0.0768194050,-0.0385594293,-0.0231340416
9.8156414032,0.0010386307,-0.0103414785,-0.0011854353,0.0812216103,-0.0523775071,-0.0326982513
9.8256978989,-0.0023717086,-0.0101294648,0.0044614491,0.0650598928,-0.0377466343,-0.0454281643
9.8358182907,-0.0145742996,-0.0237165224,0.0048973379,0.0157871544,-0.0201868135,-0.0528394729
9.8458032608,-0.0199090932,-0.0385301225,0.0029151854,-0.0344703160,-0.0111162215,-0.0591941737
9.8559017181,-0.0174314771,-0.0389431827,0.0024824557,-0.0719801411,0.0044656680,-0.0602386668
9.8660221100,-0.0169759486,-0.0356256478,0.0007043300,-0.0987589657,0.0148547925,-0.0581013486
9.8760356903,-0.0156129403,-0.0265686642,-0.0013436856,-0.1329358518,0.0177810732,-0.0517204143
9.8861598969,-0.0093970997,-0.0215116274,-0.0036235633,-0.1576693654,0.0366781987,-0.0495806932
9.8961677551,-0.0052131517,-0.0301942956,-0.0130217252,-0.1887013167,0.0448959135,-0.0495687090
9.9063100815,-0.0049963398,-0.0165072214,-0.0059922519,-0.1663589776,0.0514304452,-0.0538187847
9.9162788391,-0.0007956725,-0.0144036543,-0.0171443410,-0.1373755336,0.0347129852,-0.0527726971
9.9264001846,0.0015135307,-0.0004485378,-0.0085184155,-0.1010885686,0.0338999219,-0.0634005740
9.9364452362,-0.0019239585,-0.0019616017,-0.0044443193,-0.0615243874,0.0256944578,-0.0729709044
9.9465065002,-0.0101719005,0.0015215746,-0.0087709604,-0.0144763952,0.0165205337,-0.0782960281
9.9565753937,-0.0105157895,0.0081465710,0.0019981083,0.0346397497,0.0137178218,-0.0857424885
9.9666166306,-0.0068159206,0.0119988788,-0.0023455801,0.0829154551,-0.0113265440,-0.0857675299
9.9767103195,-0.0010949175,0.0121174324,-0.0043298188,0.1096772999,-0.0196023174,-0.0889638513
9.9867353439,-0.0012562673,0.0016418567,-0.0061423960,0.1204294637,-0.0268814694,-0.0804750994
9.9968414307,-0.0014695029,-0.0107452404,-0.0098655997,0.1172643006,-0.0300370473,-0.0719814748
10.0069532394,0.0012195904,-0.0163028967,-0.0048541012,0.1172312200,-0.0268536396,-0.0719802752
10.0170679092,0.0019681056,-0.0257929694,-0.0066808048,0.1076899171,-0.0333173946,-0.0741046742
10.0270586014,0.0037598212,-0.0236620437,-0.0018098536,0.0937791541,-0.0303102899,-0.0825947076
10.0370988846,0.0036291976,-0.0265129935,0.0067111668,0.0563385747,-0.0222246647,-0.0942609534
10.0471906662,-0.0062336130,-0.0257094633,0.0070079383,0.0166499652,-0.0024522922,-0.1006115228
10.0574216843,-0.0063384278,-0.0211569797,0.0079688253,-0.0058577415,0.0068732984,-0.1048483476
10.0675449371,-0.0005644959,-0.0098161828,0.0098835053,0.0091484534,0.0006226600,-0.1069776043
10.0776977539,0.0072707729,-0.0052606594,-0.0055038515,0.0294750296,-0.0045329533,-0.1112325415
10.0875368118,0.0121629434,0.0052441228,-0.0090585528,0.0497605689,-0.0054166568,-0.1112383306
10.0975313187,0.0131243365,0.0178085435,-0.0114691434,0.0679678023,-0.0115965223,-0.1069988459
10.1075859070,0.0199251082,0.0206980575,-0.0205130763,0.0765281320,-0.0135806445,-0.0974468216
10.1176271439,0.0247171130,0.0178271998,-0.0216981955,0.0882995725,-0.0166472737,-0.0953277424
10.1277790070,0.0255180802,0.0150385369,-0.0198704191,0.0989669189,-0.0153958537,-0.0804649070
10.1377668381,0.0292053726,0.0074967612,-0.0198130794,0.1204277351,-0.0268666223,-0.0783524886
10.1479225159,0.0397623368,0.0097904075,-0.0117452322,0.1376016289,-0.0362323634,-0.0730520636
10.1578989029,0.0364968963,0.0092399586,0.0012178835,0.1312393397,-0.0393605120,-0.0560632311
10.1679592133,0.0301955547,0.0038038364,0.0101314606,0.1119375527,-0.0299232006,-0.0475598872
10.1780557632,0.0228083935,-0.0133756530,0.0217888169,0.0852412283,-0.0279926732,-0.0411813520
10.1881809235,0.0164116230,-0.0151145589,0.0273298435,0.0543511398,-0.0335265212,-0.0348054133
10.1981487274,0.0080447393,-0.0053992402,0.0217727832,-0.0001150332,-0.0297578815,-0.0347897001
10.2082633972,0.0016146500,-0.0163598191,0.0127990069,-0.0716242418,-0.0293210577,-0.0347716548
10.2182989120,-0.0058213873,-0.0227655899,0.0051279482,-0.1367616951,-0.0256456286,-0.0347532816
10.2285118103,-0.0132775111,-0.0196072590,0.0019321856,-0.1579808295,-0.0374341793,-0.0241354574
10.2384309769,-0.0138460798,-0.0135816466,-0.0158392973,-0.1491210312,-0.0691481680,-0.0177827515
10.2485694885,-0.0124119921,-0.0006302127,-0.0207579918,-0.1340199113,-0.0849403739,-0.0188555401
10.2585811615,-0.0168956909,0.0065875519,-0.0167987533,-0.1213059872,-0.0752241015,-0.0103595238
10.2685909271,-0.0283471141,0.0090357531,-0.0001579704,-0.1099028662,-0.0422713459,-0.0167174209
10.2787237167,-0.0339066796,0.0202821959,0.0078831138,-0.0682108104,-0.0493417718,-0.0177933387
10.2889251709,-0.0237599704,0.0394825824,0.0047409949,-0.0179358684,-0.0605543442,-0.0146259088
10.2989358902,-0.0077317161,0.0345963128,0.0127401175,0.0002159709,-0.0614568926,-0.0146309678
