0.0000000000,0.0242833961,0.0031907859,0.0103201997,0.0210766420,-0.0270416476,-0.0151334973
0.0099920034,0.0284513105,-0.0095700324,-0.0078459252,0.0082897404,-0.0293101277,-0.0204403792
0.0198240280,0.0404668301,-0.0282005370,-0.0065849293,-0.0276853070,-0.0604169145,-0.0236321781
0.0298069715,0.0418222398,-0.0332944691,-0.0073122252,-0.0400994159,-0.0987063870,-0.0204604845
0.0399420261,0.0187636483,-0.0500521362,-0.0030493010,-0.0378933065,-0.1061351374,-0.0236505531
0.0502129793,-0.0199827086,-0.0327750146,0.0000342857,-0.0158420652,-0.0698168129,-0.0162054207
0.0600789785,-0.0402779132,-0.0133793652,0.0052417647,0.0298176184,-0.0460410416,-0.0108944112
0.0703680515,-0.0450472981,-0.0211485922,0.0036265384,0.0218907185,-0.0004692937,-0.0087460391
0.0805790424,-0.0352019817,-0.0065723956,0.0085737836,0.0132329417,0.0110857626,-0.0151089970
0.0904129744,-0.0165283214,0.0342180431,0.0270649325,0.0078818519,0.0120378425,-0.0246633533
0.1003910303,-0.0006616250,0.0612359345,0.0095307957,0.0195555780,0.0184639841,-0.0310330354
0.1104500294,0.0191054810,0.0416175425,0.0018460285,0.0078587085,0.0141035905,-0.0331558399
0.1204320192,0.0359850973,0.0161133111,0.0048132073,-0.0175379682,-0.0084547820,-0.0416568518
0.1309289932,0.0422838181,0.0002197326,0.0039491188,-0.0203057900,-0.0520254299,-0.0480487049
0.1407389641,0.0359628052,-0.0215462744,0.0003371369,-0.0179588273,-0.0732338428,-0.0491216257
0.1507509947,0.0179427136,-0.0520608723,-0.0080511440,-0.0253200717,-0.0838814229,-0.0448778793
0.1607669592,0.0083267558,-0.0485784709,-0.0154152978,-0.0255783182,-0.0584733412,-0.0533589125
0.1711089611,0.0021709665,-0.0243094862,-0.0277389158,0.0073705781,-0.0443082526,-0.0406186171
0.1809140444,0.0013137921,-0.0107826889,-0.0245019067,0.0455438234,-0.0195559692,-0.0384921506
0.1909450293,-0.0014330284,0.0054920018,-0.0154774059,0.0826903954,0.0009224078,-0.0395531543
0.2009960413,0.0016655787,0.0173096955,-0.0066907275,0.0975491032,0.0083826547,-0.0544180535
0.2113070488,0.0109131206,-0.0117436349,0.0073425900,0.0754057169,-0.0183381718,-0.0544257760
0.2210969925,0.0122259725,-0.0363552868,0.0250382554,0.0212616790,-0.0475360043,-0.0661071986
0.2312400341,0.0029307469,-0.0195175111,0.0101539027,0.0161049999,-0.0656473637,-0.0703621283
0.2412250042,-0.0073807375,-0.0248143971,-0.0034242738,-0.0236159414,-0.0415421613,-0.0629059523
0.2517150640,-0.0087093245,-0.0256316960,-0.0134916175,-0.0696750432,-0.0249946099,-0.0671331882
0.2614690065,0.0355298966,0.0115363896,-0.0034031738,-0.0492940322,0.2756143510,-0.2082073539
0.2715400457,0.1489444822,0.0624452531,0.0201347005,0.0024370719,0.5361617804,-0.3514332175
0.2816179991,0.0829236358,0.0520549119,0.0082460176,0.0246564634,0.2492328286,-0.1222341135
0.2919430733,-0.0362463742,0.0180638134,-0.0228942502,0.0108540989,0.0366553031,0.0040172935
0.3017450571,-0.0080360305,0.0104360878,-0.0208259691,-0.0008306541,0.0312404986,0.0029560900
0.3118100166,0.0005552634,0.0044288933,-0.0156023372,0.0035699531,0.0186011363,0.0114430524
0.3218430281,0.0155926216,0.0041666329,-0.0247382987,0.0005088374,0.0048008356,0.0146224005
0.3322180510,0.0230151284,-0.0116823018,-0.0295854080,-0.0389104746,-0.0019031393,0.0156908594
0.3419680595,0.0272316802,-0.0258910358,-0.0301286448,-0.0858842954,-0.0013982707,-0.0065941387
0.3520259857,0.0318150371,-0.0238732994,-0.0045161713,-0.1016126573,-0.0303028896,-0.0246551652
0.3620899916,0.0283986200,0.0003620685,0.0125063192,-0.0609397963,-0.0427568965,-0.0363514982
0.3724460602,0.0107767452,0.0302155912,0.0164649617,0.0221684054,-0.0292978138,-0.0363658816
0.3822100163,-0.0128299128,0.0327685177,0.0058378112,0.0773178935,0.0051746774,-0.0310547408
0.3923500776,-0.0192465913,0.0132503211,-0.0244035590,0.0940622464,0.0382218435,-0.0299806874
0.4023480415,-0.0094777476,-0.0195465982,-0.0478566736,0.0448241569,0.0537758358,-0.0193408933
0.4127370119,0.0027966364,-0.0170004666,-0.0452791303,0.0139679741,0.0450867414,-0.0087194080
0.4225159883,0.0039021834,-0.0082454383,-0.0261613596,0.0108768689,0.0345398895,0.0050783632
0.4325920343,-0.0062180893,-0.0023311076,-0.0147811640,0.0128753046,0.0483861975,0.0103937667
0.4426940680,-0.0032520429,0.0039338768,-0.0041665304,0.0150471674,0.0441056974,0.0018964184
0.4529800415,0.0086402167,0.0053652227,-0.0101059545,0.0108803855,0.0333960615,-0.0076640635
0.4627560377,0.0163417328,0.0053726733,-0.0262350906,-0.0082445741,0.0246911198,-0.0150954816
0.4728800058,0.0142768491,0.0038182440,-0.0258165468,-0.0413191691,0.0232857708,-0.0235821772
0.4828770161,0.0086915363,0.0049611032,-0.0178403128,-0.0433796048,0.0158403702,-0.0235856399
0.4932540655,-0.0049962536,-0.0111909807,-0.0031976569,-0.0220647305,0.0192651972,-0.0150949489
0.5030280352,-0.0206960570,-0.0090252459,0.0060362946,0.0067062792,0.0237533543,-0.0161612127
0.5130829811,-0.0244802367,-0.0050810277,0.0191182029,0.0377941579,0.0102652432,-0.0108668478
0.5231570005,-0.0283362400,-0.0001868902,0.0047626030,0.0495622680,0.0083921757,0.0114260083
0.5334969759,-0.0334782749,0.0108510554,0.0031511318,0.0527689792,0.0084893806,0.0220432319
0.5433059931,-0.0317970663,0.0219995081,-0.0254218448,0.0463238657,0.0138057163,0.0326675139
0.5533499718,-0.0233503114,0.0107755363,-0.0317866653,-0.0029036030,0.0271561425,0.0305630825
0.5634239912,-0.0108879339,0.0119734704,-0.0298486818,-0.0178583991,0.0280526299,0.0252577327
0.5738550425,-0.0013942854,0.0160302818,-0.0164337028,-0.0231002979,0.0184292961,0.0210070610
0.5835720301,-0.0033705370,0.0022813382,0.0035908353,-0.0454766825,0.0138861435,0.0050830236
0.5936120749,-0.0051303641,-0.0020005403,0.0243245494,-0.0229258370,-0.0008760248,-0.0108570606
0.6037150621,-0.0065658228,0.0111445487,0.0261955392,0.0039014649,-0.0155325988,-0.0161792543
0.6140120029,-0.0106806885,-0.0002156197,0.0077800881,-0.0004559997,-0.0071303258,-0.0236065444
0.6238800287,-0.0146157276,-0.0028132496,-0.0053856242,-0.0154725518,0.0001527544,-0.0257230923
0.6338690519,-0.0090460908,-0.0012560188,-0.0145454276,-0.0121704992,-0.0093059950,-0.0161724649
0.6439440250,-0.0018504993,0.0006057323,-0.0080867279,0.0018796194,-0.0260424316,0.0018654591
0.6542980671,-0.0094832908,0.0171488225,-0.0163951386,0.0360229425,-0.0246069878,0.0135372952
0.6640970707,-0.0125266444,0.0241798460,-0.0160541404,0.0594638214,-0.0200962573,0.0230904520
0.6741700172,-0.0098261368,0.0078630745,-0.0198764075,0.0615575984,-0.0158059057,0.0273392592
0.6842190027,-0.0060957805,-0.0046500266,-0.0111518372,0.0434645340,-0.0201890022,0.0305284616
0.6945830584,-0.0071708099,0.0033058824,0.0026946794,0.0359988920,-0.0213983450,0.0177881662
0.7043529749,-0.0129656326,0.0005213321,0.0100011360,0.0413294509,-0.0213854946,0.0124769574
0.7144789696,-0.0148543846,-0.0090573132,0.0125485193,0.0400897488,-0.0044464581,0.0082385363
0.7245069742,-0.0167567860,-0.0207066238,-0.0008798707,0.0067662271,0.0185028650,-0.0076685911
0.7348899841,-0.0066203610,-0.0346186459,0.0020800363,-0.0337708145,0.0159297213,-0.0225247685
0.7446240187,0.0056453808,-0.0351745188,0.0056996476,-0.0657767653,0.0134261483,-0.0384468064
0.7546830177,0.0090682972,-0.0182026923,0.0073254835,-0.0710527524,0.0069581298,-0.0469430909
0.7648350000,0.0103723872,-0.0079277456,0.0176183116,-0.0667730570,0.0058915336,-0.0533141717
0.7750979662,0.0108314026,0.0012224616,0.0170740616,-0.0538508631,-0.0056745750,-0.0543850288
0.7848559618,0.0123018492,0.0132665932,0.0049399268,-0.0271603428,-0.0064960266,-0.0533300191
0.7949219942,0.0098089445,0.0128396451,-0.0030195583,0.0038604261,-0.0136596635,-0.0544032753
0.8050950766,-0.0005505219,0.0009488167,-0.0026619304,0.0274617840,-0.0261996891,-0.0565399267
0.8153600693,-0.0160122048,-0.0311086476,-0.0050128568,0.0434218422,-0.0206717663,-0.0437996313
0.8252199888,-0.0317109972,-0.0397145450,-0.0173887480,0.0453133807,0.0037847068,-0.0384790339
0.8352190256,-0.0404786021,-0.0319333971,-0.0426050276,0.0492436737,0.0378087200,-0.0331540443
0.8456009626,-0.0327620655,-0.0115180910,-0.0350944251,0.0192639884,0.0481768064,-0.0299541224
0.8556669950,-0.0269624125,0.0000081362,-0.0240043867,-0.0128787681,0.0606153645,-0.0320633464
0.8654589653,-0.0191425811,0.0211400092,-0.0179674495,-0.0407327153,0.0709909126,-0.0309902262
0.8754900694,-0.0083271395,0.0198385417,-0.0100113023,-0.0610134862,0.0707445666,-0.0416031890
0.8855730295,0.0064605339,-0.0039320886,-0.0050083268,-0.0982858092,0.0629903749,-0.0415966623
0.8956919909,0.0192514528,-0.0140333474,0.0086870324,-0.1205069646,0.0436550230,-0.0479714721
0.9055510759,0.0224782098,-0.0027736721,0.0188759696,-0.0976674259,0.0014591013,-0.0405657515
0.9155230522,0.0082949270,0.0143720210,0.0180315506,-0.0676541328,-0.0109357834,-0.0288997777
0.9271950722,-0.0127189290,0.0130265653,0.0016182195,-0.0432139300,-0.0000554384,-0.0204066914
0.9363000393,-0.0192190539,0.0175711215,-0.0130048264,-0.0295053087,0.0171248801,-0.0076600024
0.9459680319,-0.0189033877,0.0260268152,-0.0325383991,-0.0050423630,0.0258969329,0.0029557571
0.9560080767,-0.0179034602,0.0191073120,-0.0425274223,-0.0128701925,0.0619611926,0.0114701493
0.9660899639,-0.0095211398,0.0105436146,-0.0342234224,-0.0289915279,0.0735483393,0.0199738890
0.9763699770,0.0064115389,0.0040804446,-0.0047639478,-0.0385413580,0.0681732818,0.0220972281
0.9862979650,0.0145829786,0.0101603568,0.0177443754,-0.0181962475,0.0619894266,0.0231526382
0.9962849617,0.0230119098,0.0268118083,0.0288261902,0.0213413090,0.0570362099,0.0242019240
1.0063560009,0.0326794833,0.0210278332,0.0238644611,0.0204078704,0.0432213284,0.0220703296
1.0166339874,0.0395918936,-0.0081826746,0.0229822528,-0.0134686045,0.0152677242,0.0114469798
1.0264899731,0.0399054736,-0.0288478434,0.0133758914,-0.0483786501,-0.0158574376,0.0040077060
1.0365600586,0.0285847057,-0.0204081237,-0.0040214527,-0.0620180331,-0.0393345356,0.0018758455
1.0466020107,0.0102984179,-0.0205971897,-0.0107134450,-0.0608734041,-0.0467390567,0.0039961212
1.0569289923,-0.0101782214,-0.0119720399,-0.0177270640,-0.0354130492,-0.0316820741,0.0008117794
1.0667610168,-0.0229225289,-0.0033333597,-0.0240224469,-0.0303648170,-0.0029955683,-0.0002367071
1.0768290758,-0.0181788933,0.0043630302,-0.0168162454,-0.0101927035,0.0078331111,0.0061343731
1.0869090557,-0.0086559188,0.0190401971,-0.0104094017,0.0196117461,0.0155284479,0.0071920473
1.0972020626,-0.0033006207,0.0262662470,0.0080331098,0.0506889671,0.0031013396,0.0124869449
1.1070420742,-0.0057989494,0.0181153119,0.0161552560,0.0816809461,-0.0008804190,0.0114164203
1.1170910597,-0.0091033708,-0.0076064765,0.0265655052,0.0710480064,-0.0052730367,0.0029225342
1.1271660328,-0.0150649678,-0.0189985335,0.0183985364,0.0603796020,-0.0064885039,-0.0066326214
1.1374970675,-0.0148931276,-0.0315776765,0.0132036339,0.0316251852,-0.0131823597,-0.0183084514
1.1473619938,-0.0164380204,-0.0269086063,0.0087937247,0.0017313072,-0.0124593107,-0.0299794879
1.1573469639,-0.0178941619,-0.0224390924,0.0049827229,-0.0356054120,-0.0150183430,-0.0469600707
1.1674320698,-0.0192614328,-0.0162331760,-0.0089486111,-0.0570887551,-0.0014464736,-0.0522566959
1.1777670383,-0.0216597449,-0.0140168369,-0.0213126410,-0.0722027272,0.0153506156,-0.0596770607
1.1875690222,-0.0231732856,-0.0156511962,-0.0162984002,-0.0700970218,0.0185866226,-0.0543667190
1.1976300478,-0.0248768460,-0.0045002997,-0.0123228896,-0.0532008633,0.0368143655,-0.0479911119
1.2077289820,-0.0247342717,0.0097643435,-0.0149299968,-0.0116608506,0.0457771644,-0.0310088657
1.2180360556,-0.0160269868,0.0038900676,-0.0084389318,0.0085181873,0.0566958599,-0.0108343568
1.2278580666,-0.0054368512,-0.0203706324,-0.0144581664,0.0074918051,0.0535928756,0.0029684072
1.2378680706,0.0031447276,-0.0241452754,-0.0068511833,0.0076452033,0.0387942232,0.0114553683
1.2480449677,0.0059591397,-0.0104044974,0.0019360315,-0.0016945293,0.0121930381,0.0125053870
1.2583290339,-0.0029018656,0.0052399337,0.0262509119,-0.0293509215,0.0023116460,-0.0012959129
1.2683190107,-0.0125631820,0.0352952778,0.0291317236,-0.0164292138,-0.0092756348,-0.0055517773
1.2783609629,-0.0181519520,0.0623097718,0.0068169963,0.0112266485,-0.0006006539,-0.0140488595
1.2937190533,-0.0197042357,0.0522073805,-0.0340697616,-0.0137808332,0.0447246842,-0.0267611258
1.3021299839,-0.0018712417,0.0071088374,-0.0538706630,-0.0565741062,0.0549411029,-0.0299305525
1.3084610701,0.0186956394,-0.0184212029,-0.0447868556,-0.0897113606,0.0599155538,-0.0362903811
1.3183829784,0.0284482110,-0.0079915226,-0.0339638442,-0.0640246421,0.0527260862,-0.0341768973
1.3283230066,0.0362360328,-0.0081181228,-0.0130755771,-0.0095226252,0.0458299629,-0.0256999228
1.3387019634,0.0381932110,-0.0111390054,0.0109539758,0.0408790298,0.0218857471,-0.0225392822
1.3488310575,0.0335347503,-0.0171078146,0.0324911028,0.0689462423,-0.0096672531,-0.0172533076
1.3586649895,0.0183676351,-0.0095073283,0.0369473249,0.0968385935,-0.0243066475,-0.0215148963
1.3686109781,-0.0025730268,0.0078739822,0.0302187931,0.1288826913,-0.0272449814,-0.0268331636
1.3789700270,-0.0129612815,0.0236624777,0.0220213067,0.1544516981,-0.0227703378,-0.0257756226
1.3887310028,-0.0128001105,0.0231007636,0.0100296866,0.1629745811,-0.0216477476,-0.0279016905
1.3989280462,-0.0018762485,-0.0037800965,-0.0021463502,0.1086133346,-0.0285099149,-0.0310767088
1.4090160131,0.0060911044,-0.0318310559,0.0006476175,0.0404519662,-0.0429764725,-0.0427456163
1.4193710089,0.0082291234,-0.0299331844,0.0028700959,0.0000922922,-0.0624356605,-0.0438068882
1.4291659594,-0.0024655000,-0.0338599384,0.0252674352,-0.0296391062,-0.0763508752,-0.0225706417
1.4392380714,-0.0238912236,-0.0193867385,0.0464431196,-0.0328495465,-0.0752970651,-0.0193839017
1.4492939711,-0.0460896045,0.0153343379,0.0384807736,0.0031935703,-0.0505222082,-0.0108857565
1.4597240686,-0.0477466732,0.0277315676,0.0151761901,0.0168169700,-0.0248538628,0.0018651928
1.4694399834,-0.0378184468,0.0188226998,0.0044465791,-0.0207899529,0.0003059525,0.0050715054
1.4795100689,-0.0173057448,0.0265321434,-0.0006734002,-0.0506722182,0.0000103416,-0.0002300492
1.4896410704,-0.0027097599,0.0429889262,-0.0175875295,-0.0507152006,0.0042046872,-0.0076593361
1.4999420643,0.0088833440,0.0283484757,-0.0248147119,-0.0626224652,0.0210989807,-0.0044624778
1.5097640753,0.0233945716,0.0039088428,-0.0138619412,-0.0807471350,0.0187561978,-0.0140152369
1.5197910070,0.0400212854,-0.0099613965,0.0087266695,-0.0750050992,-0.0214945506,-0.0108514018
1.5299099684,0.0413569063,-0.0074320138,0.0230752360,-0.0168344658,-0.0750463232,-0.0023991941
1.5402849913,0.0183953512,0.0010534228,0.0186215769,0.0398858041,-0.0904327407,0.0028877135
1.5499720573,-0.0085681807,0.0059030950,0.0146561991,0.0910056308,-0.0793483257,0.0071281982
1.5600509644,-0.0219582450,0.0060203969,0.0021128189,0.0941116735,-0.0697644055,0.0081939949
1.5701119900,-0.0216519963,-0.0065244138,-0.0075238813,0.0588081218,-0.0616042241,0.0050211051
1.5804040432,-0.0194597375,-0.0035763679,-0.0185339320,0.0138555616,-0.0493329056,-0.0055793412
1.5902520418,-0.0135216843,0.0139875710,-0.0269810427,0.0051514460,-0.0323828198,0.0018637946
1.6003010273,-0.0029662983,0.0063685477,-0.0172139276,-0.0280259475,-0.0231296644,0.0008150418
1.6103670597,0.0036764010,-0.0179108083,-0.0039760936,-0.0664360300,-0.0245745629,-0.0066086529
1.6207389832,0.0144373048,-0.0190093219,0.0092703234,-0.0629448891,-0.0531659946,-0.0023766237
1.6305199862,0.0117027629,-0.0163166821,0.0042098891,-0.0553396977,-0.0657856539,0.0050490685
1.6406220198,-0.0007566944,-0.0195219219,-0.0105709899,-0.0672917068,-0.0446750373,0.0040008482
1.6507190466,-0.0085073840,-0.0031140742,-0.0205201376,-0.0428903848,-0.0294524096,0.0273599681
1.6610270739,-0.0114952456,0.0173762143,-0.0272624958,-0.0045568421,-0.0206011273,0.0316018499
1.6708190441,-0.0154647361,0.0350076854,-0.0445698947,0.0292745195,0.0115191257,0.0305487029
1.6808500290,-0.0088662039,0.0382305682,-0.0316672176,0.0387162231,0.0274834447,0.0252452828
1.6908570528,0.0024884804,0.0337707102,-0.0090168584,0.0451574251,0.0232683923,0.0209936146
1.7012790442,0.0109194983,0.0244901478,0.0166226756,0.0677247867,0.0075213881,0.0167328231
1.7110530138,0.0116665233,0.0181038082,0.0172844063,0.1053091288,-0.0154732764,0.0198967904
1.7211220264,0.0066376789,-0.0096004903,0.0329569727,0.0896297693,-0.0485388190,0.0145752626
1.7312150002,-0.0039730803,-0.0444325507,0.0221942198,0.0510695912,-0.0352218151,-0.0066422750
1.7415460348,-0.0075672404,-0.0454380214,0.0180055033,0.0267477371,-0.0577380396,-0.0098327426
1.7513270378,-0.0080748927,-0.0193140209,0.0167564880,0.0205092840,-0.0747749507,-0.0109034656
1.7613849640,-0.0163996946,0.0019159020,0.0018124711,0.0193686504,-0.0673433989,-0.0087758666
1.7714560032,-0.0209421646,-0.0021853147,-0.0212533344,-0.0204237700,-0.0369406193,-0.0119353076
1.7818230391,-0.0148869287,-0.0111972988,-0.0332264788,-0.0653688759,-0.0245723668,-0.0076705222
1.7915960550,-0.0040226118,-0.0105216205,-0.0298826564,-0.0792618915,-0.0225789901,-0.0087272646
1.8016330004,-0.0011369125,0.0078064501,-0.0207519997,-0.0472751930,-0.0190540310,0.0008225652
1.8117090464,-0.0003309385,0.0312782824,0.0054345261,0.0115595702,-0.0323145762,0.0039873328
1.8220039606,-0.0033871070,0.0266838968,0.0185494553,0.0618120879,-0.0414047427,0.0071554291
1.8318619728,-0.0004449025,0.0085286200,0.0262560975,0.0877011269,-0.0687319040,0.0124436012
1.8419330120,-0.0012349025,-0.0155637562,0.0332212597,0.0687335655,-0.0933581516,0.0039417259
1.8519999981,-0.0086426269,-0.0213059485,0.0052582752,0.0815867484,-0.0985919982,-0.0024358125
1.8622950315,-0.0131720435,-0.0094653666,-0.0274751056,0.0878787339,-0.0867819414,0.0103100771
1.8721719980,-0.0159649979,-0.0063070953,-0.0429819673,0.0384832770,-0.0564136505,0.0145847164
1.8822079897,-0.0129823815,-0.0071723759,-0.0406299084,-0.0193344839,-0.0378327779,0.0124850804
1.8922740221,-0.0090934169,0.0005858244,-0.0261873472,-0.0524902232,-0.0295449533,0.0263022929
1.9025610685,-0.0170966517,0.0151536167,0.0073238742,-0.0634177104,-0.0041810074,0.0252559371
1.9123649597,-0.0202872884,0.0423750579,0.0163869988,-0.0273678564,0.0194844417,0.0263208672
1.9224510193,-0.0089202654,0.0532939136,0.0336077921,0.0228084959,0.0178005248,0.0263072848
1.9324979782,0.0122715104,0.0215476453,0.0319677740,0.0421043262,0.0095648319,0.0390383936
1.9429080486,0.0345221609,-0.0179304779,0.0393933766,0.0062390007,-0.0321104452,0.0422120802
1.9526380301,0.0481242985,-0.0420100391,0.0389189869,-0.0498132408,-0.0824377984,0.0475109741
1.9626569748,0.0423289388,-0.0370807946,0.0130080115,-0.0654792860,-0.1165297180,0.0474979244
1.9728350639,0.0189448465,-0.0341833532,-0.0237969030,-0.0762905255,-0.1028364748,0.0464453772
1.9830830097,-0.0054503814,-0.0227008164,-0.0650279373,-0.0918060988,-0.0456797145,0.0454160646
1.9931540489,-0.0104056727,0.0140080154,-0.0765786022,-0.0997830108,0.0040746587,0.0380094126
2.0032739639,-0.0017733113,0.0507309139,-0.0679688901,-0.0926364213,0.0359215364,0.0305909142
2.0130701065,0.0026278361,0.0498463809,-0.0289945472,-0.0553230569,0.0405535065,0.0401405431
2.0234169960,0.0038562878,0.0492846072,0.0122444760,0.0045016604,0.0347302370,0.0433078408
2.0331621170,0.0041090115,0.0314534605,0.0434007794,0.0761508942,0.0204855893,0.0411602035
2.0432450771,0.0045378073,0.0097456872,0.0342757851,0.1220225096,0.0218920056,0.0326548629
2.0533461571,0.0081199277,-0.0421462953,0.0217235219,0.1061723605,0.0057955263,0.0262801219
2.0636701584,0.0167853702,-0.0825290382,0.0208404195,0.0350662284,-0.0341207311,0.0209692456
2.0734891891,0.0170075167,-0.0688104331,0.0070322882,0.0055628773,-0.0726321712,0.0124620441
2.0835089684,0.0007469520,-0.0435676873,-0.0059304703,0.0035766922,-0.0875187144,0.0103315152
2.0936460495,-0.0194328558,-0.0291216075,-0.0259458292,-0.0136191249,-0.0760663152,-0.0002761218
2.1039161682,-0.0288657080,-0.0216375291,-0.0298640598,-0.0448289737,-0.0509694852,-0.0151208490
2.1137089729,-0.0275742542,-0.0006254612,-0.0389863737,-0.0310663972,-0.0402796902,-0.0214899294
2.1238059998,-0.0293456446,0.0069229305,-0.0285242070,-0.0322613567,-0.0275569707,-0.0214832723
2.1338529587,-0.0342976600,0.0088839233,0.0044303071,-0.0046993745,-0.0092696426,-0.0204203371
2.1442289352,-0.0373886973,0.0227248967,0.0260199439,0.0593384653,-0.0097783068,-0.0214986522
2.1539859772,-0.0384640247,0.0201613009,0.0422804467,0.1051307470,0.0001353773,-0.0268127900
2.1640980244,-0.0363688618,0.0038113298,0.0353741162,0.1230604798,0.0203351863,-0.0448578373
2.1742160320,-0.0223325621,-0.0214559734,0.0197392236,0.1037294716,0.0317692719,-0.0554652773
2.1845321655,-0.0003830329,-0.0440092981,-0.0010639299,0.0408871248,0.0195621382,-0.0533318184
2.1942420006,0.0118394364,-0.0551014245,-0.0126257408,-0.0432548635,0.0028888860,-0.0565031096
2.2043781281,0.0064756139,-0.0342901647,-0.0092111100,-0.0805505663,-0.0027354439,-0.0554346517
2.2143869400,-0.0057510273,0.0010710062,-0.0108983386,-0.0730588287,-0.0047354782,-0.0469444916
2.2247610092,-0.0170368683,0.0179480016,-0.0203236807,-0.0582889393,0.0123779951,-0.0458778962
2.2345190048,-0.0176996719,-0.0039484203,-0.0015352834,-0.0827833861,0.0079669356,-0.0384401530
2.2446551323,-0.0134716760,-0.0064208210,0.0171743762,-0.0826917738,-0.0016374891,-0.0469393618
2.2546610832,-0.0170477759,0.0096692145,0.0118278395,-0.0356489569,-0.0096243089,-0.0331529789
2.2650439739,-0.0168917309,0.0279810727,0.0039394032,0.0068897177,0.0056372015,-0.0278471615
2.2747831345,-0.0070561902,0.0250842869,-0.0123765934,0.0207920838,0.0036831740,-0.0204174090
2.2848579884,0.0116132367,0.0104663670,-0.0335722417,-0.0058413912,-0.0007661693,-0.0161656737
2.2949140072,0.0264414418,-0.0052767694,-0.0492124408,-0.0527082272,-0.0095937494,-0.0055415239
2.3052589893,0.0275552142,-0.0103598535,-0.0416924804,-0.0655009970,-0.0107389092,-0.0012916519
2.3150701523,0.0148562063,0.0245546401,-0.0128478874,-0.0269319229,-0.0252443478,0.0008157076
2.3251109123,-0.0047125951,0.0577174723,0.0154382717,0.0572870858,-0.0160061084,0.0029225342
2.3352499008,-0.0213859808,0.0482590497,0.0403478891,0.0955544189,-0.0007737596,0.0092900191
2.3455290794,-0.0262811314,0.0300654471,0.0420823842,0.1274196804,0.0143668437,0.0103512891
2.3553729057,-0.0223727357,0.0138068497,0.0079200398,0.1304323226,0.0335344784,0.0167308245
2.3653900623,-0.0117449891,-0.0247546732,-0.0224846471,0.0674514920,0.0351203904,0.0188712068
2.3754391670,0.0066041811,-0.0556485951,-0.0485572107,-0.0307176337,0.0343102589,0.0263293888
2.3857860565,0.0257829297,-0.0467936099,-0.0413232893,-0.1201838553,0.0165789314,0.0305904467
2.3955969810,0.0343725532,-0.0227027833,-0.0501966365,-0.1583637744,-0.0070355171,0.0401436724
2.4091291428,0.0331894010,-0.0113350451,-0.0369342417,-0.1828304976,-0.0146423047,0.0454550833
2.4171900749,0.0261130799,0.0214384496,-0.0082172621,-0.1550635546,-0.0165505260,0.0412007459
2.4267630577,0.0199835170,0.0408613980,0.0328412801,-0.0724839866,-0.0560747683,0.0528398268
2.4364600182,0.0021151169,0.0479823053,0.0689965039,0.0236324258,-0.0626345277,0.0570586734
2.4466109276,-0.0225317609,0.0708603561,0.0552765280,0.1449548602,-0.0298803113,0.0358082429
2.4566278458,-0.0306010377,0.0502343476,0.0257851016,0.2032964379,0.0056664301,0.0389963835
2.4667048454,-0.0173482429,-0.0111241639,0.0039831530,0.1443263292,0.0327260084,0.0369012766
2.4764761925,0.0018464788,-0.0445788205,-0.0194722284,0.0526242629,0.0244559627,0.0305495020
2.4860391617,0.0133333076,-0.0394631326,-0.0339222401,-0.0176080875,0.0036263154,0.0220625401
2.4961340427,0.0092542041,-0.0463164151,-0.0441294760,-0.1040465981,0.0028645846,0.0210221093
2.5064649582,0.0022282465,-0.0495180786,-0.0278500188,-0.1669565886,-0.0030249960,0.0157261472
2.5162329674,0.0021210774,-0.0237421095,-0.0080393422,-0.1752655804,-0.0253466126,0.0210267026
2.5262889862,-0.0037351386,-0.0037879643,0.0197843444,-0.1581478417,-0.0294276420,0.0231439155
2.5364110470,-0.0163972508,0.0347474515,0.0217402708,-0.0653664246,-0.0222311802,0.0263106152
2.5467729568,-0.0194261204,0.0552306473,0.0139022004,0.0199069288,-0.0119503140,0.0241704993
2.5565359592,-0.0196415316,0.0205012262,0.0015866887,0.0195441004,0.0229956843,0.0135679208
2.5665559769,-0.0042090551,0.0013180078,0.0038161408,0.0260480717,0.0123723364,0.0029429740
2.5766830444,0.0113609303,0.0152428448,0.0064241420,0.0702645108,-0.0328565948,0.0050345538
2.5869660378,-0.0023293630,0.0136534274,-0.0042307246,0.1045308709,-0.0442155078,0.0071437778
2.5968189240,-0.0198882949,-0.0113139451,-0.0149096120,0.0958608091,-0.0316130966,-0.0013424517
2.6068170071,-0.0226657521,-0.0335689485,-0.0385470241,0.0669716448,-0.0244654398,-0.0055787414
2.6169359684,-0.0117055308,-0.0462385714,-0.0429657549,0.0127200168,-0.0418675989,0.0018581355
2.6272449493,-0.0124991070,-0.0531469285,-0.0165972579,-0.0468469076,-0.0614807159,0.0029252642
2.6369929314,-0.0260083806,-0.0221937597,0.0085896384,-0.0394553021,-0.0540369153,-0.0045054881
2.6472558975,-0.0395677835,0.0166429579,0.0261131655,-0.0022879606,-0.0356874689,-0.0066293590
2.6574010849,-0.0453408509,0.0302677453,0.0369995981,0.0454761535,-0.0098320358,-0.0108753704
2.6676921844,-0.0344593078,0.0274311602,0.0326616280,0.0710899010,-0.0095737092,-0.0055727498
2.6775209904,-0.0196506511,0.0178503096,0.0304924380,0.0595423318,-0.0287810918,-0.0066413428
2.6875209808,-0.0115964543,0.0043248832,0.0060323607,0.0479866080,-0.0468999073,-0.0034620613
2.6976480484,-0.0094834100,0.0015511216,-0.0116721857,0.0235997476,-0.0619071536,0.0060939593
2.7079281807,-0.0093619954,-0.0022760329,-0.0394397825,-0.0223576222,-0.0548324659,0.0135417562
2.7177140713,-0.0024532215,-0.0218796432,-0.0629482120,-0.1089716852,-0.0374950878,0.0220668688
2.7278041840,0.0044379695,-0.0398052633,-0.0775208324,-0.1742455065,-0.0199989192,0.0263393782
2.7379231453,0.0101832617,-0.0431089699,-0.0652101487,-0.1806101203,-0.0231048986,0.0465122201
2.7482261658,0.0057976111,-0.0673961937,-0.0030518044,-0.1697284430,-0.0418674015,0.0836630538
2.7580499649,-0.0056533352,-0.0564477146,0.0542984158,-0.1420839131,-0.0309459101,0.0942796171
2.7680540085,-0.0121172797,0.0060822666,0.0798170716,-0.0675548241,-0.0145099442,0.0740947202
2.7781560421,0.0069898232,0.1046809256,0.1321435124,-0.0182681531,-0.0355095714,0.0422183424
2.7884740829,0.0391582102,0.1692207158,0.1814518720,0.0401168615,-0.1114884838,0.0283621810
2.7983269691,0.0639484972,0.1745100319,0.1299442202,0.1490491778,-0.2238796800,0.0580078922
2.8083291054,0.0516562313,0.1263980567,0.0050746929,0.1157487407,-0.2018321604,0.0665217489
2.8183341026,0.0254611839,-0.0173251331,-0.1346078962,-0.0772304535,-0.1132568941,0.0772344470
2.8287370205,0.0162022579,-0.1370280683,-0.2075733989,-0.2875796854,0.0049618902,0.1007064804
2.8385009766,0.0153988469,-0.1032845080,-0.2014736384,-0.3551332653,0.0361709408,0.0954294279
2.8485999107,0.0095214713,0.0075925887,-0.1280742735,-0.2022281587,0.0078926999,0.1102416664
2.8586969376,-0.0073740617,0.0161922276,-0.0365024060,-0.0506617539,0.0084457044,0.1547994018
2.8690140247,-0.0177492630,-0.0057165921,0.0900591761,0.0475753359,0.0041020890,0.1706992835
2.8787941933,-0.0102645885,-0.0217011273,0.1281392127,0.1731160879,-0.0626848638,0.1748822331
2.8888630867,0.0024883612,0.0004139246,0.1354061514,0.2966561317,-0.1445097029,0.1535740197
2.8989639282,0.0040619238,0.0001321734,0.0951892883,0.3645231128,-0.2099384964,0.1174213439
2.9092640877,-0.0038325922,-0.0120106637,0.0746275932,0.3089354932,-0.2032869756,0.0728432238
2.9191310406,-0.0034649507,-0.0101640522,0.0087016355,0.2393478602,-0.1840105653,0.0303983670
2.9291260242,0.0049556359,-0.0213975608,-0.0753193349,0.1579691172,-0.1583323628,0.0091958763
2.9392030239,0.0033279522,-0.0630379021,-0.0877046436,-0.0518601164,-0.0933726728,0.0007884102
2.9495520592,-0.0131285321,-0.0886028707,-0.0433382839,-0.1781546772,-0.0585438460,-0.0214599036
2.9593329430,-0.0413255841,-0.0531104505,0.0052440893,-0.1557175964,-0.0604011379,-0.0108482717
2.9693889618,-0.0783554465,-0.0125138462,0.0406921059,-0.0216482095,-0.0210998040,-0.0214806758
2.9802770615,-0.0987861305,0.0079205930,0.0690835863,0.1196085438,0.0457979366,-0.0405959822
2.9900960922,-0.0722816736,0.0090845525,0.0785798579,0.1801643074,0.0727989301,-0.0490922667
2.9997291565,-0.0094246399,-0.0151159465,0.0620809309,0.1208296791,0.0298444703,-0.0480375849
3.0096850395,0.0517217964,-0.0210986435,0.0172947180,0.0372828580,-0.0462231338,-0.0480543636
3.0197839737,0.0827479810,-0.0185342729,-0.0383961052,-0.0536377057,-0.1307838857,-0.0385151207
3.0300788879,0.0668164343,-0.0316920578,-0.0809582323,-0.1442120820,-0.1442597508,-0.0310662594
3.0399479866,0.0282726754,-0.0188149512,-0.0739012808,-0.2234425992,-0.1195112616,-0.0352828428
3.0499420166,0.0015219315,0.0152946413,-0.0408978350,-0.2019716650,-0.1320499480,-0.0342327580
3.0600190163,-0.0251295697,0.0387518108,-0.0367141217,-0.1135860160,-0.1121162623,-0.0246887207
3.0703849792,-0.0530011803,0.0430411398,-0.0400754660,-0.0353956074,-0.0339663327,-0.0236077420
3.0801579952,-0.0607590824,0.0341668427,-0.0227824319,0.0290179774,0.0345205143,-0.0214664936
3.0902199745,-0.0424870998,0.0189501941,0.0212308299,0.0727697164,0.0360952429,-0.0013026374
3.1002910137,-0.0203105342,-0.0068280399,0.0460952073,0.0705915466,0.0402712785,-0.0087317247
3.1106159687,-0.0038093464,-0.0045337975,0.0467404872,0.0708535984,0.0136908004,-0.0172394589
3.1204030514,0.0178816188,0.0218670666,0.0319346935,0.0647305921,-0.0151018994,-0.0310560055
3.1304931641,0.0281225313,0.0031454863,-0.0064743627,-0.0173232630,-0.0275183544,-0.0352885649
3.1405549049,0.0365799516,-0.0179186165,-0.0533672459,-0.0995420739,-0.0240819454,-0.0490694940
3.1509089470,0.0451978296,-0.0218355954,-0.0842564553,-0.1826678514,-0.0365700424,-0.0628580078
3.1607351303,0.0390950292,-0.0083205998,-0.0669467896,-0.2207963169,-0.0655528903,-0.0628626049
3.1708269119,0.0131967533,-0.0267783105,-0.0207487214,-0.2540722489,-0.0455858372,-0.0479789935
3.1808249950,-0.0235996377,-0.0091966689,0.0087238681,-0.1540609002,-0.0150227370,-0.0511741228
3.1911768913,-0.0390254408,0.0448653400,0.0479221456,0.0241330750,-0.0112817939,-0.0416613109
3.2009730339,-0.0466058999,0.0654260218,0.0846813470,0.1884652674,-0.0098870303,-0.0480740033
3.2109720707,-0.0501939803,0.0258794129,0.0610504895,0.2542096376,0.0320423096,-0.0523169525
3.2211079597,-0.0284137856,-0.0300947726,0.0210599434,0.2199369520,0.0445033759,-0.0480544306
3.2314648628,0.0139736403,-0.0648128688,-0.0249816645,0.1383432895,-0.0135085294,-0.0480626859
3.2412400246,0.0389807075,-0.0882974565,-0.0891479701,0.0105752125,-0.0432527065,-0.0448603667
3.2512609959,0.0374031514,-0.1120788753,-0.0952673405,-0.1741669327,-0.0321470648,-0.0469315089
3.2613759041,0.0329722017,-0.0517450869,-0.0666760057,-0.2530421019,-0.0424343869,-0.0543491431
3.2717339993,0.0286117662,0.0337639153,-0.0139410961,-0.2069835663,-0.0589888617,-0.0511837117
3.2814869881,0.0017979010,0.0756748021,0.0305479895,-0.0823124647,-0.0399103761,-0.0586377643
3.2915840149,-0.0181458127,0.1023812592,0.0595585257,0.0806413069,-0.0078190183,-0.0745901018
3.3016519547,-0.0108254086,0.0829738081,0.0752980262,0.1917018741,-0.0142213916,-0.0661269724
3.3120031357,0.0033343895,0.0171922147,0.0598344915,0.2324865907,-0.0372161902,-0.0672106147
3.3217959404,0.0088038910,-0.0300165713,0.0224348437,0.2423305362,-0.0615833178,-0.0746584088
3.3318619728,0.0026517375,-0.0793128312,-0.0461939424,0.2058542967,-0.0428298675,-0.0788869783
3.3419208527,0.0071580871,-0.1035517752,-0.0719503611,0.0807496384,-0.0184154697,-0.0724715590
3.3522810936,0.0205029119,-0.0815686285,-0.0706736296,-0.0301182866,-0.0311043691,-0.0798823312
3.3620550632,0.0182944406,-0.0356894433,-0.0430366881,-0.1078600287,-0.0476923324,-0.0788096786
3.3721289635,0.0044357642,0.0256578028,-0.0048673023,-0.0756214038,-0.0696799234,-0.0767052472
3.3821959496,-0.0213027131,0.0600494444,0.0424553305,-0.0202969238,-0.0521566570,-0.0671545565
3.3927710056,-0.0432781130,0.0840337574,0.0600829236,0.0880697668,-0.0034746043,-0.0692813545
3.4022111893,-0.0409713537,0.0510160625,0.0541878454,0.1605045199,0.0110701835,-0.0512421019
3.4124009609,-0.0310441386,-0.0078761280,0.0459760576,0.1509557664,0.0069084615,-0.0257585794
3.4224071503,-0.0221794378,-0.0229424536,0.0289113056,0.1394254714,-0.0132911503,-0.0162092149
3.4328069687,-0.0250932705,-0.0468457639,-0.0001035202,0.0572901182,-0.0159716215,0.0082316790
3.4425549507,-0.0311335456,-0.0651590526,-0.0204512347,-0.0720204636,0.0032465486,0.0369426832
3.4526901245,-0.0353574902,-0.0430618227,-0.0567813963,-0.2069793493,0.0531387404,0.0582378544
3.4626889229,-0.0241965782,0.0098147690,-0.0935215801,-0.3046053350,0.1055130661,0.0848345086
3.4728050232,-0.0035733120,0.0451315343,-0.1029049009,-0.3829334378,0.1484514773,0.1029264331
3.4826250076,0.0148101915,0.0804959238,-0.0729840845,-0.4215194285,0.1651058197,0.1050681472
3.4928550720,0.0301323999,0.1354698241,-0.0303651560,-0.3448438346,0.1805201918,0.0880675912
3.5030961037,0.0505469292,0.1527405679,-0.0158930887,-0.2038236409,0.1657930464,0.0816545635
3.5132608414,0.0797712654,0.0916775167,0.0066452753,-0.1309307814,0.1335080862,0.0773727298
3.5230910778,0.1071414798,-0.0149083436,0.0572257787,-0.1320699751,0.0337431394,0.0751977339
3.5332369804,0.1213685125,-0.0253132880,0.0910585076,-0.0474267304,-0.1067679003,0.0559936762
3.5432310104,0.0853530020,-0.0026367602,0.0717731863,0.0900931582,-0.1979036778,0.0527286381
3.5535850525,0.0122006405,-0.0448001325,0.0378720909,0.1506329328,-0.1675119549,0.0760880262
3.5633640289,-0.0494694859,-0.0634844601,0.0007792842,0.1721724570,-0.0803079978,0.0771889091
3.5734891891,-0.0770457536,-0.0364996493,-0.0483270735,0.2068156451,-0.0226646774,0.0835796967
3.5834889412,-0.0765251666,-0.0278541744,-0.0976098031,0.1890193820,0.0493976623,0.0931754634
3.5938730240,-0.0639050752,-0.0531087816,-0.0651755184,0.0367398374,0.1223235428,0.0900651589
3.6036219597,-0.0329897553,-0.0561264455,0.0138474237,-0.0716261342,0.0736981481,0.1006851122
3.6137390137,-0.0137816798,-0.0126625597,0.0651216656,-0.1042953953,0.0331810787,0.1144765541
3.6237590313,-0.0314610153,0.0539321005,0.0746183544,-0.0595050193,0.0355692655,0.0953546688
3.6341838837,-0.0410267264,0.0611036718,0.0553676002,-0.0266828910,0.0600812659,0.0677518025
3.6438620090,-0.0219249856,0.0173717439,-0.0076081622,-0.0804034248,0.0944549516,0.0412378982
3.6539931297,0.0258838404,-0.0034284887,-0.0806430429,-0.1390337199,0.0863490850,0.0157655627
3.6640520096,0.0669092983,-0.0535055697,-0.0935349315,-0.2569749057,0.0343725123,0.0136458855
3.6744341850,0.0706961006,-0.0579830706,-0.0574529655,-0.2970794439,-0.0105576813,0.0115100304
3.6841468811,0.0362768024,-0.0195066035,0.0049682390,-0.1985054463,-0.0488946848,0.0210217759
3.6942300797,-0.0040092603,0.0640612543,0.0430432111,0.0212069508,-0.0352896601,0.0230963789
3.7042908669,-0.0294426214,0.0877579153,0.0448559076,0.2387740463,-0.0206421390,0.0251719132
3.7146191597,-0.0314839035,0.0264188945,0.0422741883,0.3433531821,-0.0185222626,0.0474441983
3.7244229317,-0.0199496280,-0.0423952043,0.0189420711,0.3340146244,-0.0439884104,0.0601767004
3.7345619202,-0.0123434793,-0.0615257919,0.0189162027,0.2714002430,-0.0796207041,0.0495568141
3.7445631027,-0.0174260270,-0.0390359461,0.0057418477,0.1935764551,-0.0888714641,0.0368295684
3.7549829483,-0.0223901402,-0.0217722356,-0.0042464603,0.0964368582,-0.0877223089,0.0177424271
3.7646930218,-0.0184323918,-0.0108518898,-0.0162128080,0.0001003612,-0.0600039959,0.0039772126
3.7748429775,-0.0132724773,-0.0305959880,-0.0221639741,-0.1065959856,-0.0631204247,-0.0055534421
3.7848269939,-0.0089800488,-0.0302960575,-0.0036216248,-0.1729215086,-0.0489743091,-0.0257052481
3.7951860428,-0.0086312424,-0.0174251497,0.0185411703,-0.1836593747,-0.0427361205,-0.0310084000
3.8050370216,-0.0161522757,0.0091831982,0.0340453535,-0.1092731878,-0.0114198793,-0.0469371676
3.8150238991,-0.0217604768,0.0320728123,0.0237294566,-0.0029544700,0.0287693534,-0.0469440930
3.8251590729,-0.0117416512,0.0377205908,0.0111260545,0.0736221373,0.0549191311,-0.0448276103
3.8354449272,0.0041391714,0.0318187773,-0.0089139212,0.1087186038,0.0668769926,-0.0480159447
3.8452129364,0.0238938797,0.0270126760,-0.0112067927,0.1228090227,0.0458191074,-0.0416587144
3.8553280830,0.0319036096,0.0028596225,-0.0200675596,0.1135430858,0.0129479785,-0.0257457960
3.8653631210,0.0320160240,-0.0095538199,-0.0114361513,0.1021160483,-0.0178818386,-0.0193877649
3.8757810593,0.0283217896,-0.0015632807,-0.0182286371,0.1291495264,-0.0526134521,-0.0119793834
3.8854930401,0.0187713969,-0.0051499307,-0.0218182076,0.1464992464,-0.0788504556,0.0092386203
3.8956060410,0.0042813285,-0.0397892296,-0.0214379299,0.0963143855,-0.0760778338,0.0134999445
3.9056370258,-0.0004793540,-0.0384627879,0.0107725989,0.0847889408,-0.0974288657,0.0092457440
3.9160418510,-0.0051011578,0.0017792882,0.0423315316,0.1109326556,-0.1502553225,0.0092127211
3.9257531166,-0.0252178442,0.0351591408,0.0234874617,0.1393577605,-0.1118701920,-0.0003311827
3.9358479977,-0.0445458442,0.0237581432,-0.0035402644,0.0744538754,-0.0254617948,-0.0055805398
3.9459660053,-0.0278568994,-0.0005645453,-0.0373364538,-0.0018461952,0.0268772431,-0.0129667502
3.9562449455,0.0063720210,-0.0006940662,-0.0482973307,-0.0593188107,0.0115614031,-0.0065890122
3.9660291672,0.0268518198,0.0050468147,-0.0117012132,-0.0950895399,-0.0396197587,0.0029490993
3.9760961533,0.0180079807,0.0138186514,0.0329179317,-0.0605328940,-0.0795911402,0.0103529533
3.9862031937,-0.0045304433,0.0110827386,0.0643246919,0.0088977404,-0.0841530040,0.0315702260
3.9965040684,-0.0153475534,0.0172069371,0.0551776998,0.0822883323,-0.0590583012,0.0389967151
4.0063681602,-0.0055464641,0.0195730627,0.0300436150,0.1410048753,-0.0606189854,0.0464134179
4.0163130760,0.0110914577,-0.0071218908,0.0013235938,0.1185855940,-0.0597398728,0.0485431477
4.0265021324,0.0179721583,-0.0281096995,-0.0393596180,0.0725813285,-0.0496191308,0.0347549655
4.0367951393,0.0218232144,-0.0375541747,-0.0649826974,0.0125648612,-0.0246977992,0.0315972567
4.0466341972,0.0187265743,-0.0237690508,-0.0494031794,-0.0333576240,-0.0220422298,0.0124998605
4.0566420555,0.0058818921,-0.0121001899,-0.0176495183,-0.0515872240,-0.0137542058,0.0061378353
4.0667328835,-0.0098726880,-0.0150756538,0.0286172759,-0.0524668694,-0.0329169817,-0.0023659044
4.0770440102,-0.0244010817,0.0041457713,0.0448280722,-0.0173453670,-0.0242321473,-0.0193592682
4.0869011879,-0.0271093380,0.0244745910,0.0595808737,0.0499891713,-0.0342616774,-0.0204433743
4.0969080925,-0.0297943484,0.0216637552,0.0486769825,0.1002193168,-0.0412436873,-0.0193978176
4.1068592072,-0.0236413609,-0.0044833720,0.0019897353,0.0860604346,-0.0126969311,-0.0161946341
4.1173939705,-0.0038761036,-0.0325886905,-0.0400165766,0.0317242257,-0.0216326360,-0.0119381044
4.1271963120,0.0197831858,-0.0423106849,-0.0639005750,-0.0139037119,-0.0474345386,-0.0023838806
4.1371798515,0.0218638051,-0.0442919433,-0.0656617135,-0.0489522442,-0.0635671690,0.0114203487
4.1473050117,0.0003380045,-0.0307170451,-0.0317914970,-0.0628898144,-0.0573575459,0.0061185937
4.1575851440,-0.0220864546,0.0109899342,-0.0009596813,-0.0204209164,-0.0358061790,-0.0002522200
4.1674389839,-0.0366782695,0.0518040359,0.0204063784,0.0518085882,-0.0023363691,-0.0087485025
4.1774721146,-0.0365856439,0.0606491268,0.0285651218,0.1101970673,0.0278151426,-0.0193662606
4.1875829697,-0.0227605831,0.0336173475,0.0264645945,0.1325671375,0.0311041456,-0.0331739523
4.1978282928,-0.0118128192,0.0017647446,0.0129187834,0.1411670148,0.0247988459,-0.0353028812
4.2077021599,-0.0067765848,-0.0320574343,0.0041180383,0.0941464901,0.0306988806,-0.0437819213
4.2177009583,-0.0045942799,-0.0543781817,0.0017978083,0.0442481674,0.0048105568,-0.0416585840
4.2278318405,-0.0062790648,-0.0360188782,-0.0037926901,0.0144562377,-0.0038966483,-0.0352848396
4.2381100655,-0.0118051898,-0.0178682506,-0.0184971560,-0.0187754836,0.0106476732,-0.0384545326
4.2479619980,-0.0134389531,-0.0106002390,-0.0385265797,-0.0596473925,0.0421596579,-0.0331208855
4.2579598427,-0.0054634945,-0.0130313933,-0.0286776293,-0.0904801413,0.0313762538,-0.0182532575
4.2680940628,0.0004376038,0.0089564621,-0.0023479331,-0.0977233276,0.0101714330,-0.0055178222
4.2783970833,-0.0133556854,0.0243324339,0.0358229429,-0.0806151778,0.0071652569,-0.0012764717
4.2882361412,-0.0369284302,0.0494813621,0.0284000766,0.0000817459,0.0482060313,0.0008467334
4.2982349396,-0.0421091467,0.0369666517,0.0096797477,0.0369683914,0.0952925831,0.0125406738
4.3083763123,-0.0249976050,0.0070285499,-0.0033879150,0.0044788914,0.1428065747,0.0200052485
4.3186249733,0.0116465557,0.0002554954,-0.0207735170,-0.0499883443,0.1465613693,0.0178973563
4.3284668922,0.0434342474,0.0098148882,-0.0386777967,-0.1151639298,0.1533793360,0.0115454504
4.3384637833,0.0674507469,0.0298717916,-0.0569788106,-0.1418336332,0.1520576030,0.0073043662
4.3486251831,0.0836637467,0.0450379550,-0.0646034926,-0.1212483346,0.1214652658,0.0072841928
4.3589229584,0.0920575708,0.0252970159,-0.0486596674,-0.1274247319,0.0991628915,0.0125836171
4.3687610626,0.0849094838,0.0017441810,-0.0187092889,-0.0881504267,0.0147016030,0.0252727140
4.3787717819,0.0542468876,-0.0524962246,0.0345575958,-0.0563099422,-0.0717672408,0.0655698031
4.3888969421,0.0031191572,-0.0307227075,0.0659170896,0.0250223018,-0.0944564417,0.0570435598
4.3991599083,-0.0468366295,0.0271251500,0.0336966664,0.1759734601,-0.0359148383,0.0453546792
4.4089350700,-0.0647674352,0.0242016613,0.0236771237,0.2374903858,0.0029047986,0.0581002347
4.4190521240,-0.0564321429,-0.0137697756,-0.0031107534,0.1642667800,0.0668744594,0.0401001982
4.4291000366,-0.0363122374,-0.0288405120,-0.0279399026,0.0657914355,0.0945046246,0.0157177579
4.4395198822,-0.0044186250,-0.0150411427,-0.0350572951,-0.0173231550,0.0809624493,0.0029905117
4.4492292404,0.0108535755,-0.0140053928,-0.0123368371,-0.0628040582,0.0402716771,0.0072284662
4.4593048096,0.0045992597,-0.0080378354,0.0337729603,-0.0558239184,-0.0169388819,0.0114453156
4.4693717957,-0.0199098121,0.0093720257,0.0265486371,-0.0130840428,-0.0218644626,0.0124941347
4.4797730446,-0.0315688401,0.0083629191,0.0168886315,0.0210986938,-0.0247145779,0.0177930277
4.4894971848,-0.0266132485,0.0104331076,0.0173131358,0.0448365435,-0.0499114804,0.0273308046
4.4995517731,-0.0216182005,0.0028664174,-0.0081708301,0.0598956533,-0.0614243262,0.0315684266
4.5096230507,-0.0245099794,0.0021800103,-0.0374446400,0.0735964701,-0.0443479344,0.0283881482
4.5200591087,-0.0216388237,0.0035577121,-0.0375966877,0.0585272387,-0.0317671634,0.0252128597
4.5297822952,-0.0118838679,0.0281653702,-0.0437452644,0.0819868147,-0.0305769928,0.0135274408
4.5398540497,-0.0100782644,0.0237854421,-0.0263364781,0.1055051908,-0.0334303044,0.0326324254
4.5501050949,-0.0151120555,0.0000440182,0.0174936187,0.1141446382,-0.0451637954,0.0113869254
4.5603060722,-0.0229020845,-0.0199195445,0.0362022668,0.1313172430,-0.0545290671,0.0166868828
4.5701189041,-0.0267167222,-0.0136111677,0.0248899590,0.1781932712,-0.0456193946,0.0188053604
4.5801439285,-0.0217740666,-0.0246882141,0.0381184965,0.1440893710,-0.0513403974,0.0007605802
4.5901761055,-0.0175193083,-0.0506674945,0.0307334792,0.0931059644,-0.0762669221,-0.0109188464
4.6005649567,-0.0103048217,-0.0680888593,0.0317511708,0.0153312720,-0.0897070915,-0.0151530057
4.6103267670,-0.0087455641,-0.0586288273,0.0157292616,-0.0358161740,-0.0987739563,-0.0353188589
4.6203861237,-0.0129572880,-0.0222530067,-0.0125028361,-0.0768224597,-0.0546698794,-0.0512134023
4.6304621696,-0.0113651287,0.0032302442,-0.0238200296,-0.1198633313,-0.0212560650,-0.0766696930
4.6407780647,-0.0039265887,0.0150018632,-0.0120563377,-0.1169128120,0.0030988096,-0.0883380696
4.6505970955,-0.0072798864,0.0171261132,0.0095487367,-0.0806894749,0.0098226918,-0.0819725171
4.6606221199,-0.0185291301,0.0281831920,0.0196878444,0.0117325969,0.0519781373,-0.0872839242
4.6707501411,-0.0240341555,0.0220320523,0.0362063795,0.0969709009,0.0654217675,-0.0926083848
4.6810469627,-0.0158783328,-0.0052650869,0.0377518088,0.1523071229,0.0818907544,-0.0819962248
4.6908531189,0.0030027493,-0.0178841650,0.0374996215,0.1641631275,0.0703150034,-0.0830664784
4.7009139061,0.0318592042,-0.0334617794,0.0181289446,0.1423467696,0.0118610086,-0.0682249442
4.7109761238,0.0431765169,-0.0471344888,-0.0090158451,0.1012391746,-0.0382379778,-0.0480654798
4.7213568687,0.0319781154,-0.0443777740,-0.0472615808,0.0404213667,-0.0386584923,-0.0310614649
4.7311468124,0.0206718314,-0.0243232548,-0.0968482345,-0.0388094336,-0.0127886776,-0.0257192962
4.7412161827,0.0199575890,-0.0141589344,-0.0927495807,-0.1319660097,0.0170725491,-0.0405459143
4.7512531281,0.0279856790,-0.0031489430,-0.0540786833,-0.1680306196,-0.0044305455,-0.0352377668
4.7616448402,0.0203137863,0.0381104052,-0.0095178951,-0.1199533716,-0.0092745693,-0.0288816001
4.7713842392,-0.0070356862,0.0329461992,0.0315646678,-0.0551085658,0.0156988911,-0.0288873930
4.7814702988,-0.0276692044,0.0299623311,0.0749319345,0.0129069705,0.0438330546,-0.0363232084
4.7915487289,-0.0315777808,0.0368356407,0.0847828537,0.0812597424,0.0391447581,-0.0331569090
4.8018999100,-0.0255699288,0.0301113427,0.0454201251,0.1024409309,0.0552254580,-0.0363396518
4.8116817474,-0.0117041003,-0.0029493866,0.0108831655,0.0405894108,0.0504197180,-0.0395114087
4.8217391968,0.0100524891,-0.0119191110,-0.0240687001,-0.0221320242,0.0265900213,-0.0299511924
4.8317918777,0.0219628084,-0.0034721193,-0.0448308438,-0.0720495954,0.0028727739,-0.0203947723
4.8421859741,0.0221300591,0.0019283594,-0.0552741773,-0.1082547382,-0.0048365449,-0.0150804343
4.8519511223,0.0212584604,-0.0014190375,-0.0444477648,-0.1272745878,-0.0229728706,-0.0044659399
4.8619589806,0.0193825234,-0.0057278574,-0.0375292189,-0.1068846211,-0.0333019421,0.0114507079
4.8720841408,0.0115147699,-0.0302806199,-0.0235732663,-0.1077955812,-0.0480539910,0.0284318235
4.8823871613,-0.0052546994,-0.0401087701,0.0225165021,-0.1120672971,-0.0481328219,0.0220620744
4.8922157288,-0.0218689572,0.0200582445,0.0298589598,-0.0203616358,-0.0410279706,0.0124866115
4.9022817612,-0.0366242081,0.0348211825,0.0407595150,0.0283209477,-0.0002879987,0.0114327986
4.9123392105,-0.0435550362,0.0408296883,0.0351496488,0.0609553233,0.0433490910,-0.0119126048
4.9226598740,-0.0230295788,0.0497373044,0.0238753092,0.0854795724,0.0457062572,-0.0087322574
4.9325141907,0.0033876761,0.0323656499,-0.0184626449,0.0683599263,0.0498021990,-0.0087269312
4.9425148964,0.0180512536,-0.0036140380,-0.0475150198,0.0096097905,0.0545322374,-0.0182658415
4.9526138306,0.0327032059,-0.0299623907,-0.0419111103,-0.0444819666,0.0211438555,-0.0214530453
4.9629621506,0.0367474407,-0.0312155783,-0.0481235236,-0.0536584184,-0.0213593952,-0.0182865467
4.9727849960,0.0212657321,-0.0557778180,-0.0250736941,-0.0842325538,-0.0576008223,-0.0023690336
4.9827919006,-0.0059271590,-0.0541054308,0.0115121733,-0.0808314309,-0.0777665451,-0.0076889643
4.9929208755,-0.0290745627,0.0098161399,0.0211222302,0.0043755872,-0.0610689893,-0.0023954655
5.0031709671,-0.0445037037,0.0506413281,0.0253233444,0.0742803738,-0.0085131051,-0.0098195598
5.0130529404,-0.0444029719,0.0527503192,0.0151901972,0.1121777371,0.0437821895,-0.0140485261
5.0231089592,-0.0209391844,0.0423057377,0.0071507227,0.1141697839,0.0575454049,-0.0214747526
5.0331869125,-0.0004149810,0.0084940493,0.0019039642,0.0748370513,0.0412388071,-0.0289073009
5.0434598923,0.0074841841,-0.0021273789,-0.0074179638,0.0759313479,0.0380027965,-0.0384653844
5.0533208847,0.0046064123,-0.0253494680,-0.0128136743,0.0589731596,0.0273327772,-0.0246621557
5.0633287430,-0.0061606900,-0.0642124712,-0.0001010764,-0.0103257550,0.0203678105,-0.0235862378
5.0734028816,-0.0157073271,-0.0432111323,-0.0152112115,-0.0392405465,0.0295963306,-0.0341926739
5.0837392807,-0.0163822901,-0.0009888707,-0.0490709990,-0.0523741916,0.0624032803,-0.0299257599
5.0935211182,-0.0113729369,-0.0045034587,-0.0696770996,-0.1009067893,0.1128908247,-0.0330732167
5.1036200523,0.0061189993,0.0027657452,-0.0420159549,-0.1265610158,0.1169042066,-0.0341264978
5.1136550903,0.0236016382,0.0402623117,-0.0161150564,-0.0632770956,0.0856653899,-0.0277871750
5.1240100861,0.0155882705,0.0275225937,0.0221361052,-0.0108993724,0.0776756406,-0.0214336719
5.1337881088,0.0007899865,0.0051690638,0.0432912819,0.0521765053,0.0665125325,-0.0278255921
5.1438651085,0.0066103204,0.0092897713,0.0602598898,0.1145296246,0.0214507859,-0.0246785339
5.1539220810,0.0048239096,0.0115121901,0.0535081774,0.1542457342,-0.0015599246,-0.0268240422
5.1643519402,-0.0007366076,0.0039884746,0.0304725301,0.1671365201,-0.0099360989,-0.0268314984
5.1740560532,0.0025224551,-0.0015901028,-0.0051593054,0.1467979401,-0.0037118916,-0.0215148982
5.1841897964,0.0096477140,-0.0043459237,-0.0401226729,0.1009758711,-0.0104717929,-0.0204448402
5.1941990852,0.0089074243,-0.0218423307,-0.0551336296,0.0283790845,-0.0079510454,-0.0246716104
5.2045998573,0.0041574701,-0.0336374342,-0.0425150245,-0.0229043439,-0.0019978147,-0.0193466172
5.2143201828,-0.0075748698,-0.0162478983,-0.0117530096,-0.0262000822,0.0075653968,-0.0129708108
5.2244567871,-0.0213107001,0.0031667652,0.0103657376,0.0208222847,0.0016718215,-0.0034295046
5.2344541550,-0.0341780931,-0.0103026330,0.0405368954,0.0312178265,0.0293720253,-0.0002330452
5.2448859215,-0.0343153626,-0.0140506923,0.0600146204,0.0312487204,0.0261751674,-0.0023582480
5.2545971870,-0.0196600091,-0.0023550687,0.0658750087,0.0014726082,0.0152198542,-0.0150965462
5.2646923065,0.0010710820,0.0091403425,0.0454943329,-0.0184299946,-0.0220923647,-0.0151101286
5.2747249603,0.0140152443,0.0041116774,0.0183839928,-0.0501822531,-0.0477314815,0.0008113800
5.2851428986,0.0162057746,0.0018827022,-0.0100123156,-0.0938844532,-0.0534602068,-0.0055511780
5.2948670387,0.0174186695,0.0102787316,-0.0288832653,-0.0917148069,-0.0565973409,-0.0013056332
5.3049931526,0.0166116226,0.0168444216,-0.0213470329,-0.0682246611,-0.0574186631,0.0039969869
5.3150010109,0.0049458011,0.0157441199,-0.0050249565,-0.0385498554,-0.0370048694,0.0029371816
5.3254127502,-0.0067597167,0.0332544148,0.0066524278,0.0360783078,-0.0288768988,0.0103548849
5.3351249695,-0.0048632757,0.0432800949,0.0228096377,0.0948921219,-0.0399586484,0.0220137369
5.3452339172,-0.0069301263,0.0292312205,0.0345751792,0.1428713650,-0.0352813378,0.0241274890
5.3552689552,-0.0118910801,0.0054797828,0.0115254056,0.1693721116,-0.0169840883,0.0283776261
5.3656458855,-0.0052359239,-0.0220582783,-0.0153919924,0.1458063275,-0.0075501064,0.0421917103
5.3753938675,0.0091780294,-0.0633089244,-0.0134643186,0.0328893065,-0.0287314244,0.0369004086
5.3855271339,0.0217860807,-0.0602007210,0.0013570320,-0.0690596923,-0.0795626491,0.0262829177
5.3954958916,0.0238778461,-0.0340556204,0.0168791544,-0.1058115289,-0.1393054724,0.0262628105
5.4058709145,0.0007332429,-0.0051416457,0.0041665565,-0.0972313583,-0.1434679925,0.0273203515
5.4157261848,-0.0283450615,0.0179043114,-0.0174513925,-0.0807911083,-0.0807960257,0.0156678911
5.4257240295,-0.0301239621,0.0234751403,-0.0352499932,-0.0652044192,-0.0393393934,0.0061284476
5.4358692169,-0.0133812558,0.0164122283,-0.0491601713,-0.0601729676,-0.0096466132,-0.0034145908
5.4461460114,-0.0016604797,0.0075422227,-0.0416729301,-0.0528719053,0.0074154614,-0.0002225258
5.4559659958,-0.0038028494,0.0222462118,-0.0068094004,0.0090674637,0.0037251185,0.0018843010
5.4660010338,-0.0196640622,0.0108756125,0.0216503274,0.0570035651,0.0126395179,0.0029383802
5.4760689735,-0.0354736000,-0.0160793960,0.0307424199,0.0738258511,0.0371087715,-0.0097953919
5.4864459038,-0.0286392700,-0.0451821387,0.0202513468,0.0384864993,0.0483822003,-0.0235841740
5.4961938858,-0.0030347840,-0.0638538897,0.0085486304,-0.0189618506,0.0298007280,-0.0299501270
5.5062561035,0.0256624687,-0.0623185337,-0.0062833894,-0.0751068816,-0.0121070417,-0.0352657959
5.5163507462,0.0260675419,-0.0366276205,-0.0146498550,-0.1049147621,-0.0198296085,-0.0405711457
5.5266809464,0.0157456864,0.0064856708,-0.0426333398,-0.0912199914,-0.0016298324,-0.0341947414
5.5365209579,0.0091300476,0.0128053129,-0.0433769077,-0.0850606337,0.0228499435,-0.0309986807
5.5465278625,0.0082904566,0.0308708847,-0.0343696922,-0.0382039100,0.0327952504,-0.0331292115
5.5566639900,0.0074751838,0.0491248667,-0.0317209214,0.0387283154,0.0239375792,-0.0299672391
5.5669388771,-0.0012570755,0.0375740826,-0.0206198562,0.1038274243,0.0245615579,-0.0214890651
5.5767393112,-0.0170244705,0.0068521798,0.0005131494,0.1186748147,0.0343109891,-0.0108706420
5.5867862701,-0.0250127446,0.0092899501,0.0178644788,0.1528649926,0.0303583257,-0.0119430972
5.5968909264,-0.0368483812,0.0019675794,0.0207159054,0.1430880576,0.0472299866,-0.0151178520
5.6071939468,-0.0446497947,-0.0182949007,-0.0080026258,0.0870769918,0.0975557342,-0.0331290774
5.6170039177,-0.0251060855,-0.0388447940,-0.0170031656,-0.0166815743,0.1209629253,-0.0468926914
5.6270551682,0.0121090282,-0.0305335820,-0.0013567079,-0.0930370688,0.0725258887,-0.0500828922
5.6371898651,0.0328507870,-0.0038990674,-0.0082163084,-0.1044390425,0.0396652073,-0.0299236290
5.6474790573,0.0261627305,0.0042918026,-0.0161144603,-0.1193665862,0.0384944826,-0.0267350264
5.6572952271,0.0233503450,0.0056460798,-0.0279928315,-0.1193882674,0.0406166241,-0.0267340951
5.6672887802,0.0322624296,0.0158706009,-0.0318323821,-0.0891592652,0.0070362939,-0.0097697582
5.6774539948,0.0244471300,0.0078637302,-0.0139039624,-0.0718520433,-0.0149851860,0.0072039650
5.6877307892,-0.0009794370,0.0242813528,-0.0113241542,-0.0132441260,-0.0059706513,0.0093171839
5.6975603104,-0.0235899817,0.0487653315,-0.0083400477,0.0600387678,0.0297487285,0.0188718066
5.7075958252,-0.0337450653,0.0452941358,-0.0061316360,0.1065242514,0.0768499300,0.0199453272
5.7177248001,-0.0214842688,0.0448842943,-0.0056638587,0.1417105943,0.0803678930,0.0241856799
5.7280268669,-0.0003754631,0.0338503420,-0.0145967472,0.1494287103,0.0560716130,0.0305423774
5.7378292084,0.0079758037,-0.0238505304,0.0143643748,0.0610700250,0.0340423472,0.0252457503
5.7478647232,0.0115853418,-0.0438732803,0.0438971035,0.0305568576,-0.0097706504,0.0188608207
5.7579917908,0.0066479309,-0.0057081878,0.0394531637,0.0735140443,-0.0370105915,0.0145881120
5.7682847977,-0.0069968835,-0.0181334913,0.0167420041,0.0625215843,-0.0052944752,0.0114213470
5.7781362534,-0.0020180480,-0.0502972305,-0.0307752956,-0.0092033911,0.0163420439,0.0082642362
5.7881069183,0.0342123359,-0.0689773858,-0.0475941151,-0.1037906110,-0.0226351842,0.0157013796
5.7982587814,0.0508204550,-0.0369984806,0.0152276289,-0.1368552297,-0.1300334781,0.0252133254
5.8085308075,0.0109302271,0.0202560127,0.0550278574,-0.0588206127,-0.1432014704,0.0166925415
5.8184051514,-0.0494794995,0.0650738776,0.0486814529,0.0824480951,-0.0762155205,0.0113824643
5.8283839226,-0.0749294311,0.0469838679,0.0378654711,0.1273918748,0.0174843408,0.0007998618
5.8385090828,-0.0544446260,0.0161481202,0.0123142730,0.1206668019,0.0481382571,-0.0087423772
5.8488121033,-0.0221969616,-0.0030982194,-0.0017346609,0.0641084537,0.0476373173,-0.0097900648
5.8586859703,-0.0193226468,-0.0079152286,-0.0104605425,0.0138256811,0.0598529689,-0.0214488525
5.8686771393,-0.0194702875,-0.0001448094,-0.0078822840,-0.0024486296,0.0862243921,-0.0235551465
5.8787078857,-0.0020685927,0.0007747711,-0.0054756273,-0.0023796279,0.0798921287,-0.0182484649
5.8890953064,0.0359433144,-0.0216195285,0.0078976285,-0.0207980480,0.0024303563,0.0061389008
5.8989162445,0.0546246022,-0.0343995988,0.0165928733,-0.0478413850,-0.0678022578,0.0114183510
5.9089078903,0.0481033772,-0.0298007429,-0.0009108651,-0.0571222305,-0.0996677801,0.0188373849
5.9190082550,0.0258839596,-0.0319256485,-0.0212185252,-0.0569990352,-0.1113053933,0.0241417345
5.9294261932,0.0045415028,-0.0183881819,-0.0318363160,-0.0507981330,-0.0910834819,0.0252120607
5.9391360283,-0.0100798737,0.0157481730,-0.0092376340,-0.0060678935,-0.0821954459,0.0262653418
5.9492020607,-0.0286616217,0.0510224402,0.0039320718,0.0629881397,-0.0507997088,0.0294488836
5.9592700005,-0.0532471091,0.0562977493,0.0007003676,0.1133880094,0.0312958919,0.0220450964
5.9696869850,-0.0546294600,0.0353938639,0.0001599919,0.1020599902,0.0958338752,0.0082768202
5.9794039726,-0.0267108213,0.0027126374,0.0051446687,0.0582815893,0.0975185260,-0.0002058144
5.9894742966,0.0032881363,-0.0340746343,0.0050386321,-0.0053839395,0.0608851425,-0.0002079449
5.9995388985,0.0128754247,-0.0447933376,0.0104637872,-0.0542066023,0.0339174420,-0.0023326147
6.0098829269,0.0137699712,-0.0527833998,0.0107962023,-0.0913845971,0.0166289993,-0.0002082112
6.0196919441,0.0186627973,-0.0521249473,0.0119868647,-0.1156490296,-0.0111581571,0.0019082029
6.0297918320,0.0266347397,-0.0311473906,0.0141774546,-0.1100374907,-0.0387114882,-0.0002305818
6.0398221016,0.0191088188,-0.0092743337,-0.0107742418,-0.0973048881,-0.0311589632,0.0018937552
6.0499773026,0.0035815104,0.0010022820,-0.0290459860,-0.1126239225,0.0069620581,0.0104110762
6.0597820282,-0.0073473589,0.0162515938,-0.0311683286,-0.1237825677,0.0557096228,0.0157472529
6.0699157715,-0.0125957858,0.0374490917,-0.0197902787,-0.0919828266,0.0771954730,0.0136263110
6.0802168846,-0.0130590331,0.0520237386,-0.0062389243,-0.0356722847,0.1021004915,0.0146852508
6.0903840065,-0.0106876623,0.0424345434,-0.0021496285,0.0066384221,0.1395876706,0.0115078334
6.1002621651,0.0083089340,0.0182970464,-0.0028040875,0.0236123465,0.1492304504,0.0030139473
6.1103749275,0.0390400738,-0.0232686102,0.0181419980,-0.0015028613,0.1002767533,0.0146756629
6.1203751564,0.0523545593,-0.0601252019,0.0390830152,-0.0509641021,0.0308516119,0.0114692170
6.1306319237,0.0454163998,-0.0466108024,0.0328046829,-0.0483824313,-0.0136918891,0.0114463139
6.1404991150,0.0171037186,-0.0234074891,0.0139953624,-0.0430038609,-0.0178751815,0.0135661904
6.1506080627,-0.0043312446,-0.0012991129,-0.0273742545,-0.0561199263,0.0127612902,0.0103994254
6.1606688499,-0.0043943659,0.0024004879,-0.0299250949,-0.0880520791,0.0051374594,0.0231455807
6.1709833145,0.0003857478,0.0128646791,-0.0326619036,-0.1241751909,-0.0111014321,0.0220848434
6.1808071136,-0.0056668655,0.0205000937,-0.0091377962,-0.1208648160,-0.0216488149,0.0273876637
6.1908769608,-0.0156618487,0.0174869597,0.0018140208,-0.0867630318,-0.0171549954,0.0199486557
6.2009000778,-0.0169075858,-0.0058270395,0.0052556526,-0.0441532247,-0.0093477396,0.0210030675
6.2112741470,-0.0112345349,-0.0124802887,0.0159217250,0.0029117540,-0.0206848159,0.0093056653
6.2210378647,-0.0082193147,0.0069744289,-0.0101289619,0.0465499647,-0.0098179877,-0.0098116370
6.2311429977,-0.0040779845,0.0244497955,-0.0428019613,0.0559890047,0.0061117103,-0.0204240680
6.2411069870,0.0000638827,0.0185140669,-0.0668452829,0.0418852530,0.0282030981,-0.0310281739
6.2515101433,0.0070685013,0.0272398293,-0.0568697341,0.0485127941,0.0059918016,-0.0289173536
6.2613182068,0.0003362759,0.0332612097,-0.0182922948,0.0947605297,-0.0285172407,-0.0130187478
6.2713069916,-0.0260687005,0.0026339593,0.0412418954,0.1303358376,-0.0631119683,0.0039437236
6.2815799713,-0.0493913442,-0.0104906857,0.0592500120,0.1730472147,-0.0659841225,-0.0056250808
6.2948417664,-0.0569446236,-0.0129363239,0.0493106991,0.2059977055,-0.0529977493,-0.0109359566
6.3025960922,-0.0449287444,-0.0465516150,0.0150291454,0.1513803005,-0.0332601964,-0.0024163048
6.3116679192,-0.0211849343,-0.0648684800,-0.0082563031,0.0415118486,-0.0396222211,-0.0172567703
6.3215661049,-0.0071174041,-0.0436402857,-0.0215238798,-0.0437882692,-0.0478147045,-0.0204255991
6.3319101334,-0.0057931677,0.0124020278,-0.0237107743,-0.0801249668,-0.0428404510,-0.0225374848
6.3417410851,-0.0104092490,0.0411919057,-0.0202898253,-0.0781579316,-0.0258113351,-0.0172202848
6.3520588875,-0.0141204726,0.0583293736,-0.0285801161,-0.0473885685,-0.0074554970,-0.0097863367
6.3620119095,-0.0071998970,0.0542286932,-0.0386110991,-0.0165149141,0.0002911056,-0.0023585141
6.3722891808,0.0035691722,0.0240658224,-0.0298307408,-0.0014840327,-0.0079902597,0.0093133226
6.3821172714,0.0122398008,-0.0000526010,-0.0013809074,0.0136496192,-0.0269230045,0.0146088181
6.3920941353,0.0199053753,-0.0190962255,0.0449981242,0.0459974408,-0.0594860055,0.0220169332
6.4021611214,0.0159625281,-0.0039959848,0.0772437006,0.1337093115,-0.0800037384,0.0124278888
6.4126367569,0.0113305915,0.0169868767,0.0615758449,0.2298025489,-0.0844906271,0.0092158504
6.4223461151,0.0086544026,-0.0056869686,0.0413756520,0.2147058547,-0.0687284395,0.0060437592
6.4324321747,0.0090290774,-0.0509823263,0.0110662114,0.1399120390,-0.0610175282,-0.0130457794
6.4425621033,0.0114719737,-0.0392608941,-0.0228256453,0.0780372620,-0.0637290254,-0.0204636138
6.4528360367,0.0040268763,-0.0363731682,-0.0202292074,-0.0052877190,-0.0560165085,-0.0278711971
6.4626278877,-0.0132291447,-0.0453768075,0.0040972363,-0.0619854629,-0.0438808836,-0.0437791906
6.4727182388,-0.0197238456,-0.0019876061,0.0339983255,-0.0352332070,-0.0510818027,-0.0448513776
6.4827580452,-0.0251782071,0.0433989465,0.0446521193,0.0179415438,-0.0325713716,-0.0437942408
6.4931578636,-0.0248326194,0.0470708907,0.0243894588,0.0452879481,0.0080652721,-0.0321010984
6.5028510094,-0.0060465471,0.0342923701,-0.0085049737,0.0482481048,0.0325305350,-0.0267802346
6.5129508972,0.0253158081,0.0070358217,-0.0296876896,0.0100189587,0.0142410100,-0.0140380729
6.5230278969,0.0390415043,-0.0056462586,-0.0326080769,-0.0218611844,0.0012485785,-0.0108495373
6.5334482193,0.0380869359,-0.0056886375,-0.0297710765,-0.0195921697,-0.0113748051,0.0029469689
6.5431499481,0.0301473606,-0.0027103720,-0.0113645662,-0.0110552749,-0.0112646166,0.0082528507
6.5532512665,0.0261999238,0.0100187957,0.0013643634,0.0211295597,-0.0279541146,0.0092981411
6.5632829666,0.0174856056,0.0091459453,-0.0031227339,0.0638440251,-0.0307562239,0.0103465617
6.5737171173,0.0058595403,0.0016285480,-0.0110736359,0.1215110570,-0.0345038250,0.0092682475
6.5834159851,-0.0048864619,0.0059821308,-0.0187113751,0.1491690576,-0.0246087853,0.0251933523
6.5935192108,-0.0128410589,-0.0059947670,-0.0067109931,0.1480023414,-0.0151175437,0.0177657958
6.6035537720,-0.0149981510,-0.0111612380,0.0245569479,0.1138234884,-0.0122617036,0.0135299042
6.6139030457,-0.0170385372,-0.0039143264,0.0360930711,0.0923695937,-0.0019004096,0.0039843367
6.6236972809,-0.0170863997,0.0031497183,0.0307787787,0.0612795651,0.0116169304,0.0029356505
6.6337881088,-0.0102757942,-0.0142966807,0.0143514406,-0.0039772037,0.0269356985,-0.0012873241
6.6438302994,0.0024214848,-0.0144549906,-0.0093459357,-0.0519101918,0.0180344153,-0.0002170662
6.6542139053,0.0160444248,-0.0068389475,0.0018257629,-0.0921484232,-0.0130404122,0.0072102235
6.6639528275,0.0121626128,-0.0129330456,0.0168212187,-0.1174509004,-0.0440473333,0.0050778305
6.6740303040,-0.0043437020,-0.0015727578,0.0114213359,-0.0948648974,-0.0607514754,0.0167435408
6.6841669083,-0.0189764630,0.0157551467,0.0013270508,-0.0682459101,-0.0540616140,0.0305427089
6.6944379807,-0.0268290173,0.0117959082,-0.0270882118,-0.0469400883,-0.0495550148,0.0422193408
6.7042899132,-0.0270056855,0.0020886364,-0.0419406742,-0.0655061603,-0.0073022321,0.0379991606
6.7142868042,-0.0165569913,0.0050376356,-0.0346714109,-0.0784597769,0.0074538104,0.0401334167
6.7244348526,-0.0013004676,0.0246514380,-0.0020495523,-0.0517180413,0.0013280739,0.0411850363
6.7347097397,0.0002459153,0.0297659338,0.0230058562,-0.0144553585,0.0101215653,0.0379945673
6.7445678711,-0.0020610825,0.0251751840,0.0298066866,0.0356790759,0.0126458425,0.0326753035
6.7545571327,0.0025800928,0.0021949115,0.0253321659,0.0592613667,0.0022270239,0.0305405129
6.7646470070,0.0014691218,-0.0306275189,0.0013682377,0.0431106538,0.0158536863,0.0263030920
6.7749729156,0.0002962216,-0.0596286356,-0.0170110930,-0.0028589703,0.0239686035,0.0305660143
6.7847809792,0.0059174164,-0.0682434142,-0.0161985029,-0.0399320386,-0.0039008432,0.0369309671
6.7948231697,0.0066376789,-0.0612998307,0.0050237309,-0.0662224963,-0.0422745980,0.0454128683
6.8049497604,-0.0072081224,-0.0164483488,0.0292054545,-0.0348614827,-0.0834185705,0.0400758944
6.8152308464,-0.0326601416,0.0186770856,0.0215394031,-0.0114901150,-0.0725896209,0.0421989672
6.8250799179,-0.0531990677,0.0478939116,-0.0202557910,0.0018378077,-0.0184136722,0.0337292477
6.8350973129,-0.0464158803,0.0633685291,-0.0652939528,-0.0370507352,0.0266938843,0.0061548795
6.8451852798,-0.0142036211,0.0505562723,-0.0909733027,-0.0551167428,0.0191437546,0.0114639578
6.8555088043,0.0099645723,0.0273273289,-0.0503707975,-0.0760715604,-0.0191833936,0.0199445281
6.8653612137,0.0020255311,0.0312728584,-0.0300978292,-0.0151226129,-0.0314320698,0.0124898078
6.8753757477,-0.0049643652,0.0228227675,-0.0189858545,0.0755582899,-0.0273667555,0.0262721982
6.8854141235,0.0007375940,-0.0106539428,-0.0121052135,0.1247966439,-0.0406428128,0.0400582515
6.8957490921,0.0132321585,-0.0614294112,0.0214157235,0.1040085405,-0.0947949961,0.0623342618
6.9055547714,0.0141066778,-0.0518702567,0.0629178435,0.1142727956,-0.1604433805,0.0697299913
6.9156641960,-0.0101050269,0.0208594501,0.0445428044,0.2189968079,-0.1744324416,0.0622638203
6.9256930351,-0.0421831161,0.0315807164,0.0159933101,0.2429730892,-0.1180549115,0.0516687036
6.9361090660,-0.0489341170,0.0012474359,-0.0170371402,0.1599567682,-0.0362290218,0.0188148804
6.9458160400,-0.0117145311,-0.0051299036,-0.0080793966,0.0513037369,-0.0574070103,0.0082128374
6.9558620453,0.0169048179,0.0007885398,-0.0025126208,-0.0081183128,-0.0919295698,0.0007780904
6.9659929276,0.0005040034,-0.0167133510,0.0144456755,-0.0442858264,-0.1027954593,0.0103393039
6.9762940407,-0.0277787577,-0.0225358307,0.0339887254,-0.0487663299,-0.0815988332,0.0124746272
6.9861321449,-0.0346047431,-0.0157048404,0.0370053761,-0.0369870886,-0.0845615268,0.0305206720
6.9961481094,-0.0198356044,-0.0001098810,0.0275182854,-0.0155246714,-0.0960115269,0.0358184986
7.0062179565,0.0028047427,-0.0039249957,0.0085916650,-0.0291879643,-0.1162159964,0.0474920683
7.0165672302,0.0157258380,0.0000737013,0.0004761945,-0.0321672410,-0.1385458112,0.0442962721
7.0264201164,0.0139404405,0.0186256468,-0.0136198867,-0.0408252366,-0.1269835532,0.0389948487
7.0364179611,-0.0025769011,0.0264776647,0.0070687663,-0.0508176833,-0.0901331306,0.0082236230
7.0465731621,-0.0170121323,0.0496466458,-0.0074942578,0.0040217340,-0.0261333119,-0.0140564498
7.0568237305,-0.0109889042,0.0690721571,-0.0131190289,0.0749153495,0.0338104479,-0.0289096981
7.0666871071,-0.0000845329,0.0418070257,-0.0196507443,0.0893579647,0.0814719126,-0.0618057922
7.0766339302,0.0264738072,-0.0136449039,0.0011356007,0.0830835551,0.0686908737,-0.0607487857
7.0868320465,0.0462894887,-0.0545135438,0.0045695435,0.0878904536,0.0157328453,-0.0522815324
7.0970921516,0.0436500758,-0.0924580395,-0.0104256738,0.0689601749,-0.0108076846,-0.0289304033
7.1069660187,0.0341094583,-0.1050533354,-0.0244711507,0.0404039472,-0.0353312716,-0.0087608201
7.1170063019,0.0284708012,-0.1089977324,-0.0387425870,-0.0138022983,-0.0569713190,-0.0002634718
7.1272549629,0.0238786805,-0.0966046154,-0.0378044695,-0.0819984525,-0.0682467446,-0.0108701764
7.1374187469,0.0174281467,-0.0279776752,-0.0303371418,-0.0796181187,-0.0926173329,-0.0087593552
7.1471681595,-0.0037826435,0.0106360614,-0.0023282040,-0.0809451714,-0.0672179684,-0.0172407236
7.1572332382,-0.0299470555,0.0569844544,-0.0056310166,-0.0176583417,0.0064743664,-0.0288997777
7.1673340797,-0.0299353730,0.0948527753,0.0029246937,0.0435787030,0.0716602951,-0.0405628234
7.1776509285,-0.0154345762,0.0541287959,0.0340799242,0.0359591320,0.0864421725,-0.0416153036
7.1875028610,0.0021518930,0.0337486565,0.0371152312,0.0768073350,0.0570459329,-0.0480103530
7.1974701881,0.0012273653,0.0203013718,0.0308171641,0.1079005376,0.0436270609,-0.0320979655
7.2076349258,-0.0183336865,-0.0183359087,0.0187706482,0.1057668403,0.0436580181,-0.0246659499
7.2179079056,-0.0281133186,-0.0336948931,-0.0031460393,0.0908685848,0.0404691510,-0.0055513778
7.2277679443,-0.0251871478,-0.0277731717,-0.0262995828,0.0311844312,0.0325413197,-0.0023551851
7.2377409935,-0.0173311960,-0.0532252491,-0.0411305875,-0.0743989870,0.0252317414,-0.0055174227
7.2479090691,-0.0123621356,-0.0557071865,-0.0470086820,-0.1533371359,0.0213029813,-0.0139931329
7.2582068443,-0.0093379747,-0.0223948061,-0.0407166332,-0.1716002971,0.0327532403,-0.0235389657
7.2679758072,-0.0092927348,0.0099121630,-0.0345597155,-0.1569534391,0.0614615865,-0.0341463350
7.2780308723,-0.0044633881,0.0083403885,0.0077471863,-0.1431686431,0.0700361654,-0.0394545496
7.2881560326,0.0032951697,0.0137048662,0.0493172556,-0.1035453379,0.0566516481,-0.0299164373
7.2984490395,0.0053126081,0.0464680493,0.0710814744,0.0099207675,0.0226127245,-0.0320858508
7.3083081245,-0.0111364257,0.0697539747,0.0381575376,0.1046165153,0.0521431156,-0.0235990882
7.3182992935,-0.0209151041,0.0241774023,0.0025543105,0.0945287272,0.0997489840,-0.0320671424
7.3284187317,-0.0053193704,-0.0254060924,-0.0265519489,0.0359127671,0.0918443277,-0.0267476104
7.3386979103,0.0191733707,-0.0304190814,-0.0432824343,-0.0138486624,0.0521421880,-0.0278166030
7.3485412598,0.0163099039,-0.0326723754,-0.0516042002,-0.0649161339,0.0368956551,-0.0193163920
7.3585371971,-0.0042224065,-0.0369145572,-0.0369004458,-0.0957989544,0.0302593242,-0.0193118639
7.3687009811,-0.0130795371,0.0006634296,-0.0164673198,-0.0680583492,0.0316245928,-0.0097616361
7.3789591789,-0.0121257436,0.0364751518,0.0063571464,-0.0048319725,0.0056425277,-0.0108524663
7.3887777328,-0.0159490835,0.0276657641,0.0141498577,0.0335294232,0.0112624634,-0.0140449312
7.3988132477,-0.0090155136,0.0102204978,0.0242616665,0.0529076494,-0.0055527361,-0.0151200481
7.4088368416,0.0029298528,0.0084442198,0.0230884086,0.0874245912,-0.0424094871,-0.0183334872
7.4207191467,-0.0016484396,0.0037951770,0.0115322005,0.1057037264,-0.0560509972,-0.0194067396
7.4298810959,-0.0160530340,-0.0114804208,0.0116645824,0.0950156897,-0.0539953709,-0.0151549373
7.4397120476,-0.0216482412,-0.0005501210,0.0117181670,0.0897892341,-0.0646173805,-0.0098499199
7.4498529434,-0.0242672097,0.0133197606,0.0147776734,0.0963450819,-0.0793742239,-0.0034878938
7.4599680901,-0.0258919727,0.0388772786,0.0003852975,0.1272428185,-0.0737435073,0.0050014644
7.4691338539,-0.0217183363,0.0498918593,-0.0188269485,0.1216210425,-0.0462434366,-0.0013563000
7.4793019295,-0.0117171537,0.0296660364,-0.0412827581,0.0595214516,-0.0266734660,-0.0087633505
7.4893431664,0.0050843223,0.0131221116,-0.0399459451,-0.0214377679,-0.0411692522,-0.0076869666
7.4995551109,0.0091147888,0.0023373666,-0.0117184985,-0.0851304606,-0.0745573044,0.0018687216
7.5094900131,-0.0092621576,-0.0116100609,0.0054016840,-0.1278833896,-0.0686267763,-0.0076733185
7.5194830894,-0.0236650240,-0.0208072960,0.0321160108,-0.1150522679,-0.0717810243,-0.0204197392
7.5304021835,-0.0262311827,-0.0221650302,0.0494216233,-0.0596141815,-0.0659702048,-0.0172458515
7.5407691002,-0.0210017692,0.0019496382,0.0524867326,0.0086112116,-0.0578981638,-0.0098265503
7.5499920845,-0.0148430597,0.0175307095,0.0413848311,0.0777874365,-0.0381318480,-0.0002781193
7.5598011017,0.0048560961,0.0666185319,0.0319338590,0.1879504174,-0.0603269041,0.0283513963
7.5698642731,0.0165829528,0.0636727512,0.0029055607,0.2679786682,-0.0573119372,0.0580629520
7.5802030563,0.0221555103,0.0534383357,-0.0177883971,0.3640447557,-0.0573540144,0.0856453106
7.5899720192,0.0344227999,0.0621784031,-0.0261137951,0.4432598650,-0.0798616484,0.1079124659
7.6000380516,0.0320409983,0.0273394287,-0.0699797124,0.4740409553,-0.0625529662,0.1174694821
7.6101150513,0.0294479597,-0.0250259340,-0.0996921510,0.4028944671,0.0067274999,0.0973469764
7.6205883026,0.0444066972,-0.0465126336,-0.0746493191,0.3420894444,0.0028747048,0.0761245117
7.6304430962,0.0536521524,-0.0108152330,-0.0265462268,0.3336590827,-0.0090450048,0.0495767221
7.6405172348,0.0347658247,0.0217962563,0.0303501021,0.3613730073,-0.0080116987,0.0081600398
7.6505861282,0.0111597646,-0.0322158635,0.0825433284,0.3451679945,0.0108918846,-0.0003215287
7.6609373093,-0.0016896860,-0.0981976688,0.0690910369,0.2881345451,0.0581914894,0.0071491706
7.6706762314,0.0011442169,-0.0671757162,0.0647836477,0.2658614814,0.0429540798,-0.0215206910
7.6807231903,-0.0025986568,-0.0304821432,0.0430431515,0.2660063505,0.0280446392,-0.0300225653
7.6907958984,-0.0259736907,-0.0190813243,0.0114517938,0.2315566242,0.0585982203,-0.0172566362
7.7011518478,-0.0418070108,-0.0068122447,-0.0246647466,0.1723143458,0.1133062094,-0.0097816763
7.7109489441,-0.0372750312,0.0024301710,-0.0457273573,0.1223598272,0.0939092040,0.0114566348
7.7209801674,-0.0260453355,0.0097416341,-0.0475341529,0.0852793008,0.0682919919,0.0379982293
7.7310562134,-0.0344288498,0.0258143842,-0.0630435795,0.0852826089,0.0683548450,0.0475539193
7.7414207458,-0.0461014658,0.0012746156,-0.0281378496,0.0220008399,0.1008137167,0.0656367838
7.7511968613,-0.0402029902,0.0202399790,-0.0287729371,0.0261449330,0.1136173978,0.0709513873
7.7612571716,-0.0246342551,0.0335182846,0.0066809189,0.0132344598,0.1241363510,0.0741453171
7.7713441849,-0.0188377034,0.0301121771,0.0097797643,-0.0010879142,0.1685425639,0.0688622743
7.7816972733,-0.0051890151,0.0265732706,0.0019679200,0.0019020168,0.1886118799,0.0508209504
7.7914791107,0.0104222167,0.0006518663,0.0281773936,-0.0247440822,0.1840532124,0.0380823836
7.8015460968,0.0292323697,-0.0021536646,0.0232980978,-0.0039844755,0.1353479922,0.0263729990
7.8116130829,0.0375941843,-0.0137741864,0.0032308232,-0.0236702934,0.0768143758,0.0263500959
7.8219728470,0.0324107856,-0.0401277244,-0.0052146781,-0.0946890786,0.0284377895,0.0252821688
7.8317480087,0.0293499101,-0.0588829815,-0.0195612777,-0.1312830895,-0.0460412391,0.0433051102
7.8418231010,0.0166214574,-0.0464589894,-0.0346171707,-0.1104015186,-0.1051556915,0.0623826645
7.8518810272,-0.0107573401,-0.0085280836,-0.0376827568,-0.0506334417,-0.1057652235,0.0517504625
7.8622341156,-0.0293414127,0.0112214983,-0.0118937958,0.0293553993,-0.1008636802,0.0453618057
7.8720149994,-0.0312950760,0.0195629299,0.0135098826,0.1263694912,-0.0916023329,0.0336607397
7.8820900917,-0.0302832257,0.0126542151,0.0288905632,0.2211766988,-0.0749546513,0.0187797938
7.8921251297,-0.0330930501,0.0020115080,0.0330565125,0.2945084572,-0.0458164699,-0.0045841178
7.9024958611,-0.0328878909,-0.0163879097,0.0169811379,0.3165650368,-0.0118278749,-0.0289941207
7.9122571945,-0.0258109700,-0.0817050636,0.0073692929,0.2074022293,0.0178577155,-0.0491245575
7.9223170280,-0.0059927837,-0.1223591268,0.0160796773,0.0493835695,0.0237875096,-0.0671320483
7.9324159622,0.0151183475,-0.0937109888,0.0111609232,-0.0528021306,-0.0048718313,-0.0947287902
7.9427361488,0.0119871367,-0.0450244844,0.0067362320,-0.0963386893,-0.0264394414,-0.0894195139
7.9525842667,-0.0048896805,-0.0266011655,0.0098166000,-0.1401939988,-0.0161985885,-0.0872787982
7.9625883102,-0.0169822108,-0.0131027400,0.0223301183,-0.1677854210,-0.0312326662,-0.0777231157
7.9727182388,-0.0183034670,0.0043657124,0.0243276488,-0.1589565873,-0.0585787371,-0.0522551015
7.9829988480,-0.0235903393,0.0229183137,0.0215595495,-0.1409544051,-0.0446341597,-0.0533145070
7.9928522110,-0.0250467192,0.0289155543,0.0023290049,-0.1071599126,-0.0093149161,-0.0522445813
8.0028190613,-0.0071673528,0.0204739869,0.0025249254,-0.1172333285,0.0372784175,-0.0532805510
8.0129871368,0.0243165363,0.0119213164,-0.0189702380,-0.1302515566,0.0583865009,-0.0532665700
8.0232601166,0.0548081249,0.0188813508,-0.0211854447,-0.1621359885,0.0453956015,-0.0500795655
8.0331211090,0.0608167499,0.0219013393,-0.0168341268,-0.1833870113,0.0367758125,-0.0415833481
8.0431232452,0.0511695594,0.0453822911,-0.0163811315,-0.1352645010,0.0277223960,-0.0299203005
8.0531883240,0.0375534147,0.0711589158,-0.0269985665,-0.0423310660,0.0201918427,-0.0076510138
8.0635690689,0.0247771610,0.0739759505,-0.0351134390,0.0172864590,0.0356648080,0.0072067613
8.0733079910,0.0265175570,0.0420642793,-0.0438167304,0.0418307930,0.0370785482,0.0284373481
8.0834407806,0.0388505310,-0.0188042819,-0.0250612367,0.0070725437,-0.0076665524,0.0475362055
8.0934410095,0.0414891094,-0.0261636674,-0.0130649079,0.0225777887,-0.0625985116,0.0644946843
8.1038150787,0.0157741774,-0.0177223384,0.0061832201,0.0560577177,-0.1015043631,0.0740229487
8.1135721207,-0.0245989691,-0.0180244148,0.0244599711,0.0492306240,-0.0602491349,0.0634260252
8.1237001419,-0.0434109718,-0.0097331107,0.0269402992,0.0437176153,-0.0434097014,0.0496324487
8.1337080002,-0.0455439836,0.0071599185,0.0098223817,0.0391297862,-0.0116383247,0.0464647487
8.1441621780,-0.0437833816,0.0258491337,-0.0290037263,0.0194570143,0.0337339528,0.0337508172
8.1538400650,-0.0362671763,0.0083790720,-0.0673204511,-0.0322518796,0.0809560567,0.0221072137
8.1639747620,-0.0093504917,-0.0168981254,-0.0660684556,-0.0823211744,0.0720368624,0.0231772717
8.1739749908,0.0136076678,-0.0305594504,-0.0154515970,-0.1267992854,0.0376860164,0.0221099444
8.1843395233,0.0132660735,-0.0063345730,0.0313898474,-0.0804451108,-0.0086111762,0.0199514516
8.1941165924,-0.0055014030,0.0121831000,0.0670646578,-0.0077860048,-0.0175187159,0.0209896192
8.2042560577,-0.0212094318,0.0152245462,0.0516241938,0.0591293797,0.0137752891,0.0114320666
8.2142419815,-0.0183054339,0.0066415370,0.0208085906,0.0663749576,0.0360862538,0.0061331079
8.2246608734,-0.0036173002,-0.0225050151,-0.0062340368,0.0204479508,0.0387576707,-0.0108426791
8.2343845367,0.0072161420,-0.0284760892,-0.0286930669,-0.0104684466,0.0352906995,-0.0129603585
8.2445201874,0.0043083890,-0.0062326491,-0.0347756594,0.0054820245,0.0406939872,-0.0193325058
8.2545146942,-0.0016623274,0.0005837978,-0.0262251366,0.0266455002,0.0589309819,-0.0172048379
8.2648944855,0.0050536259,-0.0042530000,-0.0176004041,0.0383823179,0.0590127409,-0.0203931741
8.2746639252,0.0206367839,-0.0110225379,-0.0049813855,0.0375392139,0.0367364623,-0.0182807557
8.2847833633,0.0314473361,-0.0129375160,0.0010264050,0.0507719256,-0.0055779684,-0.0161816515
8.2947874069,0.0297026504,-0.0284368694,0.0112861525,0.0288315564,-0.0524723046,-0.0183224995
8.3051967621,0.0143730510,-0.0293518007,0.0361833125,0.0228112135,-0.0907381997,-0.0204636808
8.3149127960,-0.0007607475,0.0027904811,0.0400036722,0.0669480488,-0.1285383105,-0.0183701701
8.3250913620,-0.0226270091,0.0282560289,0.0199682247,0.1255021691,-0.1142256856,-0.0173160918
8.3350467682,-0.0406714827,0.0314212143,-0.0039836634,0.1292394847,-0.0622742064,-0.0289720818
8.3454685211,-0.0363171846,0.0072334707,-0.0369674414,0.0775581896,-0.0171123184,-0.0310600009
8.3551921844,-0.0194394123,-0.0035153923,-0.0511697382,0.0185243767,0.0163060911,-0.0342134498
8.3653335571,-0.0047117607,0.0070754588,-0.0435144752,0.0054674307,0.0417137146,-0.0257030502
8.3753261566,0.0000257357,0.0265901387,-0.0173976291,0.0320919305,0.0484229475,-0.0087170778
8.3857440948,-0.0100719463,0.0434128344,0.0098339450,0.0863072276,0.0701807067,0.0008362139
8.3954296112,-0.0182197224,0.0331339538,0.0061749946,0.1288150102,0.0886390731,0.0082672322
8.4055442810,-0.0068949000,-0.0042904317,0.0260067713,0.0714931339,0.0584899634,0.0178229194
8.4156541824,0.0084880460,-0.0351164043,0.0408026129,0.0005453480,0.0038444283,0.0316168964
8.4258556366,0.0034916862,-0.0224396884,0.0105294120,-0.0366060138,-0.0154967783,0.0443582572
8.4357538223,-0.0094613563,-0.0049417317,-0.0162102450,-0.0806711316,0.0159914382,0.0507572331
8.4457893372,-0.0010879175,0.0183454454,-0.0326072425,-0.1022981256,0.0444936529,0.0571477562
8.4558525085,0.0276968945,0.0387187898,-0.0433455557,-0.1076609045,0.0476852506,0.0656453073
8.4661655426,0.0466160625,0.0523572266,-0.0287998188,-0.1117552519,0.0307203848,0.0730704665
8.4759626389,0.0420250148,0.0457123220,-0.0024232734,-0.1009426042,0.0170977823,0.0847396329
8.4861469269,0.0168546308,0.0177783072,0.0046353471,-0.0540491343,0.0239223987,0.0921637267
8.4961709976,0.0022965535,0.0213049352,0.0052818190,0.0282077100,0.0173719563,0.1165613532
8.5064496994,-0.0025717751,0.0330446064,0.0202342402,0.0881112516,0.0041770572,0.1282193363
8.5163393021,-0.0142340790,-0.0038165746,0.0062248837,0.0772028714,0.0274126716,0.1261095107
8.5263633728,-0.0014500753,-0.0154837668,-0.0069976319,0.0527984574,0.0134190908,0.1282323152
8.5364713669,0.0231541265,-0.0233153999,-0.0104409326,0.0126923192,-0.0315318704,0.1229110584
8.5467529297,0.0322919935,-0.0371988714,-0.0110972989,-0.0233082920,-0.0605720468,0.1112259030
8.5565938950,0.0180561412,-0.0639174879,0.0045288932,-0.0840142742,-0.0739252046,0.0974310637
8.5665931702,-0.0008981958,-0.0549533069,0.0159100424,-0.1010659635,-0.0773819834,0.0783212781
8.5766830444,-0.0196663272,-0.0130733550,0.0058640372,-0.0533225164,-0.0505758040,0.0570864379
8.5870018005,-0.0365113765,0.0045643151,0.0037180316,-0.0164603703,-0.0026082781,0.0411740504
8.5968322754,-0.0465636998,0.0037307444,-0.0032924283,0.0034698462,0.0314371064,0.0284451377
8.6068601608,-0.0351422578,0.0107823908,-0.0033253301,0.0386414155,0.0359748676,0.0263148751
8.6169338226,-0.0256627928,0.0111726820,0.0075900685,0.0515688248,0.0233070105,0.0188718736
8.6270370483,-0.0219675433,0.0047018826,0.0030393731,0.0760755017,0.0266351625,0.0082493220
8.6368741989,-0.0103662740,-0.0066021383,0.0015913378,0.0709161609,0.0084891813,-0.0013146214
8.6469449997,0.0062986477,-0.0257972181,0.0109807979,0.0489820950,-0.0395001844,-0.0087656137
8.6573629379,0.0075494512,-0.0655866563,0.0175418984,0.0046649920,-0.0897451788,-0.0066556577
8.6674947739,-0.0047328607,-0.0734701455,0.0287448894,-0.0323766470,-0.1208543628,-0.0087853875
8.6773309708,-0.0177547466,-0.0163574517,-0.0028391350,0.0146565605,-0.1289586872,-0.0130498409
8.6873931885,-0.0426238328,-0.0135867298,-0.0294459928,0.0087994700,-0.0770092085,-0.0119606080
8.6974716187,-0.0531014949,-0.0302689970,-0.0340775102,-0.0120704975,-0.0178135280,-0.0182946716
8.7077207565,-0.0382666737,-0.0031194387,-0.0213355292,0.0188250989,-0.0122105051,-0.0140525205
8.7176017761,-0.0263739955,0.0280013978,-0.0279045571,0.0632418320,0.0273771193,-0.0236015506
8.7276697159,-0.0215526950,0.0174722970,-0.0033768881,0.0639110878,0.0665950999,-0.0310147274
8.7377996445,0.0047498806,0.0284268558,0.0320075899,0.1026926264,0.0308769103,-0.0278566163
8.7480230331,0.0224386323,0.0356228650,0.0582237393,0.1407047212,-0.0345513634,-0.0236517526
8.7578830719,0.0139597524,0.0009928645,0.0546504408,0.1280508190,-0.0494896993,-0.0194086693
8.7679290771,0.0075143441,-0.0318236649,0.0247413050,0.0994577855,-0.0708783492,-0.0066705048
8.7780265808,0.0099171270,-0.0433026850,-0.0052590836,0.0634920895,-0.1018959805,0.0039419923
8.7883577347,0.0054751500,-0.0325278342,-0.0384188741,0.0208974928,-0.1106876135,0.0145664066
8.7981328964,-0.0068580047,-0.0121437609,-0.0593212731,-0.0306164324,-0.0825291425,0.0082224244
8.8081998825,-0.0076730386,0.0003206433,-0.0506481975,-0.0844112188,-0.0395148322,0.0050721713
8.8183336258,0.0021769865,0.0272584260,-0.0375006050,-0.0813583881,-0.0246401429,0.0040174266
8.8286151886,0.0070437058,0.0474883020,-0.0097353328,-0.0453247502,0.0000313809,-0.0034119939
8.8384447098,0.0030383333,0.0464943349,0.0163117778,0.0185072795,0.0196474250,-0.0097894659
8.8484325409,-0.0040207640,0.0107424557,0.0514683872,0.0481567830,0.0433058850,-0.0012907862
8.8585700989,-0.0061862008,-0.0064897239,0.0603900664,0.0789257959,0.0604552440,-0.0161551535
8.8688964844,0.0045389398,-0.0053213537,0.0422600657,0.1024862528,0.0521515086,-0.0193506796
8.8787364960,0.0143542159,-0.0207643211,0.0134169590,0.0575763583,0.0602143593,-0.0246451776
8.8887338638,0.0261570085,-0.0287214220,-0.0285861958,-0.0085222349,0.0532635115,-0.0256936643
8.8988342285,0.0497740954,-0.0242538154,-0.0562612899,-0.0838651136,0.0112767108,-0.0171998460
8.9091520309,0.0470095128,-0.0229063332,-0.0619937666,-0.1571097672,-0.0275140926,-0.0097680269
8.9190044403,0.0216562618,-0.0176722109,-0.0348729938,-0.1942470372,-0.0478392728,0.0146517623
8.9290065765,-0.0175684225,0.0070779026,-0.0060505737,-0.1657631993,-0.0146757262,0.0178464893
8.9390401840,-0.0451412350,0.0564050972,0.0036746394,-0.0337773114,0.0204738714,0.0242011901
8.9494180679,-0.0533948690,0.0771112740,0.0248406064,0.0617753081,0.0701327696,0.0263253283
8.9592180252,-0.0500351340,0.0688780844,0.0268414151,0.0987308249,0.1097231880,0.0273973849
8.9692668915,-0.0241718423,0.0518968403,0.0065891873,0.1019082442,0.1118385419,0.0220886394
8.9794073105,0.0037191375,0.0260754526,-0.0205098260,0.0754110441,0.0935400277,0.0178397652
8.9897003174,0.0189304817,-0.0105206668,-0.0272464622,0.0149064185,0.0612063222,0.0220861752
8.9994716644,0.0166333187,-0.0318053067,-0.0285755266,-0.0403572097,0.0373394713,0.0157160275
9.0095376968,0.0095571149,-0.0766653121,-0.0145352948,-0.1200456470,0.0027575258,0.0263369810
9.0196123123,-0.0024255649,-0.1090708673,0.0116832983,-0.1850497723,-0.0062299101,0.0369670540
9.0299997330,-0.0073619620,-0.0551688373,0.0172342192,-0.1590599716,-0.0442646444,0.0273852665
9.0397682190,-0.0210148226,-0.0176743567,0.0221800935,-0.1271531284,-0.0333961509,0.0241975971
9.0497808456,-0.0426337272,0.0082581341,0.0193501245,-0.0903783217,0.0242311917,0.0252788402
9.0599470139,-0.0399328619,0.0352990925,0.0010234844,-0.0522480905,0.0531849451,0.0210376214
9.0702590942,-0.0246203076,0.0361926258,-0.0210410226,-0.0365415663,0.0830051601,0.0168013312
9.0800371170,-0.0015880005,0.0225740373,-0.0149307121,-0.0652289540,0.0700081959,0.0146779269
9.0900869370,0.0107432473,-0.0144210160,0.0057919156,-0.1063873097,0.0240423083,0.0178508162
9.1001539230,0.0016279086,-0.0223579705,0.0272867810,-0.1244299263,0.0143125150,0.0146666747
9.1104984283,-0.0102357399,-0.0022927222,0.0165801179,-0.0987575874,0.0081355795,0.0093480758
9.1202898026,-0.0053907768,0.0168389380,-0.0055028070,-0.0678337812,0.0105142482,0.0072176140
9.1303615570,-0.0014498369,0.0106880367,-0.0226340760,-0.0679792017,0.0242172778,-0.0065788915
9.1404209137,0.0211793650,0.0316540897,-0.0572388060,-0.0507815927,0.0116359061,-0.0065910760
9.1507806778,0.0378249139,0.0334229767,-0.0623827465,-0.0367501974,-0.0029723321,0.0125104468
9.1605577469,0.0356989950,0.0276927054,-0.0420440882,-0.0024513723,-0.0163505226,0.0305467714
9.1706571579,0.0246633161,0.0603413284,-0.0162349213,0.1058697701,-0.0671489909,0.0687186569
9.1806993484,-0.0061276094,0.0654000342,0.0162812006,0.1816929877,-0.0705158189,0.1016127542
9.1910238266,-0.0390851647,0.0250592530,0.0491001159,0.1793685853,-0.0502161458,0.1260448694
9.2008247375,-0.0467285663,0.0197549760,0.0748992115,0.1908640116,-0.0257041417,0.1271165162
9.2108583450,-0.0366962701,0.0300587118,0.0630465895,0.2284643799,-0.0497048162,0.1387747675
9.2209873199,-0.0285685789,0.0151206553,0.0620609671,0.1868430823,-0.0512880012,0.1143625751
9.2313613892,-0.0321187526,-0.0655193627,0.0563426726,0.0229827724,0.0043931059,0.0857634172
9.2410964966,-0.0031547681,-0.1062290370,0.0152129661,-0.1337180138,-0.0152083589,0.0560633838
9.2512216568,0.0388055295,-0.1086622775,-0.0003625620,-0.2623281777,-0.0684500039,0.0369570665
9.2612400055,0.0468084663,-0.0784418881,0.0166320931,-0.3098016679,-0.1241602078,0.0188915804
9.2715950012,0.0236134399,-0.0258930027,0.0472766906,-0.2586769760,-0.1141845360,0.0156981833
9.2813739777,0.0003974899,0.0541653335,0.0608670227,-0.0978974700,-0.0778189451,0.0071807294
9.2914485931,-0.0003591911,0.0861876905,0.0775826722,0.0598522164,-0.0584577620,-0.0013440496
9.3014965057,0.0096738208,0.0602993667,0.0691019446,0.1720160842,-0.0691636726,-0.0035017426
9.3118600845,0.0199025143,0.0064730942,0.0410376936,0.2333516181,-0.1195882261,-0.0077896984
9.3216323853,0.0085590947,-0.0850934684,0.0133085381,0.1884973049,-0.1156032756,0.0123969968
9.3317089081,-0.0086435210,-0.0776598752,-0.0208722819,0.1639256477,-0.1137787402,-0.0003374411
9.3417654037,-0.0276799928,-0.0587411225,-0.0464372486,0.1479794979,-0.1215398535,-0.0300672390
9.3521280289,-0.0564130694,-0.0819130838,-0.0383205898,0.0578298904,-0.0725872293,-0.0501940809
9.3619003296,-0.0607315451,-0.0685292184,0.0030241739,-0.0180129167,-0.0670563057,-0.0767168328
9.3719511032,-0.0490319878,-0.0167568028,0.0333007127,-0.0593230724,-0.1006017476,-0.1213186532
9.3820829391,-0.0556200892,-0.0314147770,0.0509669334,-0.1241111532,-0.1319600195,-0.1245034710
9.3924217224,-0.0738788992,-0.0698972642,0.0493171364,-0.2368227839,-0.0683906153,-0.1509880573
9.4020414352,-0.0627275854,-0.0592442453,0.0177235138,-0.2519184947,-0.0537429005,-0.1626570523
9.4122180939,-0.0270162951,-0.0056428611,0.0128378998,-0.1895057410,-0.1052260697,-0.1680075973
9.4223031998,-0.0215775501,0.0063367188,0.0268624555,-0.1596569717,-0.1017824635,-0.1680130661
9.4326400757,-0.0160303246,0.0543281734,0.0031470191,-0.0914480910,-0.0927255824,-0.1722730547
9.4424123764,0.0002876385,0.0732933581,-0.0591307133,-0.0267424919,-0.0528660566,-0.1669597775
9.4525117874,0.0251145232,0.0118309557,-0.0968530029,-0.0534281619,-0.0507970452,-0.1393451840
9.4625463486,0.0536982268,-0.0261380970,-0.0947401971,-0.0804839358,-0.1187898815,-0.1160141006
9.4729557037,0.0549396127,-0.0201350152,-0.0660185665,-0.0456870757,-0.1820271760,-0.0969421417
9.4826707840,0.0219936837,0.0143444240,-0.0397754759,0.0355396308,-0.1929214299,-0.0863493532
9.4928140640,-0.0072865621,0.0191305578,0.0006302129,0.1098349020,-0.1507374942,-0.0629875734
9.5027770996,-0.0113064181,0.0183985531,0.0277782809,0.1716801077,-0.1448367238,-0.0545056723
9.5132207870,0.0034320815,0.0314212739,0.0243940484,0.2434834540,-0.1750228554,-0.0609097742
9.5229368210,0.0125546325,0.0143739879,0.0147446524,0.2393522263,-0.1900807023,-0.0863990933
9.5330715179,0.0041146143,-0.0476246774,0.0125363003,0.1506388783,-0.1771028489,-0.0927408785
9.5430784225,0.0035732253,-0.0498037636,-0.0196542013,0.0715077519,-0.1630543470,-0.1107662842
9.5534410477,0.0040497049,-0.0231768787,-0.0525709838,0.0209526997,-0.1243114695,-0.1224138811
9.5632305145,-0.0005543366,-0.0064348876,-0.0685559362,-0.0243468955,-0.0758362859,-0.1128201783
9.5733432770,-0.0035294429,0.0356836021,-0.0402390845,-0.0096659558,-0.0490837656,-0.0979453623
9.5833387375,-0.0029011504,0.0898234546,0.0096506011,0.0467332676,-0.0314471833,-0.0724680275
9.5937118530,-0.0211448204,0.0976336300,0.0383805186,0.1091820002,0.0224229731,-0.0310468171
9.6034717560,-0.0309995543,0.0765717328,0.0087669026,0.1691593677,0.1079116389,-0.0193404928
9.6136074066,-0.0048610107,0.0216523111,-0.0226545800,0.1488604844,0.1110283360,-0.0023449985
9.6236162186,0.0298570264,-0.0799976289,-0.0310463775,0.0221708305,0.0814103931,0.0189084914
9.6340122223,0.0541219562,-0.1034696400,-0.0703846067,-0.0766577497,0.0379510671,-0.0044476972
9.6437931061,0.0707387775,-0.0649779141,-0.0692269057,-0.1315554380,-0.0207490660,0.0167716388
9.6538858414,0.0668442696,-0.0207994878,-0.0887845606,-0.1595372707,0.0023229644,0.0125430711
9.6638870239,0.0627342314,0.0079006851,-0.0579346307,-0.1627061814,0.0002757257,0.0284709707
9.6742649078,0.0742239803,0.0406056941,-0.0356848687,-0.1358948052,-0.0121540464,0.0390759446
9.6842203140,0.0710689276,0.0697068274,-0.0051306952,-0.0639840290,-0.0517439321,0.0549650304
9.6940889359,0.0482281893,0.0983890593,0.0407962948,0.0450420566,-0.0676584542,0.0719181746
9.7042217255,0.0019147857,0.1090427935,0.0671515018,0.1634371430,-0.0613319762,0.0697670132
9.7144937515,-0.0434981138,0.0898327529,0.0686322600,0.2309701145,0.0145057943,0.0559843518
9.7243537903,-0.0566958934,0.0200721323,0.0323318392,0.2371587455,0.0368749499,0.0613054186
9.7343511581,-0.0445931703,-0.0760084689,0.0035607945,0.1358129382,0.0339989997,0.0815038979
9.7444591522,-0.0432150513,-0.1211505234,-0.0565107353,0.0031452077,0.0656253025,0.0645627975
9.7547712326,-0.0369845182,-0.1251152456,-0.1178561896,-0.1200502217,0.1111475155,0.0508134291
9.7646226883,-0.0171744954,-0.1130023301,-0.1510831565,-0.2411330193,0.1587962657,0.0349412523
9.7746210098,0.0161353815,-0.0564349592,-0.0976325721,-0.3201202452,0.1590497941,0.0169108547
9.7847461700,0.0457869023,0.0544692576,-0.0256773699,-0.2596110106,0.0841787457,0.0073013701
9.7950391769,0.0384480804,0.1133944094,0.0659825951,-0.1425019503,0.0079284525,0.0359021239
9.8048791885,-0.0198105108,0.0580757558,0.1401403099,-0.0615827106,0.0278098825,0.0475724936
9.8149309158,-0.0534768254,0.0622037947,0.1359123141,0.1056630015,0.0566447228,0.0146286590
9.8249979019,-0.0388426930,0.0939971507,0.0894935876,0.2904847860,0.0358037576,-0.0119743235
9.8353157043,-0.0396792442,-0.0122149885,0.0067012440,0.2567811608,0.0957911983,-0.0427279770
9.8451156616,-0.0297784340,-0.1160272062,-0.0799298137,0.1283015758,0.1359339505,-0.0607257523
9.8551425934,0.0094882119,-0.1143597662,-0.1170812100,0.0059232027,0.0997173637,-0.0808869451
9.8652887344,0.0245348085,-0.0722404420,-0.1187278479,-0.0617738739,0.0385540091,-0.0947040915
9.8755741119,-0.0054333345,-0.0651287735,-0.0397726744,-0.0967957750,0.0191691220,-0.0915194750
9.8854217529,-0.0509697944,-0.0269313157,0.0090260636,-0.0051853461,0.0358512290,-0.0968434736
9.8954200745,-0.0779849440,-0.0030060110,0.0476555973,0.0764924735,0.0853612572,-0.0989630818
9.9055318832,-0.0874054581,0.0005805792,0.0476454049,0.1409865618,0.1441267133,-0.1233724207
9.9158296585,-0.0634900481,-0.0046157539,0.0322175175,0.1355017871,0.1577346623,-0.1446002126
9.9256935120,-0.0257442128,-0.0011842548,0.0012502205,0.1122692972,0.1330556124,-0.1552229524
9.9356889725,-0.0025077001,0.0206037462,-0.0326487310,0.1050204337,0.1106746718,-0.1605412960
9.9457559586,0.0031185015,0.0287561715,-0.0510631055,0.0825378969,0.1179409102,-0.1552232802
9.9561347961,0.0135388840,0.0144681633,-0.0580718964,0.0355299115,0.1228219494,-0.1573325098
9.9659595490,0.0376112312,-0.0114878714,-0.0203851927,0.0115469750,0.0686821491,-0.1286837012
9.9761371613,0.0528092831,-0.0333963335,0.0184573662,0.0109474966,0.0243738052,-0.0883573145
9.9862060547,0.0406010002,0.0003321470,0.0205255281,0.0943119973,0.0135965245,-0.0629012138
9.9964828491,0.0184522141,-0.0005649029,0.0299486052,0.1336492896,0.0288300719,-0.0575946048
10.0061550140,0.0000436171,-0.0334652364,0.0421875864,0.0898100287,0.0381075926,-0.0405899212
10.0161771774,0.0021773442,-0.0217390358,0.0357477777,0.0716704428,0.0379699096,-0.0373999886
10.0262403488,-0.0074377195,0.0121563375,0.0055437218,0.0477408506,0.0823146701,-0.0394968949
10.0366563797,-0.0093931686,0.0547885597,-0.0191576350,0.0462747812,0.1215001568,-0.0490331389
10.0464468002,0.0022676452,0.0643038452,-0.0322564691,0.0206287261,0.1244178489,-0.0553958975
10.0564842224,0.0128171910,0.0270964801,-0.0184082855,-0.0465891920,0.1227765381,-0.0543178506
10.0664892197,0.0312864631,0.0130462945,0.0166064631,-0.0865714997,0.0662161931,-0.0500880890
10.0768566132,0.0382293314,0.0125953853,0.0343760401,-0.0645354390,-0.0013492687,-0.0267678499
10.0867910385,0.0138466228,-0.0013037621,0.0417056233,-0.0421795845,0.0053085010,-0.0119040823
10.0967655182,0.0001658663,-0.0034690795,0.0257241856,-0.0157650206,0.0321012326,-0.0065884124
10.1068496704,0.0157318581,-0.0035249291,-0.0016956795,0.0056643444,0.0250768121,0.0263168737
10.1171646118,0.0321024507,-0.0160408318,-0.0164065827,-0.0316356234,0.0205965769,0.0401274972
10.1270027161,0.0366549939,-0.0169317424,-0.0080189575,-0.0665377304,-0.0104104746,0.0507384576
10.1369771957,0.0304746497,0.0220920742,-0.0093675721,-0.0332799107,-0.0270144846,0.0634633079
10.1470918655,0.0055996045,0.0496713221,-0.0094758142,0.0114158662,-0.0138711184,0.0666448548
10.1574611664,-0.0232854616,0.0413953960,-0.0084648598,0.0292886049,0.0127847260,0.0624064319
10.1672286987,-0.0297258031,0.0224727690,0.0149545800,0.0281116758,0.0233154651,0.0517947339
10.1772966385,-0.0272556674,0.0063821971,0.0248295199,0.0325186737,0.0095597049,0.0517867468
10.1872615814,-0.0246930253,0.0195262134,0.0232162606,0.0752411857,0.0056477208,0.0454024151
10.1977558136,-0.0299399626,-0.0120858252,0.0041501652,0.0535188429,0.0425064042,0.0316229537
10.2075681686,-0.0175712239,-0.0566187203,-0.0240954626,0.0041878605,0.0653089806,0.0146580199
10.2175636292,0.0145194400,-0.0673173964,-0.0321028084,-0.0368490554,0.0065279622,0.0050828904
10.2276706696,0.0233681668,-0.0655711591,-0.0236405004,-0.0782146603,-0.0193767399,-0.0065983995
10.2379932404,-0.0048251287,-0.0553741157,-0.0214818586,-0.1074228808,0.0184084587,-0.0309934877
10.2478342056,-0.0251696240,-0.0337231457,-0.0401410311,-0.1067534909,0.0576406159,-0.0362833925
10.2579212189,-0.0232598912,-0.0255591571,-0.0296758283,-0.1132995486,0.0725148991,-0.0245945100
10.2679672241,-0.0224150550,-0.0076981485,-0.0165207256,-0.1262896359,0.0904199928,-0.0277683344
10.2782402039,-0.0186842214,0.0541324914,0.0153523814,-0.0493035167,0.0762855336,-0.0203623492
10.2880849838,-0.0258069765,0.0969119966,0.0449208170,0.0412924588,0.0888103172,-0.0108220400
10.2980957031,-0.0340417176,0.0778406560,0.0479071885,0.1210916787,0.1140371114,0.0082826782
