0.0000000000,0.0030564775,-0.0236025024,-0.0325716920,0.0233193301,-0.0270881038,-0.0267332122
0.0097249746,0.0074515152,-0.0294365454,-0.0313770957,0.0075414320,-0.0506392345,-0.0373589583
0.0197980404,0.0051687169,-0.0256030131,-0.0224560685,-0.0041048378,-0.0603392646,-0.0447934382
0.0300300121,-0.0000192415,-0.0159880091,-0.0097170658,-0.0040896311,-0.0635234043,-0.0458626300
0.0401189327,-0.0002769571,-0.0151993809,-0.0048165508,-0.0285963323,-0.0668942332,-0.0416097641
0.0501819849,-0.0035376141,-0.0106400428,0.0037683065,-0.0531685203,-0.0638771430,-0.0341694243
0.0602380037,-0.0078723915,-0.0119924126,0.0112203173,-0.0533380024,-0.0468587428,-0.0277908854
0.0714910030,-0.0065097404,-0.0005998786,0.0129345469,-0.0248110220,-0.0179322883,-0.0235364866
0.0805920362,-0.0073289168,0.0128981294,0.0118592791,0.0069128727,0.0121236155,-0.0129104732
0.0906089544,-0.0064694774,0.0188815426,0.0255778842,0.0270162765,0.0304554850,0.0051441607
0.1005959511,-0.0028866569,0.0297748875,0.0305651836,0.0332233049,0.0507321283,0.0147095695
0.1104429960,-0.0023776034,0.0232466888,0.0278439336,0.0468855873,0.0721079931,0.0200257711
0.1204489470,0.0009273399,0.0255003404,0.0212331824,0.0468547754,0.0753332824,0.0263974499
0.1308009624,0.0022759249,0.0170173477,0.0155412965,0.0309213512,0.0677525923,0.0242741127
0.1408020258,0.0057661342,-0.0071212826,0.0001004749,0.0268571265,0.0463987663,0.0093988264
0.1508519650,0.0134442560,-0.0196553636,-0.0182088800,0.0271356925,0.0176339634,-0.0086661940
0.1609939337,0.0194835477,-0.0215882827,-0.0394545980,0.0103949029,-0.0165712796,-0.0246058777
0.1710610390,0.0263360254,-0.0424950905,-0.0740365535,-0.0064527877,-0.0401663519,-0.0405403711
0.1811829805,0.0246300511,-0.0443494506,-0.0675224215,-0.0191086587,-0.0551751293,-0.0469141118
0.1911009550,0.0160973333,-0.0359400101,-0.0427237935,-0.0340612456,-0.0542723164,-0.0511570610
0.2012490034,0.0030649414,-0.0335003324,-0.0198459812,-0.0415903218,-0.0478949808,-0.0394725725
0.2113059759,-0.0034674893,-0.0322181173,-0.0162953325,-0.0544352829,-0.0437212735,-0.0330964327
0.2213970423,-0.0029617141,-0.0277851988,0.0027558617,-0.0449998081,-0.0266335011,-0.0288432352
0.2314280272,-0.0030946026,-0.0204206277,0.0044708662,-0.0451105945,-0.0148793738,-0.0160957463
0.2416050434,-0.0041033966,0.0027265374,0.0054404549,-0.0483535007,-0.0106565980,-0.0150308143
0.2515469790,0.0021844169,0.0147044482,0.0097476058,-0.0349631235,-0.0677142963,0.0040496681
0.2616109848,0.0369340293,0.0420415215,0.0202101283,-0.0260894187,-0.4126959145,0.1355379224
0.2717109919,0.1767401844,0.0812705606,0.0500989966,0.0034482330,-0.3796961308,0.1121873185
0.2817889452,0.1189485416,0.0628612489,0.0567950420,0.0299873278,-0.0486664288,0.0719987527
0.2918030024,-0.0205377229,0.0208397936,0.0165237002,0.0352523960,0.0613460913,0.0125916237
0.3019169569,-0.0029345194,0.0076846303,-0.0113038011,0.0493534878,0.0392698832,0.0253180042
0.3121329546,-0.0009098690,-0.0033112939,-0.0204026289,0.0665995851,0.0212642495,0.0072540501
0.3220529556,0.0034455468,-0.0165334512,-0.0297169872,0.0389978103,0.0060631265,-0.0086726518
0.3321689367,0.0017560829,-0.0182479192,-0.0306517072,-0.0013794387,-0.0124250697,-0.0235368200
0.3421969414,0.0024838259,-0.0223169494,-0.0288944431,-0.0269425344,-0.0179874822,-0.0288430341
0.3522410393,-0.0104521997,-0.0194849540,-0.0228693672,-0.0440916941,-0.0107165193,-0.0298968460
0.3623329401,-0.0255747624,-0.0149933873,-0.0113101192,-0.0462629944,-0.0064362204,-0.0213992987
0.3723839521,-0.0277679153,-0.0102054058,-0.0062052198,-0.0506236590,0.0031239954,-0.0139608243
0.3824329376,-0.0240389891,-0.0082975803,-0.0019874759,-0.0484886281,0.0031850482,-0.0075914082
0.3925180435,-0.0145846196,-0.0040235696,-0.0127911754,-0.0206543319,-0.0050121616,-0.0001699774
0.4025900364,-0.0142398961,0.0085449042,-0.0191322751,0.0029244963,-0.0143014006,0.0083144540
0.4126030207,-0.0050475192,0.0163416695,-0.0204471536,0.0286138803,-0.0214562491,0.0157369506
0.4227570295,-0.0009492229,0.0213213991,-0.0188118406,0.0509617180,-0.0148454169,0.0231665708
0.4328370094,-0.0036837051,0.0289739799,-0.0029862113,0.0412659459,-0.0053248834,0.0316681787
0.4428709745,-0.0042747152,0.0254643392,0.0113216452,0.0432744212,0.0074250670,0.0316747725
0.4529379606,-0.0047573042,0.0188656282,0.0118495040,0.0635610521,0.0065480880,0.0327309817
0.4629869461,-0.0062934351,0.0199701618,-0.0052663274,0.0625227094,0.0033070876,0.0252972320
0.4730499983,-0.0060087335,-0.0069496213,-0.0182459541,0.0615583807,-0.0073607368,0.0178595558
0.4831199646,0.0033246686,-0.0232460070,-0.0273487754,0.0501143001,-0.0372126400,0.0114764925
0.4933019876,0.0057902741,-0.0299139787,-0.0385508724,0.0374664143,-0.0532672405,0.0072244890
0.5033029318,-0.0025421570,-0.0405522175,-0.0440894552,0.0279020444,-0.0576368235,0.0008540746
0.5133370161,-0.0108267702,-0.0378755517,-0.0286852904,0.0076883859,-0.0642076433,-0.0033912705
0.5234459639,-0.0142561980,-0.0286111403,-0.0155582614,-0.0041665426,-0.0526678301,-0.0076286932
0.5334700346,-0.0265591480,-0.0203347970,-0.0005780644,-0.0277637504,-0.0412434042,-0.0139877889
0.5436090231,-0.0260687061,-0.0081360517,0.0087125115,-0.0545399711,-0.0319052935,-0.0107922619
0.5536079407,-0.0179690011,-0.0024694975,0.0154048018,-0.0846619159,-0.0077285850,-0.0054635424
0.5637409687,-0.0210008509,0.0043727579,0.0154022984,-0.0859112591,0.0102995504,-0.0054546213
0.5737439394,-0.0154050775,0.0182411503,0.0156402402,-0.0721062347,0.0179377627,0.0083490759
0.5838170052,-0.0107531436,0.0284913015,0.0123678260,-0.0401735194,0.0278607681,0.0232137088
0.5939419270,-0.0070304465,0.0279838871,0.0003367477,-0.0060536321,0.0313905217,0.0306394007
0.6040350199,-0.0022928158,0.0225384664,-0.0117829032,0.0227647014,0.0306184702,0.0359380245
0.6140229702,-0.0042128307,0.0150864543,-0.0093546100,0.0590800978,0.0277662240,0.0380509794
0.6241489649,-0.0050590527,0.0066062035,-0.0166772790,0.0826943964,0.0141501473,0.0337913856
0.6342250109,-0.0010430705,-0.0096949516,-0.0259776302,0.0807369724,-0.0039609447,0.0252884440
0.6442190409,-0.0006748032,-0.0271133948,-0.0276071019,0.0617150292,-0.0233315807,0.0093575483
0.6542669535,0.0027864387,-0.0282514263,-0.0305191465,0.0246813782,-0.0555363894,0.0019182737
0.6643979549,0.0043794620,-0.0364076085,-0.0278386660,-0.0072748233,-0.0622509457,-0.0086952886
0.6745449305,-0.0047387672,-0.0464804359,-0.0134964176,-0.0157303605,-0.0708620176,-0.0161300357
0.6845129728,-0.0050675166,-0.0311814118,-0.0126154609,-0.0189414397,-0.0698364303,-0.0171899740
0.6945619583,-0.0083496161,-0.0236051846,-0.0116844960,-0.0179803073,-0.0592101514,-0.0161231123
0.7046619654,-0.0117529370,-0.0178691912,-0.0019137448,-0.0308927223,-0.0487189628,-0.0171763245
0.7147139311,-0.0045101685,-0.0100907264,-0.0007572359,-0.0522864275,-0.0435726680,-0.0129211256
0.7247580290,-0.0013900887,0.0016199772,0.0012937003,-0.0610299297,-0.0223441459,-0.0001666484
0.7348549366,-0.0082824714,0.0143887224,0.0082020573,-0.0483303815,-0.0116153359,0.0008972844
0.7448869944,-0.0025994221,0.0204709601,0.0104313903,-0.0228732787,0.0045640329,0.0072706281
0.7549829483,-0.0057316911,0.0178559851,0.0078304820,-0.0112392595,0.0153042953,0.0115202339
0.7650380135,-0.0078476258,0.0141848745,0.0051656775,-0.0016525984,0.0164374039,0.0093927020
0.7752610445,-0.0020832310,0.0056677284,0.0064455085,0.0164236072,0.0229480341,0.0072677657
0.7853310108,-0.0069865477,-0.0048341332,0.0008988195,0.0388347208,0.0231148154,0.0030162286
0.7952560186,-0.0079529323,-0.0133464513,-0.0113761611,0.0571085326,0.0094040623,-0.0086750491
0.8053599596,-0.0008577894,-0.0180259515,-0.0284687467,0.0637287199,-0.0129326684,-0.0256758705
0.8153499365,0.0046401429,-0.0287644435,-0.0418142267,0.0405570939,-0.0439553000,-0.0331180729
0.8254170418,0.0033170541,-0.0396101065,-0.0339665599,0.0150082167,-0.0505871028,-0.0394851565
0.8370779753,-0.0019132983,-0.0475250669,-0.0183601566,0.0277743451,-0.0461896919,-0.0331154093
0.8459600210,-0.0091237165,-0.0359262414,-0.0075629540,0.0276757292,-0.0366539098,-0.0352348201
0.8557089567,-0.0155485459,-0.0272225905,0.0070709400,0.0062575224,-0.0294271577,-0.0373493694
0.8657419682,-0.0071962965,-0.0234615374,0.0081060342,-0.0087088570,-0.0274693333,-0.0426545218
0.8757920265,-0.0037416408,-0.0060388623,0.0072419457,-0.0141270589,-0.0189932901,-0.0373399183
0.8858599663,-0.0072670621,0.0163453054,0.0015541130,-0.0291281380,-0.0127658220,-0.0383936651
0.8959410191,-0.0050783646,0.0262297224,0.0037824921,-0.0312890261,-0.0095322113,-0.0277735069
0.9060009718,-0.0000837188,0.0361156873,0.0001761728,-0.0249760821,0.0001488449,-0.0160904210
0.9160879850,0.0018478591,0.0295083355,0.0024086647,-0.0132632349,0.0035174773,-0.0033501247
0.9261410236,-0.0011307340,0.0141323628,0.0016714149,0.0069632069,0.0090549886,0.0051418971
0.9361879826,0.0018027682,0.0045552077,-0.0039140172,0.0346456990,0.0156772044,0.0072617731
0.9462609291,0.0016780008,-0.0029284533,-0.0113233514,0.0602312461,0.0180101991,0.0051317103
0.9565969706,0.0006724853,-0.0026825245,-0.0206974335,0.0560868382,0.0051924060,-0.0023062320
0.9665349722,0.0038103124,-0.0113320528,-0.0243268795,0.0464851819,0.0039365925,-0.0192930717
0.9764969349,0.0041559893,-0.0181857515,-0.0358918495,0.0317014419,-0.0121574225,-0.0267299488
0.9865720272,0.0036214252,-0.0242132712,-0.0388727374,0.0029369332,-0.0177904740,-0.0384050459
0.9968240261,-0.0038072953,-0.0303201247,-0.0245440789,-0.0216597561,-0.0126929171,-0.0373344570
1.0066950321,-0.0151556171,-0.0141295968,-0.0113073774,-0.0387494490,-0.0117935017,-0.0394546688
1.0166980028,-0.0206719078,-0.0174132753,0.0019094163,-0.0664750859,-0.0141786281,-0.0426342152
1.0268379450,-0.0114987381,-0.0100909052,0.0053210072,-0.0835775807,-0.0111388965,-0.0415654890
1.0370910168,-0.0091703422,0.0039991559,0.0018603617,-0.0974683613,-0.0090965182,-0.0351901464
1.0469950438,-0.0040129614,0.0228973459,-0.0046408363,-0.1219889969,-0.0113767171,-0.0266914666
1.0570199490,0.0020357480,0.0224168133,-0.0071356483,-0.1167327166,-0.0027659184,-0.0150087113
1.0671459436,-0.0029073397,0.0300273728,0.0032527260,-0.0507288799,0.0148832500,-0.0001497374
1.0773669481,-0.0099821575,0.0467457585,0.0072362237,0.0089142118,0.0282896012,0.0232013911
1.0872429609,-0.0093434043,0.0509549789,0.0056043677,0.0471920408,0.0436035767,0.0423119701
1.0972989798,-0.0078432150,0.0290565323,0.0051306896,0.0663944930,0.0448946767,0.0518639274
1.1073720455,-0.0005050342,0.0169207882,-0.0069381185,0.0889273882,0.0323529206,0.0507886782
1.1176539660,0.0069865244,0.0028749530,-0.0227822252,0.0997201204,0.0196310002,0.0380379967
1.1275579929,0.0087781660,-0.0043972312,-0.0347675867,0.0967179164,-0.0006402498,0.0252881777
1.1375609636,0.0087755434,-0.0127483187,-0.0419601388,0.0628211945,-0.0264579989,0.0167894978
1.1476069689,0.0089711957,-0.0223568846,-0.0349039622,0.0234738998,-0.0406521149,0.0082988078
1.1579539776,0.0044692266,-0.0303307939,-0.0272405334,-0.0073886747,-0.0494243018,0.0061786659
1.1677399874,-0.0000484328,-0.0316271372,-0.0158987232,-0.0266815200,-0.0410900712,0.0083111916
1.1778429747,-0.0124874897,-0.0203280021,-0.0066344924,-0.0513240173,-0.0317900442,0.0030130993
1.1879060268,-0.0123679824,-0.0109961806,0.0044874959,-0.0866486877,-0.0214581136,0.0072726253
1.1982749701,-0.0074964059,-0.0065903245,0.0106600337,-0.1187994331,-0.0079239281,0.0104729459
1.2080290318,-0.0066767079,0.0075034918,0.0137717538,-0.1231326908,-0.0004736688,0.0200357586
1.2181689739,-0.0030660669,0.0217254590,0.0092497878,-0.1073558554,0.0230636150,0.0285379011
1.2281429768,-0.0045629037,0.0322968177,0.0088271908,-0.0478107743,0.0448416136,0.0338413194
1.2384819984,-0.0052484465,0.0266688298,0.0136854462,-0.0063253818,0.0590743460,0.0455176830
1.2482969761,-0.0099402554,0.0376751237,0.0118211322,0.0085227005,0.0688377544,0.0582595766
1.2584539652,-0.0096940286,0.0311582517,0.0012448841,0.0277981274,0.0626810640,0.0646224022
1.2684409618,-0.0044968170,0.0159916114,-0.0071904846,0.0716526657,0.0523978025,0.0561117344
1.2787610292,-0.0010934662,0.0038493697,-0.0212309547,0.0974278003,0.0355623625,0.0433551930
1.2885659933,0.0025537123,-0.0160877276,-0.0332539268,0.0902530625,0.0056763021,0.0263552405
1.2987040281,0.0055294591,-0.0284001995,-0.0414891429,0.0713568702,-0.0264185164,0.0114788227
1.3087199926,0.0096800141,-0.0301791001,-0.0353212543,0.0341960788,-0.0458773039,0.0061694114
1.3190050125,0.0060629952,-0.0282660294,-0.0167969652,0.0011545066,-0.0504518151,-0.0001952775
1.3288559914,-0.0033145586,-0.0343257971,-0.0033835359,-0.0213166606,-0.0442895256,-0.0012472263
1.3389190435,-0.0058946651,-0.0307329465,0.0108969025,-0.0459687412,-0.0339146517,-0.0044211810
1.3489929438,-0.0105305798,-0.0175399948,0.0142913871,-0.0748915747,-0.0235264562,-0.0001635858
1.3593020439,-0.0064939004,-0.0140793500,0.0088985376,-0.0857881680,-0.0013593696,-0.0033351441
1.3691170216,-0.0036252479,-0.0094552217,0.0172586255,-0.0720007494,0.0083568403,0.0041012671
1.3792679310,-0.0009172003,0.0186089706,0.0159712844,-0.0689969659,0.0286061857,0.0136668086
1.3892489672,0.0035665145,0.0291560125,0.0088033490,-0.0680798814,0.0435125642,0.0200433489
1.3995629549,0.0030144861,0.0242217612,0.0084698014,-0.0404352024,0.0544411130,0.0317215770
1.4094070196,0.0004653294,0.0281020235,0.0023768956,-0.0233469233,0.0535706542,0.0380877294
1.4195239544,0.0037973633,0.0164618921,-0.0094518848,-0.0019393675,0.0474049039,0.0402028114
1.4295209646,0.0023664793,0.0058450522,-0.0240798779,0.0194761492,0.0401506573,0.0380699523
1.4398750067,0.0029478481,-0.0066105900,-0.0346623845,0.0249465480,0.0263557471,0.0306290817
1.4497009516,0.0026602705,-0.0248833466,-0.0296234079,0.0346744359,0.0136094596,0.0157562587
1.4597580433,0.0026035120,-0.0296726394,-0.0285474248,0.0209674127,-0.0035500859,0.0061949776
1.4697990417,0.0026187559,-0.0326145478,-0.0208108611,0.0049780058,-0.0058461307,0.0008884960
1.4800800085,-0.0070857746,-0.0327013917,-0.0131828971,-0.0003384622,-0.0080424398,-0.0033584470
1.4899289608,-0.0099044181,-0.0231201220,-0.0045923181,-0.0153334709,-0.0028956810,-0.0075991978
1.4999979734,-0.0078576989,-0.0174874235,0.0029216819,-0.0453132093,0.0063369661,-0.0160813667
1.5100660324,-0.0096969940,-0.0187910963,0.0044476800,-0.0784951299,0.0155561641,-0.0224397965
1.5203590393,-0.0056665433,-0.0133561669,0.0049291663,-0.0826805532,0.0070031555,-0.0266902018
1.5302070379,-0.0006520938,0.0018673365,0.0035128407,-0.0751963779,0.0060843653,-0.0150135718
1.5402820110,0.0022820791,0.0201052260,0.0031635575,-0.0561126992,0.0190257300,-0.0086411592
1.5503399372,0.0030856242,0.0141391577,0.0029124431,-0.0445134342,0.0340498872,0.0019830551
1.5606319904,0.0018085350,0.0180194210,0.0124579482,-0.0201015677,0.0481404066,0.0147254821
1.5706349611,-0.0005098324,0.0190213751,0.0084651522,0.0022862693,0.0505081564,0.0221520383
1.5805729628,0.0000901778,0.0182139110,-0.0031054206,0.0386650488,0.0412829667,0.0231999923
1.5906529427,0.0007824410,0.0087765278,-0.0202859826,0.0548107810,0.0275940504,0.0178811271
1.6009069681,0.0015823055,-0.0083974181,-0.0286187120,0.0517643914,0.0115887197,0.0083177164
1.6107839346,0.0054878402,-0.0227254797,-0.0321093984,0.0498134159,-0.0076032174,-0.0033720960
1.6208219528,0.0046641934,-0.0293777753,-0.0259850807,0.0317744948,-0.0184271019,-0.0118673127
1.6308859587,0.0019225586,-0.0312919207,-0.0161580034,0.0008605458,-0.0219020620,-0.0150457295
1.6411819458,-0.0086162575,-0.0314819999,-0.0037383027,-0.0236935318,-0.0210485198,-0.0139772687
1.6510499716,-0.0132858939,-0.0249527264,0.0037066750,-0.0419105925,-0.0137794875,-0.0139694791
1.6610900164,-0.0130316503,-0.0185610224,0.0061386637,-0.0664811805,-0.0119411070,-0.0245803129
1.6711330414,-0.0049061817,-0.0141660152,0.0037061982,-0.0761175677,-0.0088703493,-0.0288228597
1.6814570427,-0.0026657323,-0.0029373940,-0.0026424115,-0.0857526138,-0.0057573803,-0.0266952608
1.6913119555,-0.0044409824,0.0170877408,-0.0002379603,-0.0858080387,-0.0004729365,-0.0298782066
1.7013739347,-0.0043744785,0.0225934219,0.0080445819,-0.0678761750,0.0209540576,-0.0224394649
1.7115069628,-0.0064714891,0.0282741021,0.0213560276,-0.0360129699,0.0372450799,-0.0075736321
1.7217299938,-0.0067194593,0.0272685718,0.0250775032,-0.0094977394,0.0545510985,0.0072934651
1.7316340208,-0.0080173798,0.0205262136,0.0192192607,0.0183444396,0.0452867635,0.0136517622
1.7415909767,0.0015528608,0.0119631710,0.0019688422,0.0505084991,0.0307261944,0.0157599207
1.7517609596,0.0053191739,0.0035445516,-0.0228547640,0.0741748661,0.0117770713,0.0072507877
1.7619769573,0.0043594348,-0.0144856749,-0.0328712054,0.0893010870,-0.0072597368,-0.0033805510
1.7718520164,0.0065440345,-0.0218519140,-0.0350886174,0.0757053569,-0.0349598713,-0.0023293351
1.7819010019,0.0039231139,-0.0206517149,-0.0249154754,0.0416152999,-0.0417003334,-0.0140038347
1.7919600010,-0.0025828222,-0.0351481624,-0.0052406974,0.0298593864,-0.0396537594,-0.0097520305
1.8023509979,-0.0061669094,-0.0273730922,0.0074999146,0.0223692469,-0.0375831537,-0.0076254969
1.8121099472,-0.0087858327,-0.0216340590,0.0094162039,-0.0097118309,-0.0315098166,-0.0097387154
1.8221700191,-0.0095592923,-0.0189440418,0.0159808807,-0.0461774319,-0.0138173709,-0.0139678149
1.8322589397,-0.0034983049,-0.0163515378,0.0107524209,-0.0676034689,-0.0055377358,-0.0171424374
1.8425769806,-0.0004437160,-0.0031027372,0.0073694997,-0.0773578286,0.0092185736,-0.0192561876
1.8523529768,-0.0004550408,0.0140691223,0.0097865872,-0.0721609890,0.0230939090,-0.0139426477
1.8624459505,0.0082581155,0.0235508513,0.0084520392,-0.0434209518,0.0308002979,-0.0096989004
1.8725140095,0.0090294145,0.0321895890,0.0072185807,-0.0253776871,0.0416582078,0.0041059274
1.8828040361,0.0038435569,0.0311316084,0.0030888133,-0.0137095815,0.0492431559,0.0126011446
1.8926470280,0.0015294958,0.0214475822,0.0000685268,0.0076808226,0.0452334993,0.0200268365
1.9027209282,0.0041327435,0.0127969207,-0.0086410828,0.0205689240,0.0368227027,0.0147103686
1.9127880335,0.0019435842,-0.0036135491,-0.0192210861,0.0250104647,0.0187902395,0.0093893064
1.9230890274,0.0038385352,-0.0161557365,-0.0268536992,0.0166678466,-0.0015472560,-0.0065457183
1.9329420328,0.0050477493,-0.0230353046,-0.0307179280,-0.0022660047,-0.0293784868,-0.0182333998
1.9429650307,0.0074183303,-0.0299995113,-0.0287915654,-0.0052831005,-0.0486014523,-0.0331074223
1.9530229568,0.0030317118,-0.0320996828,-0.0181315131,-0.0031204531,-0.0517574325,-0.0320492126
1.9633619785,-0.0042574001,-0.0186273027,-0.0035879798,-0.0116585484,-0.0518458486,-0.0341706872
1.9732019901,-0.0076523763,-0.0140166460,0.0098588280,-0.0448221490,-0.0436477065,-0.0341572389
1.9834109545,-0.0081462003,-0.0105156479,0.0133939795,-0.0619276315,-0.0406069085,-0.0330895782
1.9936109781,-0.0028326551,0.0007986252,0.0120971017,-0.0535351038,-0.0256230310,-0.0245897006
2.0036189556,-0.0025840292,0.0180517267,0.0079402141,-0.0483331531,-0.0117210634,-0.0150278853
2.0134639740,0.0014268268,0.0178996157,0.0068093948,-0.0409866124,0.0011244274,-0.0075904764
2.0236639977,0.0071649957,0.0188858937,0.0116324238,-0.0071127973,0.0290434100,-0.0022761384
2.0338349342,0.0009561885,0.0268828105,0.0214817338,0.0300429333,0.0496110059,0.0104670878
2.0440750122,0.0025021990,0.0388356857,0.0168334059,0.0470775776,0.0540456995,0.0168357696
2.0536839962,0.0021254828,0.0274404716,0.0025263841,0.0578437522,0.0446044579,0.0189511850
2.0636780262,0.0057124454,0.0122223916,-0.0087652989,0.0633194745,0.0308787934,0.0221283361
2.0738978386,0.0035459062,-0.0049889861,-0.0268550701,0.0613413602,0.0148752611,0.0115034571
2.0841999054,0.0035358926,-0.0222571660,-0.0371829458,0.0487877503,-0.0107491426,0.0040612528
2.0940330029,0.0037036201,-0.0396439619,-0.0446860380,0.0265486781,-0.0290706940,-0.0097469045
2.1040439606,0.0010605712,-0.0386611409,-0.0367804356,0.0042843856,-0.0441689529,-0.0171813834
2.1141901016,0.0014817376,-0.0252179671,-0.0193988271,-0.0202050041,-0.0497386232,-0.0246087406
2.1244659424,-0.0029494653,-0.0177628566,-0.0060913153,-0.0426354781,-0.0478054322,-0.0235402808
2.1342759132,-0.0113708265,-0.0074551878,0.0109619908,-0.0652913153,-0.0235976968,-0.0235228390
2.1443829536,-0.0111011453,-0.0039712368,0.0211651735,-0.0706796795,-0.0183323622,-0.0224570408
2.1544399261,-0.0079278536,-0.0004655298,0.0158957653,-0.0633263513,-0.0065607224,-0.0171447676
2.1647360325,-0.0078634806,0.0119696083,0.0156122260,-0.0442293510,0.0053542596,-0.0054638754
2.1746029854,-0.0040035141,0.0236095022,0.0038873963,-0.0122956028,0.0141983517,0.0062119551
2.1846728325,0.0075012255,0.0258077215,0.0061183982,0.0312995464,0.0305301864,0.0115180369
2.1947331429,0.0012843717,0.0310459565,0.0045251660,0.0514828153,0.0403119102,0.0200119894
2.2050118446,0.0028523763,0.0314362459,0.0039480142,0.0546730161,0.0413939506,0.0189499203
2.2148509026,0.0093630068,0.0181559753,0.0023742728,0.0589307174,0.0424851850,0.0178877190
2.2248048782,0.0061445641,0.0116417231,-0.0041467138,0.0590356477,0.0318543762,0.0146969864
2.2348229885,0.0059926617,-0.0056215702,-0.0106373616,0.0411144383,0.0093663782,0.0072577121
2.2450981140,0.0099627785,-0.0191750098,-0.0230975337,0.0220504664,-0.0057177665,-0.0023011719
2.2553329468,0.0102216564,-0.0279572774,-0.0317698903,0.0041922405,-0.0345714502,-0.0097439755
2.2652299404,0.0096105598,-0.0310121346,-0.0366563983,-0.0105930977,-0.0506862402,-0.0203662589
2.2753081322,0.0080900900,-0.0331123061,-0.0279333778,-0.0021127937,-0.0442268737,-0.0171777904
2.2855880260,-0.0033151398,-0.0156679321,-0.0124217458,0.0010055015,-0.0356831886,-0.0129271187
2.2954721451,-0.0129235424,-0.0098848520,0.0069677643,-0.0193780679,-0.0252212267,-0.0086708544
2.3055138588,-0.0078909732,-0.0071532903,0.0184056573,-0.0482517928,-0.0190722551,-0.0033514560
2.3155889511,-0.0088549592,0.0012775485,0.0189335160,-0.0688040182,0.0083366670,-0.0033324815
2.3258881569,-0.0109477825,0.0097413482,0.0155361108,-0.0603591353,0.0180087350,0.0041027982
2.3357100487,-0.0043165279,0.0212372970,0.0132614188,-0.0475707948,0.0202909317,0.0115334168
2.3457288742,0.0003242899,0.0250316691,0.0091391616,-0.0390417539,0.0214611236,0.0168408304
2.3558490276,-0.0039235544,0.0259767007,0.0050635152,-0.0241626203,0.0279849377,0.0210879073
2.3661429882,0.0016375590,0.0260196757,0.0020750577,0.0036045611,0.0261122026,0.0221417192
2.3760030270,0.0043268460,0.0202779006,-0.0075589009,0.0249577872,0.0252376199,0.0221358612
2.3860158920,0.0031128039,0.0117115201,-0.0171171613,0.0443051197,0.0116192792,0.0231859460
2.3960480690,0.0029332896,-0.0055158911,-0.0187156983,0.0497571714,0.0000022380,0.0242400914
2.4064078331,0.0018831600,-0.0140083609,-0.0212878175,0.0530597568,-0.0106490748,0.0136159426
2.4162340164,0.0009898652,-0.0225315858,-0.0218674727,0.0489339866,-0.0256234966,0.0008679230
2.4262700081,0.0031905284,-0.0330635495,-0.0215211101,0.0320154577,-0.0417430811,-0.0076302239
2.4363689423,0.0074951011,-0.0359227844,-0.0144517608,0.0182257947,-0.0504084043,-0.0161247086
2.4466929436,0.0029829403,-0.0174206067,-0.0036388822,0.0149381226,-0.0419621877,-0.0182432532
2.4564490318,-0.0025143067,-0.0077448068,0.0032360367,-0.0085612908,-0.0400519073,-0.0192983970
2.4665961266,-0.0001863729,-0.0030196484,0.0109634213,-0.0310162678,-0.0360382572,-0.0245996863
2.4766049385,-0.0008429777,-0.0061391769,0.0088741593,-0.0364012048,-0.0306958873,-0.0118549298
2.4869160652,-0.0045445752,0.0063084187,0.0028458647,-0.0311236195,-0.0242070947,-0.0001732399
2.4967329502,-0.0035165290,0.0111324610,0.0037680082,-0.0110120652,-0.0070135938,0.0062022344
2.5068709850,0.0002493669,0.0093458118,0.0097584538,0.0144216558,0.0112956390,0.0136375139
2.5168828964,-0.0000995289,0.0183499884,0.0147917680,0.0153221237,0.0283650365,0.0263864659
2.5272319317,0.0004506815,0.0194890331,0.0138978772,0.0162726045,0.0400523171,0.0274538603
2.5370178223,-0.0019480031,0.0167296957,0.0080804043,0.0194102358,0.0464533605,0.0285179280
2.5471439362,0.0015262474,0.0149081768,0.0003214889,0.0183729343,0.0432333313,0.0242693871
2.5571360588,0.0031139960,0.0033485715,-0.0083832927,0.0248794891,0.0326161720,0.0147069730
2.5675120354,0.0058766115,-0.0101736365,-0.0199436732,0.0186317135,0.0165828783,0.0051443605
2.5772869587,0.0078616254,-0.0179466773,-0.0335051008,0.0092243636,-0.0037078785,-0.0022966447
2.5874218941,0.0041641700,-0.0335892029,-0.0393331237,-0.0054464582,-0.0315283239,-0.0182338003
2.5974121094,0.0035885682,-0.0415275879,-0.0335571356,-0.0181467254,-0.0423137918,-0.0277908854
2.6077361107,-0.0027910362,-0.0369066186,-0.0230280347,-0.0245526936,-0.0424112678,-0.0341600999
2.6175639629,-0.0130860396,-0.0302587915,0.0001984650,-0.0160589945,-0.0380995423,-0.0352219716
2.6276140213,-0.0117197521,-0.0138921915,0.0175778084,-0.0237648506,-0.0148434862,-0.0383937955
2.6376781464,-0.0133622922,0.0013460938,0.0240344815,-0.0633085370,-0.0087455139,-0.0267015863
2.6480140686,-0.0082870461,0.0038628404,0.0225897841,-0.0698796213,0.0082023107,-0.0224442575
2.6578209400,-0.0062919450,0.0093993964,0.0192603879,-0.0475911163,0.0211988688,-0.0118249692
2.6679589748,-0.0005246591,0.0200188588,0.0123221688,-0.0092655635,0.0311457757,-0.0022735416
2.6779518127,0.0051321792,0.0143303694,0.0017821604,0.0184829757,0.0314296708,0.0040903478
2.6883058548,0.0039105671,0.0165253114,-0.0028286166,0.0344835147,0.0326858833,0.0125813046
2.6980969906,0.0056334245,0.0177715253,-0.0064238496,0.0452414900,0.0242976565,0.0136365155
2.7082059383,0.0083962791,0.0180238914,-0.0109933205,0.0453362986,0.0147347786,0.0115081174
2.7182300091,0.0093224160,0.0114164175,-0.0116895624,0.0400823317,0.0061516101,0.0040726378
2.7285819054,0.0073959040,-0.0039623557,-0.0123794265,0.0412618443,-0.0055724243,-0.0054897084
2.7383670807,0.0046482789,-0.0106744347,-0.0209087320,0.0338933058,-0.0163098890,-0.0150495237
2.7484741211,0.0020458808,-0.0232954789,-0.0304342695,0.0191106312,-0.0323900580,-0.0203627963
2.7585010529,0.0004931946,-0.0388989635,-0.0322419591,-0.0011283290,-0.0368658975,-0.0288549513
2.7688670158,-0.0049946797,-0.0302962232,-0.0255360790,-0.0257644318,-0.0274827834,-0.0214114171
2.7786440849,-0.0106321014,-0.0177980829,-0.0033230372,-0.0099712210,-0.0061440044,-0.0245898329
2.7887821198,-0.0134523697,-0.0169389416,0.0120779090,-0.0250351280,0.0065060100,-0.0171470959
2.7987718582,-0.0114822127,-0.0025398310,0.0205278806,-0.0454517975,0.0201087035,-0.0192593168
2.8091368675,-0.0114950128,0.0078320326,0.0142439418,-0.0539739095,0.0190285258,-0.0107632997
2.8189229965,-0.0046846760,0.0124403657,0.0080484562,-0.0422667377,0.0223209262,-0.0097027626
2.8290538788,0.0001787354,0.0180959534,-0.0009473747,-0.0304425694,0.0139423544,-0.0086481506
2.8390479088,0.0060240733,0.0238663387,-0.0058794804,-0.0229242500,0.0098042022,-0.0022803992
2.8494191170,0.0099040978,0.0277808737,-0.0078169890,0.0048445296,0.0079522394,0.0019588205
2.8592109680,0.0098041855,0.0288997125,-0.0028066821,0.0261358619,0.0134998700,0.0104497774
2.8692510128,0.0086850934,0.0281316470,-0.0015976018,0.0379206166,0.0094068581,0.0178773329
2.8793830872,0.0085139982,0.0137798609,-0.0061549135,0.0539525002,0.0074447077,0.0210584123
2.8896079063,0.0044636237,-0.0013941105,-0.0076127239,0.0785268247,0.0044553094,0.0178652834
2.8995208740,0.0004808117,-0.0145912943,-0.0119115300,0.0764733627,-0.0041138106,0.0083054658
2.9095220566,0.0025212129,-0.0229923297,-0.0171729513,0.0606656335,-0.0244542360,0.0019285269
2.9196770191,0.0066251713,-0.0295308996,-0.0186453052,0.0489866100,-0.0309567433,-0.0033814169
2.9298801422,0.0068826335,-0.0244922806,-0.0173361488,0.0277052894,-0.0375438035,-0.0086882981
2.9397239685,0.0012710352,-0.0205906201,-0.0094582029,-0.0053636879,-0.0389084779,-0.0108033130
2.9498000145,-0.0023714791,-0.0158614684,0.0021095688,-0.0289188158,-0.0317349844,-0.0182263423
2.9598960876,-0.0079628266,-0.0093342839,0.0066561513,-0.0524842180,-0.0234508235,-0.0182174202
2.9704818726,-0.0086578913,-0.0009532745,0.0033234172,-0.0588987134,-0.0224595945,-0.0203388948
2.9802060127,-0.0035359005,0.0016217057,0.0058724098,-0.0547975264,-0.0054331403,-0.0182071012
2.9902548790,-0.0064275605,0.0159597825,0.0132606439,-0.0570755936,0.0094715068,-0.0075810887
3.0001659393,-0.0036184529,0.0225177240,0.0177089982,-0.0550952330,0.0254742410,0.0030445913
3.0104389191,-0.0019461404,0.0135965766,0.0212687068,-0.0306855012,0.0395370647,0.0115398094
3.0203580856,-0.0032911787,0.0213569235,0.0171760134,-0.0040350361,0.0430227444,0.0221523717
3.0303649902,0.0002462823,0.0194520187,0.0005919748,0.0120475274,0.0357493833,0.0242682546
3.0404090881,0.0038075706,0.0089335861,-0.0051031299,0.0377245285,0.0296205841,0.0263826046
3.0507221222,0.0055234390,0.0043586316,-0.0135281272,0.0528544784,0.0106322458,0.0231838822
3.0605578423,0.0054214406,-0.0030867632,-0.0189134665,0.0605075248,-0.0084899832,0.0093684001
3.0706191063,0.0055338549,-0.0115416227,-0.0271688886,0.0660301223,-0.0276037566,-0.0001987396
3.0807039738,0.0097675584,-0.0210609604,-0.0335101672,0.0417314135,-0.0522853322,-0.0097592883
3.0910229683,0.0101137273,-0.0267511178,-0.0156880803,0.0182545837,-0.0524903983,-0.0097534293
3.1009030342,0.0006556023,-0.0287020970,0.0009105616,-0.0063981917,-0.0420797020,-0.0076195719
3.1109399796,-0.0040147793,-0.0219850708,0.0173789673,-0.0214541052,-0.0305253100,-0.0054863794
3.1210079193,-0.0057936651,-0.0143670021,0.0220453553,-0.0311980285,-0.0168228149,-0.0065391269
3.1312379837,-0.0046830815,-0.0039338646,0.0159039907,-0.0505885072,0.0010326150,-0.0086488836
3.1411490440,0.0001986135,0.0045167031,0.0115810446,-0.0518018901,0.0159047730,-0.0043936842
3.1511621475,0.0000949610,0.0042949738,0.0073506050,-0.0390778407,0.0245531201,0.0030399971
3.1612999439,-0.0011275153,0.0187671613,0.0022235923,-0.0263886526,0.0363641754,0.0072894040
3.1715641022,0.0004954893,0.0293812584,-0.0019380635,-0.0296086781,0.0384928398,0.0126002794
3.1814408302,0.0040218937,0.0244627427,-0.0002235955,-0.0189743843,0.0428707413,0.0189714264
3.1914238930,0.0036568155,0.0128187360,-0.0013053602,0.0088551156,0.0346112140,0.0168366358
3.2015500069,0.0004370172,0.0109394016,-0.0100625940,0.0196413994,0.0230199397,0.0147041101
3.2117979527,0.0042360383,0.0052291574,-0.0177000947,0.0315545164,0.0050023226,0.0019504980
3.2216279507,0.0072172689,-0.0033810313,-0.0232685395,0.0349229872,-0.0119943703,-0.0054913061
3.2316818237,0.0064630765,-0.0042510806,-0.0298303552,0.0244072303,-0.0280580260,-0.0139910514
3.2418329716,0.0039288807,-0.0217442680,-0.0315730758,0.0053849379,-0.0473858491,-0.0235523991
3.2520828247,0.0015013773,-0.0315557308,-0.0227230974,-0.0115724737,-0.0592129491,-0.0246158000
3.2619318962,-0.0058480096,-0.0317130275,-0.0130729862,-0.0255424343,-0.0497561283,-0.0203615986
3.2719290257,-0.0132961012,-0.0289748479,-0.0005555934,-0.0202920102,-0.0412214957,-0.0203586686
3.2822129726,-0.0120180584,-0.0241457988,0.0130921416,0.0030222610,-0.0240076222,-0.0150451306
3.2923989296,-0.0128370710,-0.0075994907,0.0160782151,0.0071096802,-0.0059332820,-0.0150371399
3.3021769524,-0.0068758172,0.0079529705,0.0190129094,-0.0131879207,-0.0039596139,-0.0107848719
3.3122668266,0.0029597839,0.0185704660,0.0131112747,-0.0207611509,0.0066267177,-0.0044068666
3.3223319054,0.0028917899,0.0340332203,0.0080637746,-0.0283666365,0.0203748196,-0.0012122055
3.3326380253,0.0018032897,0.0309889745,0.0020053200,-0.0379143320,0.0150274597,0.0051583420
3.3424930573,0.0085238330,0.0143340053,-0.0039997287,-0.0219356064,0.0183916315,0.0115269590
3.3525218964,0.0053572762,0.0094592990,-0.0041033216,-0.0049110819,0.0238942541,0.0189579781
3.3626539707,0.0041058767,0.0027134244,-0.0031438060,0.0047189333,0.0218829680,0.0232025888
3.3729400635,0.0048355120,-0.0040119467,-0.0011887735,0.0100961225,0.0176717117,0.0210755225
3.3828039169,0.0075742709,-0.0019654806,-0.0040466972,0.0325738415,0.0104000848,0.0146941897
3.3927779198,0.0036375930,0.0001441662,-0.0125621744,0.0455114767,-0.0033641974,0.0019424420
3.4029309750,0.0057437378,-0.0065130768,-0.0209965892,0.0372036919,-0.0268572718,-0.0097467043
3.4131319523,0.0110305063,-0.0123078404,-0.0333675928,0.0129441610,-0.0557602942,-0.0161257740
3.4230151176,0.0066466290,-0.0240279604,-0.0351914950,-0.0082744416,-0.0687414110,-0.0256827269
3.4330699444,0.0013088096,-0.0347735472,-0.0243442245,0.0055486951,-0.0632667392,-0.0182509087
3.4431259632,-0.0140038170,-0.0201250482,-0.0105884857,0.0149748474,-0.0450757593,-0.0076270280
3.4535079002,-0.0206515379,-0.0209798384,0.0090343766,0.0094245533,-0.0239230692,-0.0108004510
3.4632449150,-0.0185370333,-0.0131499944,0.0159594230,0.0083601940,-0.0239262637,-0.0097375838
3.4733409882,-0.0114889331,-0.0005291279,0.0121468119,-0.0013925675,-0.0091491826,-0.0086659277
3.4834151268,-0.0134518780,0.0062684240,0.0198621564,-0.0219217837,0.0161300078,-0.0097090211
3.4937701225,-0.0125651695,0.0158532690,0.0235177092,-0.0401252881,0.0223583430,-0.0065158908
3.5036001205,0.0000404675,0.0176650118,0.0252469592,-0.0327508375,0.0320080407,-0.0012047486
3.5136280060,0.0017810274,0.0184979867,0.0113882236,-0.0221285541,0.0374616608,0.0072896699
3.5236990452,0.0005850900,0.0242448878,-0.0014749354,-0.0177868269,0.0312363226,0.0232129097
3.5340490341,0.0071330923,0.0164252948,-0.0064553209,-0.0081379293,0.0271038972,0.0274555907
3.5438189507,0.0116967671,0.0038639132,-0.0045098253,0.0142914541,0.0251639821,0.0253251288
3.5539450645,0.0124234073,0.0030541245,-0.0092334934,0.0400069356,0.0147499591,0.0210662019
3.5640220642,0.0152589194,-0.0025393541,-0.0176565833,0.0529863834,-0.0032438226,0.0104352627
3.5742778778,0.0162749402,-0.0159276295,-0.0211826749,0.0509618521,-0.0150304399,-0.0044352962
3.5841650963,0.0136008672,-0.0205897260,-0.0256617256,0.0448033698,-0.0395461023,-0.0129391020
3.5942001343,0.0159550272,-0.0214955974,-0.0321850963,0.0139381317,-0.0483529083,-0.0203682557
3.6042740345,0.0076110321,-0.0312959142,-0.0204616971,-0.0159237050,-0.0507346429,-0.0203631297
3.6145339012,-0.0028051028,-0.0236210991,-0.0010677761,-0.0202529412,-0.0443643630,-0.0139880544
3.6244230270,-0.0064012748,-0.0150072752,0.0065957122,-0.0182164758,-0.0348315760,-0.0192925390
3.6344671249,-0.0070841652,-0.0190412570,0.0094328932,-0.0226277374,-0.0211312100,-0.0277789682
3.6445159912,-0.0097684599,-0.0027014192,0.0053447895,-0.0248550158,-0.0115662673,-0.0224645622
3.6548280716,-0.0076547456,0.0087961974,0.0109735541,-0.0419791415,-0.0063688420,-0.0160868242
3.6646671295,-0.0046237302,0.0192792248,0.0087786727,-0.0367196389,0.0011266910,-0.0129001532
3.6747279167,-0.0017431717,0.0153115215,0.0105976872,-0.0155304642,0.0173112545,-0.0001558626
3.6847710609,-0.0059025181,0.0289789271,0.0105258040,0.0056275255,0.0366714373,0.0115286894
3.6950640678,-0.0053201211,0.0252070259,0.0115266852,0.0109280152,0.0410589948,0.0263947211
3.7049410343,-0.0077140671,0.0126641812,0.0037251525,0.0098763052,0.0400083102,0.0295809936
3.7149989605,-0.0081456490,0.0069830837,-0.0030387230,0.0216232426,0.0390221402,0.0253303237
3.7250599861,-0.0055358750,0.0032552902,-0.0097196288,0.0302532688,0.0295202490,0.0210759230
3.7353749275,0.0031287184,-0.0053436337,-0.0192354508,0.0315137431,0.0092527941,0.0030148968
3.7452149391,0.0090854578,-0.0227369834,-0.0248109289,0.0296394899,-0.0173953939,-0.0129243219
3.7552218437,0.0123663656,-0.0256161857,-0.0323726125,0.0043570371,-0.0505309738,-0.0161198489
3.7653839588,0.0138703994,-0.0316445418,-0.0304714628,-0.0349517539,-0.0689676404,-0.0246141348
3.7756600380,0.0096016489,-0.0407356806,-0.0200051256,-0.0551638156,-0.0755176842,-0.0256740730
3.7855210304,0.0043151933,-0.0274880696,-0.0076952167,-0.0500548594,-0.0531889461,-0.0256652832
3.7956089973,-0.0060276729,-0.0219242740,0.0066323094,-0.0385827608,-0.0265613291,-0.0256548971
3.8056468964,-0.0057099354,0.0011772339,0.0151188187,-0.0343528613,-0.0222529992,-0.0214059558
3.8159389496,0.0003532578,0.0136227431,0.0197843723,-0.0292819347,0.0043394621,-0.0182085652
3.8258109093,0.0013410557,0.0261420440,0.0166609101,-0.0198436417,0.0214689150,-0.0075846836
3.8358731270,-0.0008183311,0.0329208188,0.0145908408,-0.0093369363,0.0386143439,0.0041010007
3.8459300995,0.0017544139,0.0271686148,0.0116449408,0.0022701565,0.0525856204,0.0157852862
3.8562400341,0.0051760483,0.0127309980,0.0088002495,0.0160469562,0.0622558258,0.0157866180
3.8659968376,0.0017555166,0.0089940252,-0.0009020156,0.0204013325,0.0538333133,0.0200279690
3.8761010170,0.0052924710,0.0130439224,-0.0124975629,0.0279543214,0.0453828350,0.0157746337
3.8861351013,0.0049937028,0.0112323584,-0.0182374902,0.0280231386,0.0379009508,0.0072759548
3.8964350224,0.0067705172,0.0045233192,-0.0220303722,0.0228851009,0.0176329631,-0.0022890547
3.9063110352,0.0087838434,-0.0070809899,-0.0238592811,0.0230508577,0.0005660958,-0.0161002073
3.9163789749,0.0070750224,-0.0187781025,-0.0286216922,0.0136565566,-0.0207794067,-0.0224792771
3.9264450073,0.0025953164,-0.0227956343,-0.0325156637,-0.0160144679,-0.0423086658,-0.0299153551
3.9366660118,0.0021175852,-0.0278948713,-0.0287627168,-0.0404524319,-0.0531400070,-0.0309763607
3.9479651451,-0.0032740722,-0.0330293961,-0.0095329471,-0.0363325216,-0.0382417515,-0.0299081653
3.9569821358,-0.0137000717,-0.0137543259,0.0038869793,-0.0194123946,-0.0221013986,-0.0182246119
3.9673049450,-0.0204214044,0.0065612020,0.0134430937,-0.0217625014,0.0002009098,-0.0118404152
3.9776799679,-0.0125563033,0.0025248949,0.0191136412,-0.0325499028,0.0117925843,-0.0097082881
3.9874200821,-0.0057692570,0.0071954550,0.0149490647,-0.0411487445,0.0181686580,0.0030371344
3.9969258308,-0.0049984348,0.0157744121,0.0097490363,-0.0390831940,0.0256904904,0.0147201559
4.0069561005,-0.0003612529,0.0205029678,0.0016990715,-0.0348333754,0.0278488491,0.0147210881
4.0170822144,0.0062276977,0.0214081835,-0.0014164633,-0.0209266134,0.0248147100,0.0189632382
4.0269870758,0.0127761178,0.0175469946,-0.0014640874,-0.0006119413,0.0207561180,0.0200164504
4.0370020866,0.0144907050,0.0253999066,-0.0053613372,0.0153869987,0.0219915584,0.0253219996
4.0470690727,0.0112874471,0.0255386066,-0.0043126531,0.0229149554,0.0167643055,0.0274424087
4.0574240685,0.0100613348,0.0159985255,-0.0041332431,0.0293906964,0.0093724374,0.0242516752
4.0672068596,0.0059764492,-0.0042272983,-0.0116635747,0.0412561186,-0.0032852346,0.0199956112
4.0773320198,0.0039935666,-0.0205478240,-0.0210709758,0.0382326320,-0.0213918015,0.0136165414
4.0873370171,0.0060760486,-0.0252385307,-0.0285260864,0.0308473930,-0.0310945623,-0.0001913492
4.0976901054,0.0033928563,-0.0328956433,-0.0263091512,0.0234462023,-0.0386629999,-0.0118730394
4.1074657440,0.0027158370,-0.0289087463,-0.0114916749,0.0117398789,-0.0419841595,-0.0171797201
4.1175899506,0.0000505258,-0.0143058477,-0.0016852802,0.0051160650,-0.0197243951,-0.0118579250
4.1276206970,-0.0095917620,-0.0075565157,0.0060150437,-0.0163284801,-0.0103738373,-0.0139732081
4.1379890442,-0.0114487149,-0.0038252648,0.0155204348,-0.0344883129,-0.0083756670,-0.0086586038
4.1478838921,-0.0064809960,-0.0020902331,0.0094504766,-0.0271961764,0.0097325630,-0.0075886124
4.1578660011,-0.0123789050,0.0055423202,0.0043537430,-0.0239921249,0.0097951479,-0.0022803994
4.1678748131,-0.0075373095,0.0103414478,0.0022960121,-0.0187111571,0.0151259303,-0.0054644085
4.1781797409,-0.0037586580,0.0092935981,0.0060270838,-0.0337313861,0.0235457793,0.0040998021
4.1879820824,-0.0029848705,0.0188730787,0.0057292990,-0.0294824466,0.0257400256,0.0094084814
4.1981210709,0.0045805830,0.0081080617,0.0084768347,-0.0114467200,0.0365223661,0.0115328850
4.2081208229,0.0023095121,0.0158994626,0.0064101033,0.0067182230,0.0346006267,0.0178978387
4.2186002731,0.0069366205,0.0120546045,-0.0033217259,0.0121385548,0.0261522830,0.0168304443
4.2284870148,0.0057372111,0.0004887406,-0.0071401186,0.0208150540,0.0124192266,0.0146985175
4.2385320663,0.0056622433,-0.0090582548,-0.0107886977,0.0443712473,0.0040600966,0.0030085719
4.2486519814,0.0057140845,-0.0175709892,-0.0133199282,0.0466509350,-0.0108309016,-0.0054936367
4.2588849068,0.0088923089,-0.0154605685,-0.0217228122,0.0340429991,-0.0311641358,-0.0150567815
4.2688112259,0.0171789937,-0.0251445938,-0.0253104158,0.0182419866,-0.0526068471,-0.0278053340
4.2787952423,0.0157323293,-0.0231745411,-0.0221542306,0.0182308033,-0.0515527651,-0.0288666021
4.2888917923,0.0054183709,-0.0124593554,-0.0132543035,0.0138686504,-0.0419920199,-0.0214286596
4.2991471291,-0.0050299061,-0.0124138175,-0.0004942602,0.0073529603,-0.0303215105,-0.0129267853
4.3090538979,-0.0097668208,-0.0123917041,0.0093086772,-0.0077254046,-0.0166375935,-0.0097313253
4.3190708160,-0.0086783655,-0.0056548892,0.0111967735,-0.0142331049,-0.0060627116,-0.0065389937
4.3291702271,-0.0076751900,-0.0066825924,0.0111145191,-0.0133558605,0.0130440043,-0.0065290071
4.3394489288,-0.0116887279,0.0136701288,0.0119177513,-0.0156152863,0.0257920232,-0.0012130709
4.3493399620,-0.0050515425,0.0233563017,0.0156726651,-0.0220735036,0.0310276635,-0.0033328140
4.3593358994,0.0006573010,0.0173486900,0.0085774474,-0.0476851240,0.0307970345,-0.0043882248
4.3694701195,0.0024407913,0.0103138508,0.0091758780,-0.0370744020,0.0372550674,-0.0043864939
4.3796987534,0.0012808848,0.0111098709,0.0098217539,-0.0316593945,0.0299369674,0.0051646670
4.3896160126,0.0030634066,0.0177266430,-0.0012120194,-0.0284235459,0.0268094838,0.0094096130
4.3996067047,0.0019024719,0.0040420713,-0.0052473731,0.0111225313,0.0207675695,0.0062111560
4.4097051620,0.0017994453,0.0003157083,-0.0079792328,0.0411835462,0.0030056178,0.0083179828
4.4199638367,0.0047901529,-0.0024253305,-0.0183540769,0.0434392467,-0.0097908713,-0.0044305692
4.4298138618,0.0040046680,-0.0197595526,-0.0228753276,0.0425591767,-0.0289392658,-0.0108112367
4.4399161339,0.0072713005,-0.0196248461,-0.0254444070,0.0278196465,-0.0492565185,-0.0150648374
4.4499430656,0.0096265636,-0.0263537336,-0.0183547325,0.0128255170,-0.0440958478,-0.0171820503
4.4603238106,0.0001527477,-0.0321644135,-0.0026830619,0.0020365193,-0.0325249434,-0.0182353314
4.4700737000,-0.0054089469,-0.0186178852,0.0099236779,-0.0139821833,-0.0316033587,-0.0182312019
4.4801111221,-0.0051038754,-0.0178316999,0.0117419772,-0.0364222415,-0.0285953172,-0.0150386048
4.4902210236,-0.0087208338,-0.0074562011,0.0074886493,-0.0588488057,-0.0266635288,-0.0139687462
4.5005149841,-0.0035806934,-0.0030023034,0.0089657120,-0.0759878382,-0.0204604939,-0.0160848945
4.5104289055,0.0044274437,0.0102473916,0.0104840808,-0.0525822490,-0.0127726793,-0.0075929398
4.5204477310,0.0054613757,0.0323583297,0.0042836480,-0.0441895649,0.0022182544,0.0019686075
4.5305337906,0.0092953108,0.0292737912,-0.0018001980,-0.0282041300,0.0045299446,0.0093968967
4.5407891273,0.0100655518,0.0215085577,0.0020441825,0.0058550383,0.0144672636,0.0231965985
4.5506401062,0.0009707619,0.0294276904,-0.0027958341,0.0292630251,0.0221115351,0.0253197365
4.5606808662,-0.0012909960,0.0189869236,-0.0064171739,0.0463360175,0.0222468227,0.0231918711
4.5708241463,0.0013781298,0.0076500000,-0.0079648681,0.0538222715,0.0201704893,0.0200023353
4.5810270309,0.0001819391,0.0031288688,-0.0075894780,0.0580827966,0.0201039109,0.0040742359
4.5909390450,0.0020523181,-0.0062758503,-0.0071495958,0.0571205691,0.0094211064,-0.0054859133
4.6009631157,0.0041191685,-0.0148813305,-0.0175532289,0.0253053829,-0.0110660587,-0.0129206600
4.6110320091,0.0053481716,-0.0285096336,-0.0242327042,-0.0033600321,-0.0262137204,-0.0192913413
4.6213550568,0.0016886998,-0.0334631987,-0.0193925686,-0.0118411342,-0.0315586850,-0.0139828622
4.6311459541,-0.0048940373,-0.0277502704,-0.0097979493,-0.0204553157,-0.0242124200,-0.0150395371
4.6412348747,-0.0085800774,-0.0250092912,0.0055676512,-0.0376604013,-0.0116710626,-0.0213996992
4.6513590813,-0.0054346514,-0.0058779893,0.0119976811,-0.0568848029,-0.0107687833,-0.0203347020
4.6616191864,-0.0042713177,0.0132010998,0.0124693923,-0.0612683669,0.0008926659,-0.0160805676
4.6714382172,-0.0052272868,0.0245339703,0.0187790208,-0.0591992773,0.0084132329,-0.0043962812
4.6815052032,0.0015725453,0.0300356578,0.0115203671,-0.0571129508,0.0138061335,0.0062238732
4.6916141510,0.0042613703,0.0133464755,0.0131722502,-0.0337687768,0.0278875306,0.0189663656
4.7018589973,-0.0000241290,0.0113956155,0.0120261125,-0.0028598635,0.0324641727,0.0285169948
4.7117800713,0.0025023033,0.0154207768,0.0013670736,0.0238346793,0.0316626281,0.0327582769
4.7217698097,0.0089958124,0.0147182764,-0.0080834813,0.0538303927,0.0202387329,0.0306213573
4.7319121361,0.0097212456,0.0150472345,-0.0203206725,0.0593093671,0.0053906785,0.0242408235
4.7421660423,0.0115762614,-0.0001591619,-0.0266532488,0.0594856702,-0.0127086975,0.0146755483
4.7520532608,0.0126490407,-0.0115457354,-0.0300761051,0.0500558689,-0.0309197251,0.0008655262
4.7620048523,0.0099729858,-0.0181983877,-0.0375158973,0.0256583840,-0.0460227802,-0.0044448171
4.7721872330,0.0063426006,-0.0346617289,-0.0265957303,0.0022129538,-0.0494106524,-0.0044407556
4.7824478149,-0.0022167305,-0.0346883722,-0.0129662342,-0.0138674788,-0.0421095975,-0.0023094278
4.7923021317,-0.0156998225,-0.0250769425,-0.0004977173,-0.0279549360,-0.0210456550,-0.0076039918
4.8021440506,-0.0175376870,-0.0184523035,0.0138373189,-0.0408909768,-0.0084600896,-0.0129034165
4.8122601509,-0.0076755029,-0.0031103666,0.0174643807,-0.0347001925,0.0128297526,-0.0107707568
4.8231458664,-0.0126601346,0.0122625055,0.0161517076,-0.0306593496,0.0362636372,-0.0022648200
4.8326649666,-0.0158247538,0.0266913008,0.0158060603,-0.0350015275,0.0436601713,-0.0011980908
4.8425960541,-0.0053360802,0.0284839701,0.0106457882,-0.0370889120,0.0394529104,0.0072947298
4.8526382446,0.0012185682,0.0235479306,0.0046272092,-0.0072118407,0.0397432558,0.0115328180
4.8629760742,-0.0030543844,0.0148836793,0.0007166677,0.0088116005,0.0388982370,0.0232081171
4.8728122711,0.0014760155,0.0150009217,-0.0011722631,0.0121147987,0.0293821637,0.0242662560
4.8828687668,0.0070418376,0.0025150005,-0.0049522705,0.0228713062,0.0209873468,0.0242593326
4.8929462433,0.0048240083,0.0046782913,-0.0057211109,0.0453495570,0.0137226433,0.0189398006
4.9032878876,0.0056693512,-0.0018510993,-0.0073242374,0.0476638451,-0.0043096193,0.0168066099
4.9130721092,0.0096525513,-0.0074934540,-0.0128122754,0.0446142070,-0.0203920510,-0.0044356957
4.9231410027,0.0089608543,-0.0229191352,-0.0250958391,0.0321048051,-0.0502396934,-0.0086946227
4.9331908226,0.0074889916,-0.0296690632,-0.0316071697,0.0088819340,-0.0759509206,-0.0150718279
4.9434990883,0.0022303124,-0.0345856734,-0.0295034833,-0.0102321059,-0.0856885016,-0.0182572361
4.9533529282,-0.0030713568,-0.0336956568,-0.0177599378,-0.0060608219,-0.0760874748,-0.0161307678
4.9634141922,-0.0065506888,-0.0239467192,-0.0000859684,0.0086771101,-0.0557909869,-0.0150625734
4.9734749794,-0.0071863276,-0.0093010245,0.0098111443,0.0075160260,-0.0462163910,-0.0097487690
4.9839258194,0.0009241957,0.0033044640,0.0108638220,-0.0118174572,-0.0336175039,-0.0044285720
4.9936227798,0.0020203998,0.0139246406,0.0117609315,-0.0163151380,-0.0102576576,0.0040789628
5.0036940575,-0.0059148860,0.0226744246,0.0136027746,-0.0101760197,0.0163579751,0.0093996925
5.0138230324,-0.0052265418,0.0188284945,0.0174320750,-0.0082743876,0.0397536457,0.0147195561
5.0241327286,0.0021771302,0.0081665339,0.0134601407,-0.0148129817,0.0535253808,0.0200370904
5.0340538025,0.0006912161,0.0052349987,0.0103258304,-0.0170587730,0.0652113333,0.0253535584
5.0441880226,-0.0017821979,0.0100645842,0.0022805745,-0.0085366573,0.0662915111,0.0168575421
5.0540332794,0.0006692220,0.0119969072,0.0001295620,-0.0063862074,0.0641615167,0.0126076695
5.0643920898,0.0041737664,0.0100151720,-0.0020160861,-0.0051731374,0.0492752418,0.0062291324
5.0741987228,0.0059417295,-0.0056134639,-0.0099272914,-0.0007157251,0.0301301125,-0.0065218830
5.0841879845,0.0099422596,-0.0134893237,-0.0245468803,0.0081339590,-0.0017154345,-0.0203434229
5.0943360329,0.0112781636,-0.0281857420,-0.0429835506,-0.0053359643,-0.0421540067,-0.0203609318
5.1046171188,0.0117927156,-0.0448752828,-0.0429637022,-0.0253488217,-0.0689046532,-0.0278018042
5.1144762039,0.0074671465,-0.0450681634,-0.0323226042,-0.0232114233,-0.0688302219,-0.0193083193
5.1245269775,-0.0018875193,-0.0237746406,-0.0109995194,-0.0170211680,-0.0475473031,-0.0182374623
5.1346187592,-0.0123404749,-0.0179832745,0.0190908723,-0.0118446499,-0.0316143446,-0.0224770140
5.1448898315,-0.0081477650,-0.0073863445,0.0307267122,-0.0120710190,-0.0093678944,-0.0277748406
5.1546931267,-0.0030194263,0.0080248537,0.0238006525,-0.0196266454,-0.0009093620,-0.0224608351
5.1648368835,-0.0058470857,0.0156282615,0.0197120123,-0.0272659231,0.0160152931,-0.0203268435
5.1749162674,-0.0028806517,0.0183663201,0.0155807547,-0.0390777886,0.0233393870,-0.0203197878
5.1851987839,0.0048925984,0.0201203655,0.0075466447,-0.0391028225,0.0266124085,-0.0065147588
5.1950368881,0.0076684761,0.0151243033,0.0034407191,-0.0167467296,0.0321559794,-0.0001481395
5.2050762177,0.0045057493,0.0102856578,0.0053012781,0.0057013207,0.0292518027,0.0125862984
5.2151298523,0.0062493342,0.0142271938,-0.0063501187,0.0186148286,0.0187673364,0.0147015136
5.2254500389,0.0061130333,-0.0022013958,-0.0188737102,0.0325359702,0.0135211758,0.0051391674
5.2352609634,0.0031169166,-0.0078312932,-0.0185980983,0.0465120263,0.0029765228,-0.0033636403
5.2452611923,0.0032321920,-0.0037476595,-0.0221688934,0.0423979759,-0.0130450539,-0.0139885871
5.2554502487,0.0035361608,-0.0133374510,-0.0198908038,0.0286461040,-0.0260095876,-0.0309798215
5.2657518387,0.0010603775,-0.0153178750,-0.0216885395,-0.0042894753,-0.0412010588,-0.0384116396
5.2756128311,-0.0003331493,-0.0194024611,-0.0207544155,-0.0256070402,-0.0446035787,-0.0437184535
5.2856740952,-0.0047217053,-0.0322848149,-0.0111754127,-0.0289873909,-0.0265667886,-0.0394613929
5.2956638336,-0.0141868182,-0.0227019358,0.0090728812,-0.0185318477,-0.0041313209,-0.0298955161
5.3059797287,-0.0169679709,-0.0121179996,0.0225459747,-0.0175792351,0.0075836582,-0.0245809127
5.3158078194,-0.0109861083,-0.0073950468,0.0262763314,-0.0272382796,0.0127911372,-0.0266996566
5.3258972168,-0.0030577371,0.0011693065,0.0183129720,-0.0177129507,0.0214461423,-0.0139561640
5.3359661102,-0.0020803551,0.0175245833,0.0034702234,-0.0199088883,0.0277927220,-0.0139516359
5.3462600708,0.0036993881,0.0232596230,0.0071891956,-0.0178374816,0.0341912322,-0.0118253687
5.3561091423,0.0035558005,0.0280610155,0.0079976134,-0.0114536695,0.0364394747,-0.0012089431
5.3661422729,0.0062980461,0.0280223321,0.0068982057,-0.0102874730,0.0269413106,0.0051568104
5.3762331009,0.0090894811,0.0201878380,0.0019451195,-0.0027301153,0.0185177326,0.0051514842
5.3865189552,0.0080255382,0.0163060855,-0.0107118078,0.0186774395,0.0123519814,0.0072665671
5.3963680267,0.0089396350,0.0144766988,-0.0153990574,0.0337244049,0.0018508714,0.0040729041
5.4064369202,0.0128800832,0.0030355875,-0.0130944438,0.0498437211,-0.0097426679,-0.0054931701
5.4165172577,0.0140293352,-0.0045219241,-0.0146280713,0.0488432273,-0.0172473229,-0.0161155872
5.4267730713,0.0055494565,-0.0014422711,-0.0211122818,0.0373604745,-0.0428139344,-0.0161254406
5.4366469383,0.0070169377,-0.0130760847,-0.0334592052,0.0129966252,-0.0611005947,-0.0214367844
5.4466900826,0.0055046487,-0.0296072531,-0.0254900642,0.0001426116,-0.0558451153,-0.0118747028
5.4567956924,-0.0088757463,-0.0209011603,-0.0138395019,-0.0170594640,-0.0432123430,-0.0044328324
5.4670410156,-0.0125976987,-0.0287723113,0.0045510344,-0.0289475508,-0.0284677520,-0.0054842485
5.4769496918,-0.0095776655,-0.0220787693,0.0160656981,-0.0248406902,-0.0114148669,0.0008960194
5.4869632721,-0.0115595646,0.0030608599,0.0148340277,-0.0314794183,0.0118505079,-0.0022760718
5.4970331192,-0.0145977028,0.0125516476,0.0173648410,-0.0475965515,0.0223078094,-0.0043912875
5.5073399544,-0.0069071990,0.0171506833,0.0217956118,-0.0551511347,0.0307375137,-0.0033233599
5.5171651840,0.0017775703,0.0304593872,0.0125904493,-0.0519367307,0.0297178570,-0.0012006208
5.5272998810,0.0045418846,0.0311941337,0.0014984423,-0.0370043851,0.0309509002,0.0051669972
5.5372838974,0.0042877900,0.0184588265,0.0032191090,-0.0177788120,0.0301335752,0.0168417636
5.5475821495,0.0040062922,0.0223405790,-0.0036931224,0.0046969363,0.0239909943,0.0210801847
5.5574541092,0.0047313082,0.0108027281,-0.0084478445,0.0335334577,0.0210340209,0.0168221220
5.5675277710,0.0055316347,0.0120705785,-0.0110145994,0.0699415356,0.0085911984,0.0125594661
5.5775661469,0.0055073905,0.0114806117,-0.0192038603,0.0796716586,-0.0041060876,0.0051187272
5.5879192352,0.0105097406,-0.0017184194,-0.0204786249,0.0809236169,-0.0232848413,-0.0086945565
5.5976972580,0.0078658871,-0.0120492755,-0.0237264819,0.0661959350,-0.0446350724,-0.0087018134
5.6078481674,0.0102187358,-0.0137819229,-0.0261659808,0.0321937576,-0.0598289408,-0.0150715625
5.6178350449,0.0057571935,-0.0351299234,-0.0230010934,-0.0009148763,-0.0568937361,-0.0086904950
5.6281681061,-0.0037939737,-0.0331738777,-0.0044647641,-0.0074614594,-0.0420263708,0.0019365831
5.6379861832,-0.0095374472,-0.0263942052,0.0061965995,-0.0161491707,-0.0261322279,0.0104428520
5.6481099129,-0.0114848949,-0.0167355705,0.0148100667,-0.0226595327,-0.0155919688,0.0083261719
5.6581101418,-0.0046249521,-0.0061705289,0.0136667304,-0.0301962793,-0.0093043782,0.0062069618
5.6684427261,0.0002705861,0.0101457657,0.0046121888,-0.0399197452,0.0022550724,0.0019680082
5.6782112122,0.0011562217,0.0244874191,0.0003279262,-0.0517309196,0.0096429475,0.0115298219
5.6883540154,0.0019258369,0.0329764299,0.0008233601,-0.0657292902,0.0222815108,0.0157868844
5.6983780861,0.0055478918,0.0230107140,0.0081496052,-0.0550902784,0.0255436171,0.0136624817
5.7087759972,0.0081606023,0.0218539666,0.0029271655,-0.0242783073,0.0396554396,0.0210942980
5.7184858322,0.0038524976,0.0315834098,-0.0001688785,0.0098515386,0.0421102121,0.0263959859
5.7286338806,0.0034096946,0.0142597379,-0.0068514533,0.0386965014,0.0391857959,0.0274489988
5.7386322021,0.0059389728,0.0077956142,-0.0074846931,0.0600787550,0.0351150185,0.0253172740
5.7490229607,0.0056186724,-0.0005796726,-0.0128873773,0.0645374209,0.0160334688,0.0221212134
5.7587609291,0.0064471471,-0.0080022989,-0.0172923990,0.0583216846,-0.0032042079,0.0093721952
5.7689218521,0.0104549043,-0.0203514267,-0.0255451985,0.0543152243,-0.0298219714,0.0008655261
5.7789192200,0.0058046984,-0.0298664141,-0.0309829898,0.0331325978,-0.0459661856,-0.0055067525
5.7892551422,0.0022147556,-0.0414762087,-0.0288107581,-0.0010069953,-0.0473531596,-0.0097459722
5.7990331650,-0.0033542702,-0.0376217552,-0.0083879419,-0.0127909780,-0.0432177372,-0.0108035794
5.8091917038,-0.0089705177,-0.0260167290,0.0090718679,-0.0182762910,-0.0284172203,-0.0118565932
5.8191709518,-0.0127442218,-0.0125110326,0.0244654231,-0.0302406736,-0.0062307576,-0.0107816756
5.8295278549,-0.0116582252,0.0018392627,0.0319268517,-0.0504841618,-0.0095908679,-0.0107782139
5.8395881653,0.0002203990,0.0043859901,0.0217926316,-0.0644220263,-0.0033526791,-0.0118336249
5.8494048119,0.0022723933,0.0108088078,0.0115719847,-0.0601817407,-0.0000839154,-0.0044004750
5.8594388962,0.0013228763,0.0192825627,0.0024430568,-0.0430919714,-0.0009549020,0.0019662105
5.8698310852,0.0022160967,0.0133182229,0.0012555533,-0.0250770189,0.0119563695,0.0051534818
5.8795728683,0.0030216386,0.0133696618,0.0080419593,0.0090747997,0.0123102367,0.0136391791
5.8897352219,0.0028065105,0.0222709607,0.0042867474,0.0335788131,0.0168032553,0.0189441945
5.8997311592,0.0025620570,0.0234519076,0.0015679413,0.0378289483,0.0189757291,0.0210684668
5.9100971222,0.0042431015,0.0081630172,0.0038075261,0.0474112704,0.0211747009,0.0200053323
5.9198741913,0.0020448377,-0.0041700182,0.0031930022,0.0518064201,0.0084519153,0.0157509986
5.9299139977,0.0009620894,-0.0126710711,-0.0032770820,0.0433386303,0.0008810810,0.0051313774
5.9400329590,0.0010404397,-0.0202647615,-0.0175359435,0.0414194502,-0.0214511212,-0.0001904171
5.9503798485,0.0042862552,-0.0327968188,-0.0376107283,0.0246255565,-0.0503442921,-0.0150657697
5.9601349831,0.0086863749,-0.0483237691,-0.0373318978,0.0097704977,-0.0590337850,-0.0256825946
5.9702038765,0.0003735829,-0.0376186557,-0.0216372795,0.0065286313,-0.0547900349,-0.0214324556
5.9802660942,-0.0080552585,-0.0201127101,0.0027526431,-0.0085276822,-0.0432283916,-0.0182377957
5.9906640053,-0.0136238821,-0.0124203144,0.0221233778,-0.0257183872,-0.0316995643,-0.0171658732
6.0004630089,-0.0114109702,0.0029128019,0.0248028450,-0.0407507569,-0.0222679805,-0.0150329461
6.0104899406,-0.0062908125,0.0065117897,0.0186523013,-0.0461599045,-0.0148737151,-0.0129042808
6.0206260681,-0.0051719886,0.0120726647,0.0066957287,-0.0345583782,-0.0009075645,-0.0022835953
6.0308480263,-0.0002708476,0.0197606515,0.0065641813,-0.0154262278,0.0066664657,-0.0054700673
6.0407691002,0.0084748976,0.0168433022,0.0065668635,-0.0059333369,0.0184335094,-0.0033412697
6.0507640839,0.0112602077,0.0198866557,0.0086217932,0.0302446410,0.0293881577,0.0009022112
6.0609040260,0.0061993259,0.0259364080,0.0059380345,0.0452268906,0.0253173802,0.0072659678
6.0711288452,0.0099745654,0.0252249669,-0.0024905391,0.0559386574,0.0211388823,0.0030139650
6.0810012817,0.0118269138,0.0031552736,-0.0040012188,0.0581454597,0.0137241082,0.0019473687
6.0910530090,0.0078606568,-0.0004381116,-0.0074912496,0.0603968985,0.0020717138,0.0019409772
6.1011700630,0.0079498403,-0.0166548062,-0.0157336779,0.0626910180,-0.0138958683,-0.0086836368
6.1113672256,0.0072676348,-0.0320157595,-0.0308320709,0.0373212174,-0.0385711193,-0.0161221121
6.1212620735,0.0145762078,-0.0407254882,-0.0373318382,0.0108337384,-0.0590301901,-0.0267458614
6.1312689781,0.0082920752,-0.0398457833,-0.0372754522,-0.0158561952,-0.0582160614,-0.0288622752
6.1414442062,-0.0020457397,-0.0186193753,-0.0131333061,-0.0299177133,-0.0392188691,-0.0256633535
6.1516599655,-0.0095773973,-0.0061279712,0.0070974641,-0.0216017254,-0.0168286059,-0.0203452874
6.1615071297,-0.0153081603,-0.0014189060,0.0176138692,-0.0324268900,-0.0009448486,-0.0107780136
6.1715822220,-0.0143356808,0.0031882350,0.0259740166,-0.0614193939,0.0168543886,-0.0086381631
6.1816411018,-0.0144179799,0.0057129683,0.0244095139,-0.0764252171,0.0242047794,-0.0001347571
6.1919951439,-0.0087325461,0.0111481370,0.0140798502,-0.0732621774,0.0285321493,0.0083609931
6.2017612457,-0.0041261655,0.0166523289,0.0096279196,-0.0627420768,0.0434801430,0.0083650546
6.2118511200,-0.0025200138,0.0241485666,-0.0025893636,-0.0531874523,0.0489175171,0.0157979373
6.2219300270,0.0039118039,0.0317718796,-0.0010309404,-0.0254166760,0.0470790677,0.0221610945
6.2322168350,0.0024912169,0.0336630158,-0.0051624961,-0.0083197150,0.0451269709,0.0253411755
6.2420930862,0.0040021646,0.0220539402,-0.0062200017,0.0087873386,0.0421140715,0.0285205226
6.2521266937,0.0084915571,0.0085689249,-0.0042035170,0.0249322206,0.0284539200,0.0274478029
6.2622561455,0.0091901235,0.0077931704,-0.0108291097,0.0368929803,0.0062402934,0.0221251417
6.2724847794,0.0120427273,-0.0036438282,-0.0173014589,0.0498284884,-0.0075516859,0.0051261843
6.2824058533,0.0102658980,-0.0159995127,-0.0323472209,0.0693370774,-0.0382281728,-0.0065748799
6.2923450470,0.0087399445,-0.0157098342,-0.0443763919,0.0610386655,-0.0627889112,-0.0193266273
6.3025312424,0.0092871152,-0.0290355850,-0.0330617018,0.0515043102,-0.0703194663,-0.0225144979
6.3127527237,0.0019435842,-0.0259174276,-0.0151223131,0.0279033761,-0.0577440150,-0.0150696319
6.3226590157,-0.0084847100,-0.0111904917,0.0103777461,0.0106966393,-0.0440594926,-0.0086866999
6.3326740265,-0.0112231411,-0.0101999221,0.0192025714,-0.0139895324,-0.0293298196,0.0051303124
6.3427700996,-0.0131254531,-0.0073772250,0.0210379176,-0.0301095154,-0.0177573860,0.0115113128
6.3530359268,-0.0112032779,-0.0056287227,0.0129707865,-0.0440764651,-0.0083087552,0.0147049762
6.3629360199,-0.0054578674,-0.0029384668,0.0087486319,-0.0538432337,0.0075305281,0.0157759655
6.3729338646,-0.0076211882,0.0133539261,0.0043985657,-0.0486237034,0.0192620195,0.0179040972
6.3830409050,-0.0040179831,0.0268042516,0.0040278248,-0.0391349122,0.0310305282,0.0200314317
6.3932909966,0.0014910359,0.0324950032,0.0007697755,-0.0360070318,0.0384993628,0.0221579652
6.4031400681,0.0011223067,0.0255809855,0.0014580899,-0.0178303160,0.0354664214,0.0210915022
6.4131860733,0.0037241091,0.0236186814,-0.0083993860,0.0078350985,0.0303989593,0.0232060514
6.4233102798,0.0034227332,0.0237663221,-0.0112219043,0.0335624330,0.0189519599,0.0231934693
6.4335737228,0.0022332033,0.0123984041,-0.0099077411,0.0539939404,0.0031655405,0.0157478042
6.4434800148,0.0070943939,-0.0096127568,-0.0190760083,0.0765760541,-0.0147438170,0.0051139342
6.4534840584,0.0092587732,-0.0257337261,-0.0300104804,0.0800719857,-0.0444724187,-0.0023343950
6.4636192322,0.0125792734,-0.0321936794,-0.0361401029,0.0610575490,-0.0637603626,-0.0055232639
6.4738521576,0.0071265209,-0.0367507525,-0.0229350515,0.0524321012,-0.0553884506,-0.0118876863
6.4836878777,-0.0004344772,-0.0295756031,-0.0048736520,0.0628696457,-0.0319178142,-0.0065703527
6.4937629700,-0.0090968199,-0.0127283512,0.0140218548,0.0403113365,-0.0172525812,-0.0054955008
6.5038180351,-0.0040798676,-0.0126270233,0.0190578513,-0.0109072439,-0.0176657047,-0.0001733729
6.5141792297,0.0008661855,-0.0128367124,0.0159058385,-0.0526088849,-0.0095204273,0.0030266815
6.5240249634,-0.0060143960,-0.0034253176,0.0105637126,-0.0591709390,0.0063527450,0.0051596737
6.5340318680,-0.0041607362,0.0030271236,0.0080903582,-0.0699721873,0.0189638771,0.0009215191
6.5441699028,-0.0004274141,0.0084776701,0.0045530610,-0.0861172527,0.0326240957,0.0019941740
6.5544300079,0.0052202302,0.0148261609,0.0038332159,-0.0872397721,0.0378920957,-0.0022501061
6.5641870499,0.0069319713,0.0163627099,0.0051009469,-0.0638444945,0.0465981029,-0.0001271671
6.5743732452,0.0056458968,0.0306448769,0.0045196228,-0.0393953435,0.0563753657,0.0019951060
6.5843658447,0.0063021886,0.0324425511,0.0002933556,-0.0126746250,0.0523928739,0.0062327278
6.5946650505,0.0060127485,0.0139449658,-0.0056504197,0.0087398542,0.0451176539,0.0009146615
6.6045098305,0.0018760074,0.0043829503,-0.0074532218,0.0473951548,0.0221522804,0.0072645694
6.6146030426,0.0017796863,-0.0069707213,-0.0138163753,0.0699278936,0.0095536653,-0.0023036355
6.6246547699,0.0067870426,-0.0162909795,-0.0218991227,0.0841492340,-0.0253657028,-0.0065721502
6.6350097656,0.0090683810,-0.0324142762,-0.0337872691,0.0822349563,-0.0477138869,-0.0140154194
6.6448168755,0.0065750289,-0.0358991213,-0.0301178880,0.0748896897,-0.0605527200,-0.0203907602
6.6548600197,0.0011490692,-0.0287399460,-0.0139635988,0.0503361374,-0.0596922524,-0.0182604976
6.6652507782,-0.0072598797,-0.0236786772,0.0087768249,0.0192487426,-0.0461829677,-0.0203698538
6.6752157211,-0.0078812130,-0.0207215715,0.0245137028,-0.0032025045,-0.0421208479,-0.0182385258
6.6850671768,-0.0085354634,-0.0072425781,0.0185842924,-0.0257518366,-0.0284662209,-0.0097335223
6.6951289177,-0.0132470913,-0.0025950249,0.0193121843,-0.0387347452,-0.0104925474,-0.0022886551
6.7052431107,-0.0044193459,0.0029978578,0.0160853676,-0.0496352240,0.0127188992,-0.0075804894
6.7155418396,-0.0006342869,0.0124314846,0.0156345181,-0.0584039465,0.0360210240,-0.0022576293
6.7253942490,0.0030080189,0.0102191987,0.0132195763,-0.0500467382,0.0541891120,0.0062426478
6.7354650497,0.0006679852,0.0236395430,0.0127643161,-0.0308256373,0.0533235818,0.0104845315
6.7455148697,0.0051992792,0.0283736419,0.0007911735,-0.0115707954,0.0492957532,0.0179102905
6.7557988167,0.0106727146,0.0225314330,-0.0110114999,0.0087909345,0.0409986749,0.0200245734
6.7656631470,0.0103644244,0.0139509859,-0.0089393444,0.0377756357,0.0242451914,0.0157630499
6.7757291794,0.0082384609,0.0113003077,-0.0134844370,0.0518288687,0.0063223853,0.0146887302
6.7857971191,0.0111852698,-0.0000963982,-0.0217862912,0.0541735962,-0.0160349198,-0.0001902840
6.7960839272,0.0104226433,-0.0143875061,-0.0251585431,0.0660962984,-0.0351273865,-0.0150680337
6.8059320450,0.0059634554,-0.0150822578,-0.0265439935,0.0461314358,-0.0660670549,-0.0140162185
6.8160090446,0.0064967531,-0.0208239723,-0.0271458216,0.0120355161,-0.0716841966,-0.0161339622
6.8260889053,-0.0028614143,-0.0362793989,-0.0055031367,0.0150808683,-0.0556998402,-0.0097557595
6.8362650871,-0.0143684633,-0.0244506169,0.0141761713,0.0223749988,-0.0375282913,0.0008694544
6.8461771011,-0.0191289075,-0.0078060208,0.0260044746,0.0052091964,-0.0280871876,0.0072496557
6.8562388420,-0.0131941773,-0.0136448918,0.0163466744,-0.0087561551,-0.0186177846,0.0136287259
6.8663029671,-0.0092961080,-0.0069130836,0.0074969344,-0.0206241850,-0.0060089822,0.0104525732
6.8765921593,-0.0064256382,0.0065809907,0.0053351931,-0.0367392376,0.0044404622,0.0072764871
6.8863749504,-0.0026266763,0.0209410619,0.0049735121,-0.0507171080,0.0149217322,0.0062241391
6.8965549469,-0.0018432330,0.0245364141,0.0073742680,-0.0732967183,0.0317089669,0.0073000561
6.9066162109,-0.0001615177,0.0231370162,0.0047330074,-0.0851714909,0.0443272926,0.0051831095
6.9169020653,0.0034159829,0.0178596210,0.0108315758,-0.0735364035,0.0550814047,0.0115563199
6.9265961647,0.0029815545,0.0223791432,0.0101707987,-0.0489593148,0.0532478169,0.0232310854
6.9367237091,0.0025503447,0.0134987058,0.0039878897,-0.0093913991,0.0450908206,0.0210933667
6.9468560219,0.0090951435,-0.0029438313,-0.0075892992,0.0431279503,0.0221643317,0.0146973860
6.9571132660,0.0138954036,-0.0045635281,-0.0207393356,0.0732829198,-0.0051815384,0.0114906738
6.9669489861,0.0159542523,-0.0041397987,-0.0298040695,0.0863825604,-0.0348545462,-0.0002066625
6.9770631790,0.0163193159,-0.0144438324,-0.0378104635,0.0696674958,-0.0711193383,-0.0065913247
6.9870800972,0.0188608579,-0.0179901887,-0.0351563878,0.0645159036,-0.0903466344,-0.0193416756
6.9975042343,0.0116685592,-0.0225735474,-0.0257794447,0.0474418439,-0.0904957727,-0.0193374138
7.0071978569,-0.0014597963,-0.0175001789,-0.0117101856,0.0345101990,-0.0778406262,-0.0140191475
7.0173420906,-0.0098000504,-0.0280546118,0.0022338445,0.0108517408,-0.0600155592,-0.0150660360
7.0273342133,-0.0143749602,-0.0280041266,0.0208819322,0.0021480517,-0.0430798531,-0.0097459722
7.0376639366,-0.0142107643,-0.0143850623,0.0257810168,-0.0067160139,-0.0102217710,-0.0033565161
7.0476889610,-0.0181466974,0.0079101743,0.0266024284,-0.0230015628,0.0172179751,-0.0044008745
7.0575890541,-0.0124052055,0.0232850742,0.0233550481,-0.0455268472,0.0287140440,-0.0012040162
7.0677309036,-0.0018532466,0.0249342155,0.0131733231,-0.0648716986,0.0423670709,0.0030548442
7.0778031349,-0.0050970358,0.0216268729,0.0037594847,-0.0756596327,0.0539518222,0.0041251685
7.0875940323,-0.0044227284,0.0105365338,-0.0027133410,-0.0617232583,0.0477141663,0.0051800469
7.0978479385,0.0040733623,0.0083358707,-0.0080074258,-0.0317983814,0.0437657647,0.0104794716
7.1078958511,0.0037872752,0.0130767049,-0.0121923275,-0.0146053629,0.0322645679,0.0136548243
7.1182298660,0.0075170505,0.0082027139,-0.0161547847,0.0090594869,0.0133231031,0.0062067620
7.1280331612,0.0123637281,0.0044375481,-0.0169385858,0.0369555391,-0.0013105008,0.0030081058
7.1381921768,0.0104761980,0.0075878920,-0.0175567456,0.0552325472,-0.0149797089,-0.0023123573
7.1481437683,0.0106683783,-0.0018107470,-0.0179891177,0.0703259856,-0.0308118667,-0.0097575570
7.1585178375,0.0139948688,-0.0160756279,-0.0250976272,0.0695331693,-0.0584418997,-0.0150801511
7.1682500839,0.0135416947,-0.0284183193,-0.0244420953,0.0504815504,-0.0745449662,-0.0182692856
7.1783590317,0.0082056336,-0.0369596668,-0.0161981173,0.0269551836,-0.0693965480,-0.0108281476
7.1884598732,0.0007546950,-0.0260896850,0.0006595069,0.0257420614,-0.0545458272,-0.0097576901
7.1987309456,-0.0097049363,-0.0249632765,0.0155292563,0.0234490782,-0.0386355706,-0.0076255640
7.2086420059,-0.0085589625,-0.0122195659,0.0244623832,0.0061646048,-0.0175726935,-0.0086713210
7.2186517715,-0.0035312066,-0.0015670236,0.0176474266,-0.0089461710,-0.0007340594,-0.0097208712
7.2287321091,-0.0034771154,0.0070593776,0.0116556101,-0.0250737946,0.0107913036,-0.0107738851
7.2390270233,-0.0015447777,0.0146621885,0.0065509491,-0.0294040944,0.0171477348,-0.0065224157
7.2488441467,0.0012906451,0.0241784286,0.0052311830,-0.0518177152,0.0180532765,-0.0001442113
7.2589468956,0.0021713634,0.0248325299,-0.0001102871,-0.0645795763,0.0137112588,0.0019804586
7.2689847946,0.0030356159,0.0138319554,0.0023487622,-0.0443871729,0.0212899502,-0.0022703460
7.2792820930,-0.0009899031,0.0126455249,-0.0009014196,-0.0241649896,0.0267720670,-0.0022727428
7.2891712189,0.0048023867,0.0115421833,-0.0040113516,-0.0133856600,0.0162475873,-0.0033418022
7.2992000580,0.0067368555,0.0017868702,-0.0050146170,0.0144534279,0.0069132075,-0.0076007298
7.3093371391,0.0039067524,-0.0019874151,-0.0106398053,0.0412699953,-0.0066609913,-0.0097375838
7.3195600510,0.0050994563,-0.0027762230,-0.0170955248,0.0457473025,-0.0278991684,-0.0182437189
7.3294687271,0.0055436152,-0.0162099171,-0.0263441987,0.0502468422,-0.0512596853,-0.0267505888
7.3394880295,0.0032233258,-0.0228741933,-0.0346261449,0.0376090780,-0.0683822110,-0.0320649259
7.3495521545,-0.0020857046,-0.0198100377,-0.0206337161,0.0279122964,-0.0588897727,-0.0278101265
7.3599028587,-0.0055653942,-0.0255024005,-0.0008652395,0.0234653503,-0.0408553779,-0.0224909950
7.3696737289,-0.0140864439,-0.0292710233,0.0149355344,0.0200829506,-0.0228178557,-0.0182346646
7.3796238899,-0.0138757564,-0.0204736162,0.0189544968,0.0040041162,-0.0154960286,-0.0129179303
7.3896150589,-0.0058635068,-0.0049861250,0.0169825964,-0.0152579956,-0.0103657143,-0.0139722759
7.4001841545,0.0002317090,-0.0022654112,0.0071158223,-0.0311169587,-0.0253449306,-0.0118529322
7.4099678993,0.0063816565,0.0091805281,0.0039928369,-0.0323282443,-0.0116374409,-0.0235255007
7.4200181961,0.0016236712,0.0284487437,0.0037412457,-0.0377373919,-0.0030436863,-0.0001602569
7.4301209450,0.0064887810,0.0340572409,0.0024590306,-0.0432204455,0.0117489090,-0.0022740746
7.4403791428,0.0064059901,0.0153683843,0.0021472983,-0.0357798338,0.0150317876,0.0030346708
7.4503030777,0.0062485295,0.0132936658,-0.0010053701,-0.0113245072,0.0248495303,0.0115288235
7.4602947235,0.0021020581,0.0230012964,-0.0108614154,0.0099877054,0.0282397345,0.0147105018
7.4704227448,0.0047788727,0.0201967191,-0.0127145238,0.0248986632,0.0304664709,0.0104586985
7.4806418419,0.0074273455,0.0077983560,-0.0037216134,0.0409141183,0.0295175873,0.0062069613
7.4904928207,0.0072447765,-0.0026325758,-0.0053450055,0.0516591966,0.0221413616,-0.0001693781
7.5005588531,0.0053137499,-0.0063085137,-0.0225008912,0.0550576597,0.0019410192,-0.0107983202
7.5106868744,0.0045804786,-0.0168122817,-0.0415390320,0.0531401858,-0.0204487089,-0.0246124025
7.5209169388,0.0039664912,-0.0302512813,-0.0440555997,0.0350922048,-0.0301908180,-0.0299216807
7.5308508873,-0.0035270045,-0.0311051179,-0.0253418870,0.0136511233,-0.0208201520,-0.0288508907
7.5408477783,-0.0141141303,-0.0193880368,-0.0038972087,-0.0036301287,0.0003269438,-0.0171561521
7.5509729385,-0.0218984224,-0.0107428012,0.0192315988,-0.0410943069,0.0116495062,-0.0203249138
7.5612182617,-0.0169283934,-0.0159753133,0.0216803364,-0.0688732043,0.0145693962,-0.0235017985
7.5710978508,-0.0100043453,-0.0057107983,0.0162534527,-0.0624783188,0.0157422516,-0.0150089776
7.5810842514,-0.0080074854,0.0084657492,0.0020851905,-0.0582827702,0.0232273322,-0.0118209077
7.5911731720,-0.0042124284,0.0218304824,0.0065277629,-0.0455128923,0.0276660901,0.0009198547
7.6015391350,0.0023879071,0.0196988415,0.0071644597,-0.0413120240,0.0352204107,0.0147259478
7.6113018990,0.0069520283,0.0224572849,0.0048974566,-0.0295683853,0.0353708826,0.0221561678
7.6213722229,0.0065479088,0.0233800840,0.0007713848,-0.0082614990,0.0398913324,0.0359564014
7.6314949989,0.0070707607,0.0312297773,-0.0051573701,0.0152250510,0.0390357226,0.0359496772
7.6417417526,0.0095776729,0.0197373461,-0.0089168735,0.0303028040,0.0253662504,0.0348772220
7.6516561508,0.0121441744,0.0063974084,-0.0115649290,0.0431259759,0.0232933778,0.0253171399
7.6616640091,0.0119424276,-0.0069177328,-0.0131379552,0.0538942032,0.0126519203,0.0061967084
7.6717119217,0.0080413334,-0.0124746142,-0.0195388384,0.0552418940,-0.0160402432,-0.0023133559
7.6820020676,0.0122338049,-0.0229458380,-0.0268675871,0.0426946804,-0.0427810475,-0.0182505101
7.6919231415,0.0107216649,-0.0354929157,-0.0265342779,0.0139845507,-0.0536697097,-0.0224965885
7.7019209862,0.0043290216,-0.0238155890,-0.0186258741,0.0075604734,-0.0516036302,-0.0224939249
7.7120542526,-0.0030868391,-0.0238347817,-0.0078243203,-0.0063946759,-0.0432235301,-0.0203619972
7.7222771645,-0.0066555631,-0.0190719534,0.0096182637,-0.0256871469,-0.0348894335,-0.0182293374
7.7321920395,-0.0083818920,-0.0056325970,0.0142895989,-0.0269413646,-0.0157525577,-0.0107865352
7.7421908379,-0.0122013129,0.0106693925,0.0110573582,-0.0431032926,0.0000849958,-0.0012183307
7.7522988319,-0.0132810660,0.0201554131,0.0174643807,-0.0507263467,0.0160035752,0.0094100125
7.7625217438,-0.0135839470,0.0287077259,0.0170408897,-0.0445515439,0.0394846648,0.0221617613
7.7724680901,-0.0131129213,0.0285847615,0.0234740786,-0.0361735560,0.0555238202,0.0295991711
7.7824640274,-0.0068631363,0.0178214740,0.0202732496,-0.0170478001,0.0642142445,0.0349076502
7.7925882339,-0.0045744521,0.0198063683,0.0113352351,0.0000079619,0.0665270016,0.0412751995
7.8028321266,-0.0022677670,0.0208471846,-0.0004650539,0.0086493874,0.0559638403,0.0370205343
7.8127298355,0.0070094275,0.0044643702,-0.0071954317,0.0205983520,0.0348187424,0.0327596106
7.8227300644,0.0115748458,-0.0002371844,-0.0148470588,0.0260900557,0.0189018268,0.0253176726
7.8328638077,0.0104116015,-0.0039277254,-0.0136580057,0.0391033813,-0.0022898782,0.0125625962
7.8430938721,0.0124715976,-0.0163427759,-0.0249135680,0.0543691516,-0.0351058803,0.0040479372
7.8529739380,0.0166990124,-0.0307041574,-0.0351253338,0.0438971519,-0.0554210730,-0.0055151414
7.8630051613,0.0122174881,-0.0422084518,-0.0366669483,0.0226621684,-0.0662036836,-0.0033915369
7.8731021881,0.0047295946,-0.0382476635,-0.0131489821,-0.0051620053,-0.0590245984,-0.0044440180
7.8833651543,0.0020229628,-0.0265621711,0.0131412558,-0.0054703997,-0.0282485746,-0.0033667695
7.8932781219,-0.0096660294,-0.0090318499,0.0238038115,0.0006917287,-0.0037626727,0.0008918915
7.9032840729,-0.0116232373,0.0035421078,0.0227107815,-0.0250945948,0.0129273580,-0.0086494163
7.9133830070,0.0000951100,0.0023274247,0.0165823512,-0.0443992093,0.0223229900,-0.0065167560
7.9236478806,0.0019555350,0.0039692344,0.0093256049,-0.0593352802,0.0222409647,0.0009195884
7.9335141182,-0.0001453351,0.0172900986,0.0078472309,-0.0529864170,0.0275736786,-0.0033260228
7.9435248375,0.0025759747,0.0199128818,0.0025026016,-0.0605362095,0.0360657014,0.0072981254
7.9536900520,0.0062043178,0.0206960868,0.0069813542,-0.0253767557,0.0416578725,0.0041062604
7.9639511108,0.0019688418,0.0118543329,-0.0019832440,-0.0040075518,0.0397915281,0.0147178918
7.9737529755,0.0026556959,0.0177554321,-0.0039723702,0.0216660388,0.0336283743,0.0115229636
7.9838657379,0.0073930132,0.0101207318,-0.0144742317,0.0389398336,0.0135838268,0.0061995713
7.9939498901,0.0063774693,0.0074247541,-0.0209731050,0.0434015095,-0.0055059115,0.0019429745
8.0043458939,0.0025748124,-0.0088922558,-0.0235169120,0.0425431728,-0.0267906934,-0.0065618302
8.0140409470,-0.0010602813,-0.0223512817,-0.0270649381,0.0288514607,-0.0449631028,-0.0086906943
8.0241689682,-0.0046169949,-0.0310020018,-0.0199901052,0.0118157528,-0.0494116470,-0.0171829835
8.0341882706,-0.0081427582,-0.0407177992,-0.0042838044,-0.0052387044,-0.0516750701,-0.0161187835
8.0444650650,-0.0087358095,-0.0252327491,0.0064151101,-0.0127283130,-0.0495975390,-0.0129304472
8.0543785095,-0.0044562113,-0.0146112023,0.0064527206,-0.0063702278,-0.0452897437,-0.0118690440
8.0643978119,-0.0060895872,-0.0107748685,0.0103635602,-0.0096136928,-0.0410667695,-0.0108043123
8.0744476318,-0.0008848499,-0.0011371549,0.0093935542,-0.0117635569,-0.0389440954,-0.0076158429
8.0847587585,0.0002976317,0.0016764824,0.0074021630,-0.0193676800,-0.0251609050,0.0008873641
8.0945835114,-0.0015909713,0.0181473922,0.0121518187,-0.0141952075,-0.0091909282,0.0019544261
8.1046543121,0.0003284175,0.0200249385,0.0101160221,-0.0207774788,0.0088109765,0.0051504858
8.1147422791,0.0090318881,0.0247635078,0.0050583892,-0.0251285508,0.0172465388,0.0030335390
8.1249942780,0.0118511282,0.0159424972,0.0039747767,0.0036210725,0.0238780770,0.0051531489
8.1348571777,0.0077133882,0.0267451238,0.0020482952,0.0238241591,0.0315383263,0.0136455037
8.1449012756,0.0045229453,0.0288387369,-0.0017216391,0.0312796794,0.0326161087,0.0062115556
8.1549968719,0.0072233337,0.0067159953,-0.0004509276,0.0495049395,0.0242940616,0.0072639706
8.1653013229,0.0080530159,0.0051192464,-0.0048838444,0.0720302239,0.0127979945,0.0040671118
8.1751241684,0.0041402387,-0.0013332542,-0.0169995017,0.0753655434,-0.0010437185,-0.0076199705
8.1852169037,0.0063152718,-0.0097646890,-0.0310175605,0.0617661066,-0.0287994519,-0.0150629729
8.1952371597,0.0096358471,-0.0222153235,-0.0383214541,0.0331427716,-0.0481980480,-0.0224975869
8.2055501938,0.0051685381,-0.0328202434,-0.0283099003,0.0064981123,-0.0515933111,-0.0193071198
8.2154026031,-0.0062035513,-0.0358082838,-0.0108442493,-0.0319808349,-0.0455420762,-0.0161089282
8.2255153656,-0.0137956925,-0.0262727309,0.0151697211,-0.0429258943,-0.0180076547,-0.0097216042
8.2355890274,-0.0195923932,-0.0148585616,0.0206224732,-0.0463273935,0.0021581999,-0.0044018072
8.2458534241,-0.0245694108,0.0014184539,0.0289208703,-0.0518750213,0.0233455114,-0.0022662180
8.2556896210,-0.0168705173,0.0098055424,0.0196441226,-0.0647272766,0.0285790209,0.0041116532
8.2657585144,-0.0033455233,0.0113943638,0.0064970665,-0.0551438928,0.0307918414,0.0051721241
8.2758178711,-0.0006363135,0.0179639887,0.0031650476,-0.0401715226,0.0277746804,0.0104750777
8.2861108780,0.0050003934,0.0294214319,-0.0030603595,-0.0496995151,0.0202845391,0.0136591522
8.2959613800,0.0146032684,0.0262660217,-0.0102137513,-0.0463793240,0.0087049156,0.0232075844
8.3060140610,0.0123487525,0.0203198623,-0.0056401677,-0.0197080337,0.0100474153,0.0306340754
8.3160963058,0.0110886656,0.0184433889,-0.0027371831,0.0229576193,0.0125558469,0.0327483565
8.3263854980,0.0137642436,0.0128335180,-0.0093206950,0.0411845595,0.0042332020,0.0338013694
8.3362274170,0.0125827007,0.0112041654,-0.0167143531,0.0594309121,-0.0062534609,0.0284829736
8.3462953568,0.0105210952,-0.0058868108,-0.0180826373,0.0733829513,-0.0146964807,0.0167954247
8.3563804626,0.0095754676,-0.0141830621,-0.0193820186,0.0745622739,-0.0264204480,0.0072330111
8.3666648865,0.0077942568,-0.0206443239,-0.0217255540,0.0490646400,-0.0383636579,-0.0001990724
8.3764858246,0.0021628102,-0.0301833916,-0.0184681602,0.0192144942,-0.0418352261,-0.0044405563
8.3865489960,0.0004751791,-0.0311168600,-0.0085980482,-0.0021419274,-0.0410021842,-0.0108055109
8.3965921402,-0.0051396978,-0.0272799302,-0.0027721114,-0.0065632546,-0.0261983406,-0.0129215261
8.4069042206,-0.0118098594,-0.0156946350,0.0039366893,-0.0226202495,-0.0209915955,-0.0065440536
8.4167709351,-0.0136538781,-0.0012663777,0.0153695755,-0.0387304835,-0.0105367564,-0.0086568054
8.4270181656,-0.0066836518,0.0014168445,0.0131648593,-0.0440986194,-0.0074072755,-0.0097156782
8.4368829727,-0.0056441915,0.0021105234,0.0089458041,-0.0440615751,-0.0105067287,0.0030238852
8.4471788406,-0.0085708536,0.0116629424,0.0086668544,-0.0207024589,0.0013624475,0.0019620829
8.4570903778,-0.0106663294,0.0203088354,0.0074822716,-0.0325836688,0.0162113011,0.0168373026
8.4670581818,-0.0070582670,0.0221453141,0.0110855512,-0.0316971056,0.0342646055,0.0179078933
8.4771947861,-0.0025746415,0.0065282406,0.0196353607,-0.0178846717,0.0408145152,0.0274634473
8.4874410629,-0.0000664334,0.0211286973,0.0097509436,0.0109160841,0.0421133377,0.0253331847
8.4973316193,0.0005236674,0.0164211225,-0.0018211192,0.0397691168,0.0381217264,0.0253231321
8.5073490143,0.0050789970,0.0157719683,-0.0024606176,0.0570338592,0.0191589557,0.0231856797
8.5174856186,0.0097579919,0.0034711186,-0.0059051700,0.0497492589,0.0010266895,0.0189335421
8.5276002884,0.0107398294,-0.0176226068,-0.0151649900,0.0606362633,-0.0212650355,0.0029926596
8.5375976562,0.0159439556,-0.0290375520,-0.0379400440,0.0588665120,-0.0584798455,-0.0065829363
8.5476264954,0.0184148662,-0.0385645218,-0.0442398377,0.0291834511,-0.0789760649,-0.0182654243
8.5577850342,0.0101774745,-0.0413508005,-0.0263860412,0.0196091458,-0.0822279826,-0.0161421541
8.5679960251,0.0038206240,-0.0286266375,-0.0086242743,0.0109133935,-0.0663736537,-0.0140084280
8.5778999329,-0.0065768254,-0.0159188677,0.0138767771,0.0021802494,-0.0462771766,-0.0118707083
8.5879011154,-0.0092300512,-0.0130651174,0.0187384896,-0.0203764606,-0.0315911770,-0.0076104500
8.5980329514,-0.0051337373,-0.0044748364,0.0195340924,-0.0322816931,-0.0146904876,-0.0033512563
8.6082620621,-0.0041490537,0.0040514888,0.0085385852,-0.0401137844,0.0213183779,-0.0033312826
8.6181259155,-0.0082561262,0.0125956954,0.0130036883,-0.0477771908,0.0403731652,-0.0001356226
8.6282300949,-0.0036826322,0.0162360501,0.0164167695,-0.0617968701,0.0551337339,0.0041225054
8.6382160187,-0.0011233579,0.0255865883,0.0128395371,-0.0714624897,0.0614078753,0.0030673612
8.6485538483,0.0034051349,0.0271421503,-0.0004611200,-0.0629451722,0.0636252239,0.0062517030
8.6583852768,0.0079086982,0.0239021014,-0.0097811408,-0.0394817889,0.0648922920,0.0062453775
8.6685142517,0.0035824736,0.0189319085,-0.0062109418,-0.0084482403,0.0566953458,0.0094188005
8.6785097122,0.0051595974,0.0180055331,-0.0024060195,0.0151256090,0.0473438539,0.0083469450
8.6888675690,0.0049417871,0.0055180015,-0.0109938569,0.0452246517,0.0252683796,-0.0001661159
8.6986551285,0.0108211748,-0.0059078513,-0.0242101140,0.0603829697,0.0030627428,-0.0086757811
8.7087926865,0.0119767748,-0.0075665293,-0.0295608230,0.0564116612,-0.0266964845,-0.0108132344
8.7187843323,0.0084285848,-0.0170859862,-0.0320304818,0.0353400931,-0.0545166619,-0.0182551704
8.7291526794,0.0079331957,-0.0276541878,-0.0229011960,0.0205488969,-0.0695081353,-0.0193207022
8.7389202118,0.0016017068,-0.0324554630,-0.0138954706,0.0099045876,-0.0716969147,-0.0150706302
8.7490568161,-0.0087354071,-0.0285388399,-0.0020750945,0.0001544887,-0.0568852127,-0.0086899623
8.7590818405,-0.0123558827,-0.0188353825,0.0134964399,-0.0170595720,-0.0432336479,-0.0076177074
8.7693853378,-0.0121539570,-0.0102014123,0.0260211043,-0.0332444012,-0.0252948627,-0.0012338436
8.7791938782,-0.0052044732,-0.0075023351,0.0209218077,-0.0398178548,-0.0083604213,0.0008994149
8.7893400192,-0.0052324873,0.0029893343,0.0157416277,-0.0336606242,0.0160916597,-0.0001517348
8.7993278503,-0.0024056772,0.0212771129,0.0115433149,-0.0326442309,0.0214264356,0.0030364019
8.8096837997,0.0032798161,0.0191778373,0.0102963261,-0.0380853340,0.0320037119,0.0051666643
8.8194713593,0.0020631959,0.0218896698,0.0060324483,-0.0433431864,0.0245645046,0.0104734795
8.8296165466,0.0038272848,0.0177383851,-0.0050734468,-0.0423096158,0.0277360640,0.0072894036
8.8396072388,0.0095062815,0.0146943154,-0.0043415017,-0.0070721330,0.0259213187,0.0072798827
8.8499631882,0.0083564483,0.0215342473,-0.0082469173,0.0228490159,0.0219244473,0.0051466906
8.8597507477,0.0043250429,0.0178090166,-0.0080791898,0.0347278044,0.0082261460,0.0040759007
8.8698177338,0.0062767076,0.0034813706,-0.0115755387,0.0636643842,-0.0043026954,-0.0033702981
8.8799076080,0.0103686862,-0.0049126921,-0.0167799778,0.0777347460,-0.0243744738,-0.0086936243
8.8901748657,0.0047757733,-0.0064936457,-0.0229678340,0.0682770610,-0.0393470339,-0.0140076960
8.9000759125,0.0003004927,-0.0227497984,-0.0253449865,0.0450109616,-0.0607997961,-0.0182597656
8.9100847244,0.0017062981,-0.0380684324,-0.0112130828,0.0406795964,-0.0544572100,-0.0161318984
8.9202117920,-0.0067387563,-0.0271922518,-0.0069910474,0.0309417471,-0.0406857356,-0.0065663578
8.9304170609,-0.0143579580,-0.0222178865,0.0058494620,0.0020216843,-0.0303412192,-0.0086774454
8.9426269531,-0.0082685538,-0.0144735156,0.0214088969,-0.0193342026,-0.0294514578,-0.0065493132
8.9507675171,-0.0041981083,-0.0029769714,0.0183130316,-0.0344311297,-0.0136322817,-0.0012285840
8.9611301422,-0.0080665536,0.0075024189,0.0131543688,-0.0313564055,-0.0008869248,-0.0033457971
8.9713582993,-0.0041404855,0.0073048891,0.0089987926,-0.0410223491,0.0054229023,0.0009070049
8.9812612534,0.0026320179,0.0197168421,0.0076809935,-0.0496868044,0.0180731174,-0.0001459424
8.9911823273,0.0034504940,0.0262196492,0.0013731533,-0.0529148281,0.0212974064,0.0104744779
9.0005455017,0.0051607001,0.0191542339,-0.0010149664,-0.0541114137,0.0340562798,0.0157886147
9.0110826492,0.0048127729,0.0160125326,-0.0024318881,-0.0402685702,0.0373881608,0.0200339593
9.0206680298,0.0054368484,0.0119612636,-0.0066716857,-0.0210221950,0.0343849771,0.0221529715
9.0307435989,0.0080199055,0.0187403988,-0.0136512108,0.0025084307,0.0292919502,0.0232062526
9.0408744812,0.0087386481,0.0207832288,-0.0194349475,0.0293309353,0.0146228587,0.0157591216
9.0511074066,0.0115516596,0.0093374671,-0.0201147981,0.0402040891,-0.0054499181,0.0146845356
9.0609607697,0.0085985474,0.0008295004,-0.0197729059,0.0349678099,-0.0161822569,0.0030002496
9.0710144043,0.0038814654,-0.0155012785,-0.0242657848,0.0437258817,-0.0384233817,-0.0023220780
9.0810966492,0.0032233109,-0.0337375589,-0.0325136371,0.0534536615,-0.0511411726,-0.0129484897
9.0913619995,-0.0022671411,-0.0431851335,-0.0174306817,0.0491073839,-0.0437929817,-0.0193145107
9.1012506485,-0.0116828270,-0.0322618671,-0.0053736158,0.0277659036,-0.0439726785,-0.0182471815
9.1112833023,-0.0113281645,-0.0234764982,0.0103578977,-0.0096166208,-0.0411297530,-0.0203598663
9.1213426590,-0.0090216734,-0.0177638102,0.0219554715,-0.0267503634,-0.0360000357,-0.0246016849
9.1317005157,-0.0086469091,-0.0034427221,0.0168478899,-0.0439421348,-0.0244850628,-0.0256533679
9.1414985657,-0.0073196781,0.0088642063,0.0106839351,-0.0450468920,-0.0202379189,-0.0235259663
9.1515483856,-0.0040874076,0.0144266905,0.0065330081,-0.0332956947,-0.0211686939,-0.0192822199
9.1618413925,0.0020489504,0.0249658059,0.0035009198,-0.0162079446,-0.0220460724,-0.0139778685
9.1720438004,0.0052284705,0.0258366894,-0.0081702657,-0.0076464154,-0.0240519661,-0.0076102503
9.1819963455,0.0093257390,0.0200089645,-0.0100228973,0.0104649179,-0.0206756759,-0.0023043677
9.1919946671,0.0083687268,0.0143573107,0.0009288603,0.0359556302,-0.0076229912,0.0125608649
9.2021236420,0.0013374049,0.0166126918,0.0061241202,0.0581879392,0.0106654018,0.0210585445
9.2123413086,0.0010836233,0.0073497714,0.0095926933,0.0805981755,0.0108680688,0.0221147556
9.2222013474,0.0057608443,0.0019816582,0.0014419371,0.0763647556,0.0076537658,0.0231769588
9.2322654724,0.0055916714,-0.0014962729,-0.0057946630,0.0678431764,0.0053810244,0.0114981970
9.2423534393,0.0085027628,-0.0235299636,-0.0159769244,0.0561925620,-0.0043530292,-0.0012458945
9.2526216507,0.0086159818,-0.0301362444,-0.0272988863,0.0253502317,-0.0152610708,-0.0054907072
9.2624797821,0.0078351311,-0.0388890691,-0.0320671983,-0.0118957823,-0.0262318291,-0.0107958568
9.2725286484,0.0031253507,-0.0438879319,-0.0215162225,-0.0290348232,-0.0200287942,-0.0129120043
9.2826271057,-0.0035301934,-0.0226755906,-0.0091176219,-0.0312319808,-0.0137031209,-0.0160927512
9.2928504944,-0.0052422327,-0.0093268333,-0.0016518420,-0.0450998619,-0.0149614643,-0.0277696475
9.3028211594,-0.0010127317,-0.0067666946,-0.0020250266,-0.0525862761,-0.0139920730,-0.0320157893
9.3127994537,-0.0017074238,0.0036198918,0.0024899060,-0.0377093218,-0.0074817105,-0.0298927184
9.3229360580,-0.0005744587,0.0208898019,0.0089869313,-0.0400221460,0.0106069455,-0.0192661062
9.3331766129,-0.0035400281,0.0362408571,0.0105836801,-0.0380721800,0.0298205875,-0.0043918202
9.3430328369,-0.0009117912,0.0234467220,0.0199937634,-0.0414536223,0.0490003414,0.0126085356
9.3530397415,-0.0043290001,0.0223719310,0.0235429816,-0.0170971490,0.0683681816,0.0211064145
9.3632297516,-0.0097808726,0.0233492088,0.0087624602,0.0180695206,0.0740218014,0.0274716374
9.3734436035,-0.0005851280,0.0294037294,-0.0047369190,0.0437019132,0.0721234977,0.0274641793
9.3833503723,0.0076644826,0.0209678244,-0.0073724575,0.0513248667,0.0562334172,0.0210822467
9.3933668137,0.0082556717,0.0047292532,-0.0148750730,0.0451106429,0.0370378867,0.0147034442
9.4034738541,0.0129870884,-0.0067504821,-0.0214307494,0.0314891636,0.0113546280,-0.0001700440
9.4136943817,0.0130745284,-0.0134406267,-0.0319017358,0.0275476836,-0.0216153078,-0.0065563042
9.4236125946,0.0094642453,-0.0241418649,-0.0434228964,0.0021327650,-0.0420741104,-0.0182399899
9.4336128235,0.0069783139,-0.0388069935,-0.0326669402,-0.0168971196,-0.0603135675,-0.0235532634
9.4437236786,0.0025240888,-0.0428121872,-0.0171404071,-0.0180903748,-0.0475487709,-0.0171763245
9.4540462494,-0.0079469867,-0.0176137853,0.0051207356,-0.0182363167,-0.0326531753,-0.0107980547
9.4638481140,-0.0145835616,-0.0070677577,0.0204915814,-0.0407713726,-0.0201319922,-0.0129084093
9.4739522934,-0.0046045673,-0.0034850414,0.0250215344,-0.0610659868,-0.0181593876,-0.0086550741
9.4840269089,0.0013778020,0.0097641172,0.0158001594,-0.0558424182,-0.0063653137,0.0030290117
9.4943199158,-0.0045985621,0.0192642044,0.0144404583,-0.0358178429,0.0193381868,0.0125929564
9.5041694641,-0.0078740455,0.0210937094,0.0170378499,-0.0317897052,0.0438338071,0.0210986920
9.5142230988,-0.0005195927,0.0220014881,0.0167869739,-0.0244124811,0.0534896292,0.0274724364
9.5242786407,-0.0001318048,0.0268452000,0.0136084370,-0.0106551209,0.0653309748,0.0349067822
9.5345420837,-0.0047106040,0.0356870107,0.0066734366,0.0245313607,0.0688631311,0.0412704051
9.5443468094,-0.0014633577,0.0252741408,0.0039204769,0.0427706316,0.0594788790,0.0423234850
9.5544347763,-0.0001123439,0.0148578705,-0.0017239637,0.0354908817,0.0402948000,0.0391303562
9.5645065308,0.0043372470,-0.0053078709,-0.0082958527,0.0366347618,0.0317408592,0.0274450723
9.5748386383,0.0040817070,-0.0118401228,-0.0176987834,0.0624498464,0.0106267864,0.0093773883
9.5846595764,0.0031753143,-0.0193325449,-0.0308623500,0.0531796776,-0.0235063508,-0.0055022920
9.5947322845,0.0044662165,-0.0356806703,-0.0353126712,0.0299100410,-0.0450076461,-0.0171869118
9.6047706604,0.0019553264,-0.0482788868,-0.0253615566,-0.0009534387,-0.0537866279,-0.0203689877
9.6150703430,-0.0054617715,-0.0347134061,-0.0097902007,-0.0116982292,-0.0464389659,-0.0182389915
9.6248426437,-0.0110115595,-0.0289883781,0.0086045079,-0.0257098135,-0.0327527151,-0.0161055345
9.6349868774,-0.0127496310,-0.0213943888,0.0249218754,-0.0450022817,-0.0244186148,-0.0139728747
9.6450481415,-0.0046696109,-0.0130021749,0.0186965279,-0.0589693375,-0.0149912909,-0.0139640858
9.6553020477,-0.0005594086,-0.0026992138,0.0114429407,-0.0600567050,-0.0128647573,-0.0118391505
9.6652116776,0.0005353797,0.0076536359,0.0090344958,-0.0580470823,-0.0000725302,-0.0054624770
9.6752567291,0.0005127896,0.0229470562,0.0095990114,-0.0421978161,0.0160100330,-0.0012112735
9.6853370667,0.0072072851,0.0286303591,0.0074046664,-0.0241141506,0.0226176027,0.0115290228
9.6956443787,0.0098717324,0.0295805167,0.0043639950,-0.0007188143,0.0313591622,0.0189600419
9.7054843903,0.0075545120,0.0238799285,-0.0004462189,0.0270067416,0.0337656625,0.0253243968
9.7155284882,0.0081991963,0.0134532275,-0.0040598102,0.0569806173,0.0244568475,0.0221267398
9.7256269455,0.0099223964,0.0060406746,-0.0142995305,0.0677723363,0.0128565170,0.0189345423
9.7359161377,0.0058666426,0.0006143872,-0.0167044587,0.0657488629,0.0010837476,0.0061875870
9.7457437515,0.0069231051,-0.0145812212,-0.0190485306,0.0669784471,-0.0159868486,-0.0097482363
9.7558317184,0.0121278428,-0.0211259294,-0.0292086191,0.0511888340,-0.0384908244,-0.0224970542
9.7658891678,0.0106008761,-0.0365727730,-0.0288623758,0.0160758775,-0.0494211726,-0.0246183276
9.7761926651,0.0041557658,-0.0453295894,-0.0141494460,-0.0127877276,-0.0443401262,-0.0203612652
9.7860059738,-0.0091943033,-0.0289348532,0.0022195394,-0.0267687626,-0.0338577256,-0.0214147456
9.7960958481,-0.0147702284,-0.0252390672,0.0156236701,-0.0343782119,-0.0201437771,-0.0235295612
9.8061180115,-0.0154824145,-0.0196727682,0.0153459124,-0.0409360602,-0.0043005645,-0.0256415140
9.8164539337,-0.0142797716,-0.0044468818,0.0120330863,-0.0549280420,0.0072216019,-0.0298794024
9.8263006210,-0.0092452802,0.0078339996,0.0125602297,-0.0485931560,0.0136591941,-0.0277559981
9.8363866806,-0.0033107440,0.0095048966,0.0161013417,-0.0402579941,0.0338997506,-0.0266862065
9.8464345932,-0.0024105797,0.0286773872,0.0195365958,-0.0563200265,0.0402081832,-0.0139365224
9.8567333221,0.0062684673,0.0254542064,0.0151884370,-0.0498267040,0.0318453237,-0.0033243587
9.8665666580,0.0080355071,0.0212941598,0.0021406824,-0.0338818803,0.0384145416,0.0062299981
9.8766784668,0.0029192676,0.0211614799,-0.0107651539,0.0002875412,0.0365908109,0.0062204110
9.8866748810,0.0085512809,0.0076672854,-0.0096899457,0.0270402990,0.0294039343,0.0072716270
9.8969955444,0.0113071315,0.0136884274,-0.0085178800,0.0367302075,0.0210067220,0.0083267717
9.9068164825,0.0043667513,0.0061315121,-0.0101904459,0.0421980806,0.0071913749,-0.0022998403
9.9169311523,0.0073788273,-0.0091796694,-0.0107556768,0.0552225336,-0.0150401611,-0.0118704420
9.9269599915,0.0087069534,-0.0167832542,-0.0249089785,0.0384575352,-0.0459940135,-0.0171896406
9.9374132156,0.0091715716,-0.0332427807,-0.0314035602,0.0098442677,-0.0664462894,-0.0235633831
9.9470987320,0.0058132070,-0.0391081758,-0.0254115053,-0.0018632282,-0.0697030053,-0.0193159748
9.9570217133,-0.0015884530,-0.0293469001,-0.0038713403,0.0033248756,-0.0547815822,-0.0161244422
9.9670267105,-0.0119891651,-0.0128466664,0.0078290515,-0.0095855957,-0.0442626290,-0.0129305134
9.9774227142,-0.0116823055,-0.0012645896,0.0136196427,-0.0192419514,-0.0390276536,-0.0108018490
9.9874916077,-0.0064830673,-0.0014462646,0.0066926293,-0.0289685335,-0.0263814330,-0.0107911304
9.9976158142,-0.0043329489,0.0090638818,0.0065086298,-0.0248800498,-0.0082932422,-0.0086595360
10.0078172684,-0.0043070656,0.0186739992,0.0112018399,-0.0187340863,0.0172342882,-0.0075871474
10.0180406570,-0.0044580442,0.0263594817,0.0177980475,-0.0327505693,0.0320364051,0.0030417950
10.0278682709,-0.0007652085,0.0213175844,0.0106689148,-0.0349412858,0.0373310335,0.0041054613
10.0376091003,-0.0000585805,0.0085670771,0.0075230412,-0.0093925176,0.0439415313,0.0072876727
10.0476007462,-0.0032975266,0.0221891236,-0.0013491100,0.0140323546,0.0494511463,0.0072849430
10.0579833984,0.0003688593,0.0222453903,-0.0071618743,0.0152896326,0.0303416345,0.0040896824
10.0677556992,0.0119961463,0.0067713680,-0.0118898340,0.0208384898,0.0091254283,-0.0022919178
10.0780057907,0.0139980875,0.0010469977,-0.0194755979,0.0306109581,-0.0077944323,-0.0065500461
10.0880670547,0.0102826022,-0.0046352921,-0.0221041627,0.0467813276,-0.0246993136,-0.0171811841
10.0984020233,0.0116603486,-0.0170603562,-0.0245233960,0.0470673516,-0.0533671789,-0.0203809720
10.1086349487,0.0112011395,-0.0266655851,-0.0280165859,0.0205463134,-0.0695143193,-0.0203832369
10.1182565689,0.0079126768,-0.0334428735,-0.0228858180,0.0099448012,-0.0770968720,-0.0299405232
10.1282997131,0.0046287286,-0.0266269613,-0.0139185376,0.0119993249,-0.0685637072,-0.0256883856
10.1386480331,0.0012281645,-0.0148948608,-0.0010475105,0.0203680415,-0.0514853857,-0.0214347858
10.1484375000,-0.0082129128,-0.0050814925,0.0185701661,-0.0000284174,-0.0388617367,-0.0108047780
10.1585931778,-0.0080278255,0.0045974674,0.0302048735,-0.0258834511,-0.0146685168,-0.0086625312
10.1685695648,-0.0069964272,0.0043797912,0.0221615247,-0.0377795473,0.0012286236,0.0040884838
10.1789360046,-0.0061440659,0.0042291107,0.0190044455,-0.0209169481,0.0226186011,0.0072802822
10.1887359619,-0.0063256216,0.0089759054,0.0051711611,-0.0273450967,0.0257789064,0.0125938877
10.1988077164,0.0022817662,0.0184824299,-0.0058836527,-0.0465358347,0.0234406516,0.0051650000
10.2088222504,0.0069581079,0.0201924872,-0.0052900501,-0.0412254706,0.0256249085,0.0072865407
10.2192077637,0.0077554095,0.0316757970,-0.0066379495,-0.0242398269,0.0342205279,0.0009157268
10.2289924622,0.0026071032,0.0248011183,-0.0029194541,-0.0018657576,0.0386862531,0.0051612048
10.2390756607,0.0033398529,0.0161153506,0.0009671265,0.0163180400,0.0346006975,0.0051545468
10.2491273880,0.0061142850,0.0084613981,-0.0066646524,0.0346143804,0.0188386422,0.0040787631
10.2594957352,0.0051117199,-0.0040189801,-0.0161419697,0.0358594097,0.0007693615,-0.0023013717
10.2692708969,0.0032833626,-0.0145758567,-0.0246200748,0.0349194184,-0.0120357824,-0.0118622538
10.2794036865,0.0035074612,-0.0192638207,-0.0252494998,0.0382576957,-0.0258216355,-0.0150553836
10.2894029617,0.0067223567,-0.0220425893,-0.0171741433,0.0137534151,-0.0302932188,-0.0171756595
10.2997026443,0.0020504703,-0.0200434495,-0.0053807087,0.0062126750,-0.0228829719,-0.0097374506
