0.0000000000,-0.0104684299,0.0080970293,0.0035663347,0.0005760314,0.0041138064,0.0167837329
0.0097919703,-0.0125370389,0.0040940414,-0.0032605429,-0.0026929993,0.0126297968,0.0156684015
0.0196449757,-0.0107093221,0.0069851647,-0.0061921375,-0.0079950858,0.0104057910,0.0103745684
0.0298169851,-0.0068963831,-0.0008312098,0.0006039243,-0.0239784457,0.0081202667,0.0082787946
0.0397490263,-0.0030653540,-0.0038068525,0.0033289294,-0.0346478708,0.0101181697,0.0019002573
0.0500359535,-0.0010556343,-0.0097621912,-0.0037330289,-0.0324640758,0.0058235563,-0.0023229837
0.0628169775,-0.0009554091,-0.0156707391,-0.0030372043,-0.0387761667,-0.0017877580,-0.0118311346
0.0699160099,-0.0008879963,-0.0147422785,0.0043640239,-0.0461826846,-0.0114278691,-0.0075138845
0.0797870159,0.0050019855,-0.0098591680,0.0117383702,-0.0461240970,-0.0178562067,-0.0095980745
0.0900440216,0.0070368880,-0.0060535301,0.0121514900,-0.0567431822,-0.0274939202,-0.0020914217
0.0998040438,0.0041389996,-0.0062391986,0.0124518974,-0.0738942027,-0.0232525691,0.0095798820
0.1097860336,0.0001001295,0.0080842739,0.0046570404,-0.0952610224,-0.0244139750,0.0181014650
0.1199430227,-0.0038620892,0.0018574366,-0.0021855135,-0.0974602550,-0.0200799461,0.0265724473
0.1301460266,-0.0050658351,0.0054002176,-0.0099767940,-0.0910976976,-0.0178295746,0.0339901485
0.1398010254,-0.0063301688,0.0031528242,-0.0040300386,-0.0975310951,-0.0146654733,0.0350373052
0.1497839689,-0.0046300059,-0.0059740175,0.0007745128,-0.1359469146,-0.0149898464,0.0318790637
0.1598540545,-0.0039510196,-0.0073828925,0.0013381343,-0.1466693431,-0.0118071027,0.0393047556
0.1700429916,-0.0061809188,-0.0137189263,-0.0052648680,-0.1178712472,-0.0052533294,0.0296806227
0.1797729731,-0.0088818436,0.0066247950,-0.0110763805,-0.1007705629,-0.0104089435,0.0360756703
0.1897729635,-0.0069837635,-0.0029987923,-0.0027987261,-0.0783294365,-0.0092573920,0.0254286192
0.1998040676,-0.0040994352,0.0026514300,-0.0019635458,-0.0398911014,-0.0100376979,0.0243443139
0.2099510431,-0.0016793374,0.0063854824,0.0042784316,-0.0131606860,-0.0141333742,0.0211650319
0.2198170424,0.0009099778,0.0097704297,0.0060953600,0.0114157628,-0.0161049124,0.0179719012
0.2298060656,0.0005863544,0.0022484430,0.0084973676,0.0423718132,-0.0148239322,0.0147548020
0.2398400307,0.0009847220,0.0014921793,0.0069910986,0.0722203925,-0.0144902375,0.0274835136
0.2500320673,-0.0006581310,0.0077793966,0.0043733222,0.1660944223,-0.0847257823,0.2286653519
0.2598010302,-0.0891984776,0.0013786325,-0.0188034680,0.3007442355,-0.1468426883,0.3426511586
0.2697650194,-0.2202467620,-0.0328114256,-0.0438938625,0.1925480068,0.0018370706,0.0782895759
0.2797729969,-0.0900990441,-0.0189320669,-0.0131495493,0.0707316846,0.0566667616,-0.0250361525
0.2897549868,0.0225376431,-0.0013923874,0.0074067218,0.0548145026,0.0406116322,-0.0132346200
0.2998420000,-0.0070062345,-0.0164060816,0.0032926302,0.0472901389,0.0448764190,-0.0068793865
0.3097779751,0.0112656886,-0.0094526047,0.0111640198,0.0430344082,0.0448071770,-0.0111255301
0.3198809624,0.0022866663,-0.0105255479,0.0159934852,0.0323625877,0.0394901745,0.0016648336
0.3297320604,0.0068856711,-0.0036607615,0.0219624136,0.0324275717,0.0320000350,0.0006509684
0.3397569656,0.0070392424,0.0046660672,0.0200442765,0.0345778093,0.0298833530,0.0006610884
0.3497240543,0.0118896300,0.0110926991,0.0151682002,0.0196254887,0.0308364984,0.0006653492
0.3597849607,0.0124661559,0.0054644714,0.0051594479,0.0184924491,0.0404113606,-0.0036459090
0.3697140217,0.0116159851,0.0087446338,-0.0045882957,0.0226882584,0.0490032509,-0.0026421638
0.3797620535,0.0103327567,0.0028723248,-0.0003825921,0.0194993876,0.0468538143,-0.0004985852
0.3898060322,0.0140876109,-0.0061875810,0.0103832586,0.0183933787,0.0511295162,0.0005368518
0.3999880552,0.0152749950,-0.0006020299,0.0139657957,0.0077191624,0.0500006042,0.0026743046
0.4098180532,0.0105205709,-0.0050222506,0.0123209460,-0.0040237801,0.0488682278,0.0058770226
0.4197319746,0.0077387029,-0.0005877844,0.0116192205,-0.0082964217,0.0488434620,0.0069429530
0.4297219515,0.0031811532,0.0039149891,0.0033311348,-0.0083366362,0.0520858616,0.0111715198
0.4397850037,0.0055835182,0.0096313125,-0.0005269546,-0.0051319208,0.0510586798,0.0133013818
0.4495359659,0.0059385831,0.0124847060,0.0008416873,0.0077524520,0.0415482633,0.0144164469
0.4595309496,0.0045006210,0.0124813085,0.0042076213,0.0269602351,0.0427565388,0.0133328084
0.4695229530,0.0108052427,0.0163816586,0.0064788563,0.0355750285,0.0332131013,0.0144510698
0.4798719883,0.0112962956,0.0114099151,0.0096421940,0.0463086329,0.0279120803,0.0102302255
0.4896919727,0.0071500475,0.0064920555,0.0098906858,0.0356764942,0.0256286878,0.0028157185
0.4996590614,0.0069593126,0.0044782530,0.0080039604,0.0228895918,0.0233815107,0.0017776182
0.5096870661,0.0059461230,-0.0033497445,0.0033485990,0.0228594989,0.0286889244,-0.0025063425
0.5196579695,0.0027685401,0.0053570638,-0.0062553184,0.0153576415,0.0318447687,-0.0025252509
0.5296709538,0.0034751233,0.0062822471,-0.0100287693,0.0078736255,0.0328647606,-0.0014642475
0.5396440029,0.0022155878,0.0081478124,-0.0061719911,-0.0059883939,0.0306311678,0.0006881196
0.5497030020,0.0046251947,0.0148316389,-0.0024836559,-0.0177278742,0.0294897389,0.0028285019
0.5596289635,0.0051692957,0.0136694675,0.0030589800,-0.0197880976,0.0209127609,0.0018239575
0.5696200132,0.0068851942,0.0135504967,0.0057113273,-0.0133400494,0.0177108422,-0.0034717384
0.5796600580,0.0096726054,0.0095853573,0.0056098206,-0.0015591579,0.0135137001,-0.0055800295
0.5896149874,0.0126106972,0.0008439788,0.0067831976,0.0123537276,0.0103876814,-0.0087566487
0.5996440649,0.0096793706,-0.0010420909,0.0052021248,0.0251267813,0.0168565009,-0.0130539248
0.6096210480,0.0047565633,0.0038883456,-0.0031012793,0.0228407234,0.0360589549,-0.0153016327
0.6196299791,0.0017559764,0.0127092963,-0.0105948346,0.0089448821,0.0391402356,-0.0174369551
0.6295980215,-0.0080680018,0.0087061292,-0.0163309481,-0.0007373067,0.0486754142,-0.0185544174
0.6396200657,-0.0042868620,0.0087144142,-0.0162423756,-0.0007700641,0.0539881550,-0.0228410419
0.6495989561,0.0013611850,0.0136295324,-0.0094011920,-0.0028294865,0.0464543402,-0.0270403139
0.6596360207,0.0051773423,0.0068157087,-0.0044644969,0.0014596684,0.0422542654,-0.0217024069
0.6695779562,0.0138194496,0.0039818655,0.0044880016,0.0112153599,0.0262523983,-0.0269174092
0.6796159744,0.0138161415,0.0001720556,0.0143815381,0.0070294030,0.0155427633,-0.0257834364
0.6895749569,0.0128332907,0.0012182960,0.0213689301,-0.0004333071,0.0123240659,-0.0204453953
0.6996289492,0.0109314853,0.0080471998,0.0088378293,0.0038052471,0.0155747207,-0.0194082260
0.7096710205,0.0033808884,0.0109836822,-0.0084491270,0.0101552885,0.0209950507,-0.0162606370
0.7196170092,0.0005347368,0.0071863900,-0.0080636637,0.0037131016,0.0231362320,-0.0098951496
0.7295459509,-0.0005863372,0.0120751029,-0.0079093473,0.0004829541,0.0252760835,-0.0067195967
0.7395900488,0.0011476215,0.0160057321,-0.0067654746,0.0079649724,0.0232174601,-0.0035212731
0.7495720387,0.0096322233,0.0150788194,0.0012178521,0.0048293662,0.0167441145,-0.0077266712
0.7595729828,0.0143335098,0.0043068300,0.0109125478,-0.0047441656,0.0113544092,-0.0044983868
0.7695230246,0.0161819104,-0.0055454602,0.0136275394,-0.0015334580,0.0124026295,-0.0098193828
0.7795959711,0.0102288658,0.0011362204,0.0017675858,0.0048410837,0.0177569147,-0.0151736680
0.7895189524,0.0073710317,-0.0027506582,-0.0019338626,0.0005765641,0.0187563989,-0.0194267370
0.7995140553,0.0064665014,-0.0016910663,0.0030788283,-0.0057327310,0.0080030868,-0.0204113070
0.8095400333,0.0056440169,-0.0055248369,0.0022256474,0.0049534696,0.0070078643,-0.0214747079
0.8195229769,0.0056780810,-0.0015664330,0.0042623384,-0.0035324274,-0.0005184956,-0.0192965083
0.8311439753,0.0084974403,0.0052539478,0.0051130755,-0.0120484168,-0.0058738459,-0.0128814857
0.8395830393,0.0122538740,0.0061734687,0.0078369481,-0.0110009955,-0.0058128601,-0.0065074759
0.8494950533,0.0081959302,0.0079727536,0.0094688637,-0.0238235854,-0.0058757104,-0.0022485484
0.8594299555,0.0071213478,0.0029591687,0.0072753532,-0.0367175452,0.0047050286,-0.0033713372
0.8694770336,0.0032454070,-0.0001508227,-0.0047243135,-0.0378025137,0.0068342262,-0.0033843867
0.8794809580,0.0061673457,-0.0099790329,-0.0048890011,-0.0250045620,0.0080081476,-0.0023370986
0.8894770145,0.0051057274,-0.0090305442,0.0027410488,-0.0282174014,0.0101027237,-0.0044732201
0.8995350599,0.0078372592,0.0036040910,0.0025385122,-0.0154559305,0.0145094572,-0.0002594334
0.9094669819,0.0095990533,0.0074757109,0.0015440685,0.0079897400,0.0200166069,-0.0024363012
0.9195840359,0.0065501863,0.0025520690,0.0016482574,0.0145115545,0.0072089322,-0.0066092084
0.9294799566,0.0084434683,-0.0013236633,0.0056499345,0.0134633342,0.0061047859,-0.0097884899
0.9394409657,0.0094043547,-0.0042270650,0.0077071292,0.0048872903,0.0103192385,-0.0087457299
0.9495190382,0.0084163779,-0.0002876154,0.0049161417,0.0027120202,0.0156373046,-0.0098410882
0.9596400261,0.0045489604,0.0006903776,-0.0007746715,0.0048244391,0.0188477449,-0.0119910575
0.9695459604,0.0045899684,-0.0022427670,-0.0064999359,0.0015487513,0.0252896659,-0.0056561963
0.9794510603,0.0024842259,-0.0022700063,-0.0015965004,-0.0069653746,0.0220222324,-0.0045645665
0.9894189835,0.0032248136,0.0025810369,0.0022625427,-0.0133766681,0.0219908077,-0.0024351028
0.9994440079,0.0079744393,-0.0022946827,0.0052219732,-0.0091519626,0.0263224393,-0.0003441218
1.0094139576,0.0078374380,-0.0052575697,0.0081595285,-0.0038115261,0.0263546649,-0.0014104515
1.0194029808,0.0057503218,-0.0053393473,0.0023351412,0.0025240006,0.0349510834,-0.0014691743
1.0294339657,0.0046421224,-0.0063459505,-0.0004166860,0.0195477251,0.0425461493,-0.0036550967
1.0393960476,0.0035547849,-0.0053105582,-0.0020004411,0.0248536747,0.0489435978,-0.0100737149
1.0494639874,0.0004738804,-0.0022842519,-0.0005402464,0.0375905074,0.0565509163,-0.0069447667
1.0593800545,0.0003823277,0.0007573732,-0.0048168199,0.0514561236,0.0587773174,-0.0090935379
1.0693969727,-0.0036403004,0.0057427059,-0.0071726935,0.0557818972,0.0523889288,-0.0101175234
1.0794099569,0.0001713571,0.0000919470,0.0012856227,0.0440826267,0.0490519851,-0.0143354386
1.0893809795,0.0040663416,-0.0066111316,0.0046122773,0.0185634196,0.0381394178,-0.0174340252
1.0993750095,0.0022100445,-0.0104553336,0.0048306687,0.0100636762,0.0358773284,-0.0248525273
1.1093939543,0.0032691893,-0.0094003314,0.0030656557,0.0057890364,0.0348117985,-0.0205930676
1.1193569899,0.0013383862,-0.0083946222,0.0041430695,-0.0059487140,0.0315731280,-0.0141914943
1.1294200420,-0.0006276730,-0.0035439364,0.0001831155,-0.0177337341,0.0347337648,-0.0088918032
1.1393419504,-0.0036247435,0.0022356876,-0.0038325090,-0.0283829160,0.0304055978,-0.0046033156
1.1494179964,-0.0046259826,0.0031330355,-0.0050234096,-0.0464655124,0.0238257255,-0.0077351928
1.1593190432,0.0002226170,0.0011149416,-0.0014952321,-0.0570790097,0.0152173247,-0.0055500693
1.1693290472,0.0011937555,-0.0019263258,-0.0018910068,-0.0431570671,0.0089304000,-0.0033942403
1.1793529987,0.0001999375,0.0009194979,-0.0021617312,-0.0228974707,0.0122803897,-0.0044905306
1.1893340349,-0.0007888440,0.0028351315,-0.0032192965,-0.0079784412,0.0145515334,-0.0023908943
1.1993230581,-0.0007771316,-0.0030049912,-0.0012019771,0.0005595200,0.0156668648,-0.0045282142
1.2093319893,-0.0037004713,-0.0039949645,-0.0040060179,0.0079822829,0.0200357810,-0.0003121642
1.2193139791,-0.0027459625,-0.0019992820,-0.0096357362,0.0165117215,0.0222171769,-0.0035219388
1.2293169498,-0.0057431227,0.0029342540,-0.0113080041,0.0271878019,0.0191569384,0.0039271889
1.2392860651,-0.0068315035,0.0059367190,-0.0070732730,0.0293409675,0.0180812869,0.0018105083
1.2493040562,-0.0049904948,0.0089560514,-0.0086612003,0.0314547196,0.0202443060,0.0028573968
1.2592760324,0.0007938084,0.0061450968,-0.0101465480,0.0368292443,0.0160037559,0.0018176988
1.2693079710,-0.0021691981,0.0023309954,-0.0058653848,0.0336779281,0.0106172459,-0.0002699529
1.2792719603,0.0036974486,-0.0014368525,-0.0044943588,0.0337314531,0.0042032893,-0.0002276085
1.2892509699,0.0105841989,-0.0090520019,0.0008272033,0.0252660662,-0.0044216244,-0.0012281581
1.2992910147,0.0086417729,-0.0070471992,0.0048403246,-0.0045365719,-0.0153309982,-0.0000742103
1.3092490435,0.0106605226,-0.0119297737,0.0038360457,-0.0162739214,-0.0196152255,0.0095232893
1.3192759752,0.0047847265,-0.0101253623,0.0025089483,-0.0418541171,-0.0261863079,0.0138317505
1.3292310238,0.0036088463,0.0004195937,-0.0000119705,-0.0589510798,-0.0294068679,0.0276756622
1.3392649889,0.0033371088,0.0001951822,0.0013720493,-0.0622157156,-0.0261298493,0.0393449664
1.3492590189,0.0020339128,-0.0001151195,-0.0041310685,-0.0654647723,-0.0249862876,0.0510261245
1.3592180014,-0.0004143778,0.0092842346,-0.0125859277,-0.0569555722,-0.0237963870,0.0573864169
1.3692519665,-0.0010321799,0.0119330054,-0.0081576006,-0.0398295820,-0.0311091617,0.0616714470
1.3791910410,0.0013112959,0.0136840707,0.0002738934,-0.0216452517,-0.0352527760,0.0606232248
1.3891999722,0.0037285325,0.0184176937,0.0011102658,0.0040262900,-0.0383332521,0.0521261431
1.3991730213,0.0063690478,0.0115250116,0.0002957087,0.0264827311,-0.0382677354,0.0393609479
1.4092279673,0.0013805565,-0.0002309314,0.0005130869,0.0318735018,-0.0394128971,0.0255535226
1.4191689491,0.0023437676,-0.0118989581,-0.0020643373,0.0478930771,-0.0351273417,0.0127680842
1.4292529821,0.0042822296,-0.0117696756,-0.0016292828,0.0446730517,-0.0309224725,0.0074311094
1.4392009974,-0.0015927020,-0.0078104963,-0.0023177762,0.0264708772,-0.0225492306,0.0031399585
1.4491989613,-0.0025613967,-0.0019273391,-0.0080020325,0.0199959353,-0.0119567728,-0.0022361646
1.4591970444,0.0013309654,0.0020104416,-0.0089772837,-0.0120165925,-0.0143211260,-0.0000750097
1.4691979885,-0.0016442600,-0.0010065666,-0.0014955300,-0.0387030654,-0.0155690834,0.0031388933
1.4791899920,-0.0007529024,-0.0011302462,0.0010173422,-0.0397767201,-0.0155605618,0.0052650278
1.4892289639,-0.0017336968,0.0036117204,-0.0042825835,-0.0386970714,-0.0166300870,0.0042088181
1.4991070032,0.0011445817,0.0055002342,-0.0026299257,-0.0334186889,-0.0101626012,0.0052232165
1.5093079805,0.0020798978,0.0064269076,-0.0008967418,-0.0227274261,-0.0101253167,-0.0000964480
1.5193940401,0.0050761038,0.0025442012,0.0019453268,-0.0109361485,-0.0153943803,-0.0021962174
1.5291639566,0.0061469609,-0.0042129983,0.0088604791,0.0093337037,-0.0131181767,-0.0043499158
1.5391550064,0.0012803611,0.0035827525,0.0021265249,0.0157307498,-0.0120028453,-0.0043601687
1.5491750240,-0.0015014175,0.0045653353,-0.0055864351,0.0125213750,-0.0099173235,-0.0075586252
1.5591520071,-0.0033030275,-0.0022170178,-0.0063993828,0.0210373625,-0.0056067314,-0.0107781207
1.5691410303,-0.0012471143,-0.0011322728,-0.0080780284,0.0306367278,-0.0034221401,-0.0139861647
1.5791319609,0.0036633548,0.0039304863,-0.0038303037,0.0327905603,-0.0076376572,-0.0086471923
1.5891679525,0.0036762890,0.0001622209,0.0052700741,0.0338230655,-0.0054466752,-0.0033501650
1.5991259813,0.0026333865,-0.0007483593,0.0084867580,0.0338032283,-0.0074879881,0.0072842371
1.6091140509,0.0073181326,0.0090873009,0.0087545617,0.0370251201,-0.0127434703,0.0147528052
1.6191079617,0.0013194617,0.0052149068,0.0158264134,0.0317567214,-0.0213268381,0.0169420578
1.6291060448,0.0041059488,0.0003919372,0.0180956218,0.0349048451,-0.0180234537,0.0254175682
1.6391359568,0.0059369439,0.0014039049,0.0125902398,0.0327419564,-0.0137855653,0.0222011358
1.6491060257,-0.0001298252,0.0081681972,0.0088107688,0.0091996128,-0.0075367242,0.0243018363
1.6590989828,0.0026151475,0.0022672780,0.0059844954,0.0027544969,-0.0001595016,0.0178841501
1.6691240072,0.0005578336,0.0022035011,0.0001885396,0.0165914819,0.0084161432,0.0082573555
1.6790909767,0.0004449722,0.0031854280,-0.0006672043,0.0144865206,0.0062312861,0.0050876616
1.6891120672,0.0023567614,-0.0084812874,0.0082575781,0.0091825686,0.0050578974,-0.0023377645
1.6990720034,0.0033726927,-0.0143152112,0.0112060411,0.0049147201,0.0050192815,-0.0033986345
1.7091369629,0.0033379730,-0.0094359154,0.0111518009,0.0091912244,0.0050341953,-0.0055264998
1.7190660238,0.0042496258,-0.0016242495,0.0111222966,0.0038722255,0.0007630177,-0.0001830007
1.7290680408,0.0051874155,-0.0026343695,0.0139364703,-0.0173944477,-0.0121634332,0.0073524141
1.7390489578,0.0021445092,0.0011556515,0.0136227114,-0.0302163698,-0.0122276163,0.0116120065
1.7490919828,0.0010561880,0.0078119407,0.0073478324,-0.0440925024,-0.0123349410,0.0116223926
1.7590630054,-0.0000186328,0.0086003309,0.0029900770,-0.0462270267,-0.0144436322,0.0169495139
1.7690529823,0.0008234617,0.0055375467,0.0045374138,-0.0441889092,-0.0026711286,0.0168717485
1.7790549994,-0.0012185040,0.0004402169,0.0001371604,-0.0516802520,-0.0016322295,0.0200570244
1.7890670300,-0.0023312632,-0.0046157469,0.0016673307,-0.0356802419,0.0027031302,0.0125809973
1.7990460396,-0.0015098515,0.0001495251,0.0013665657,-0.0260249525,-0.0025800485,0.0104816277
1.8090389967,0.0003063914,-0.0008494488,0.0109460456,-0.0099493125,-0.0078541730,0.0041302554
1.8190040588,0.0022407707,0.0001008877,0.0079743965,0.0113924602,-0.0066256560,0.0041100150
1.8290179968,0.0021487114,0.0127876764,0.0002505880,0.0273503866,0.0020027191,-0.0012690378
1.8390029669,-0.0046464866,0.0118162399,-0.0043834345,0.0326632597,0.0062904083,-0.0044870684
1.8490439653,-0.0046014553,0.0070318351,-0.0031120677,0.0272961929,0.0115565434,-0.0087670349
1.8589999676,-0.0035359624,0.0042288075,-0.0017877121,0.0283855572,0.0104611851,-0.0130109154
1.8690299988,-0.0014464918,0.0024260648,-0.0014221568,0.0369438902,0.0094313407,-0.0161973871
1.8789860010,0.0015592512,0.0026088126,0.0048402650,0.0369068757,0.0126652168,-0.0130314212
1.8890509605,-0.0003783170,-0.0002016655,0.0129335625,0.0261999015,0.0137147689,-0.0055940114
1.8989789486,-0.0052923625,0.0056530605,0.0101423962,0.0165760368,0.0157773886,-0.0056004031
1.9090340137,-0.0034109417,0.0173673406,0.0004659992,0.0016396977,0.0135515174,-0.0023883644
1.9189699888,-0.0014245871,0.0086015826,0.0034445028,-0.0100731514,0.0092033735,-0.0002269428
1.9289660454,-0.0014171365,0.0076343189,0.0053688986,-0.0036533345,0.0102582518,-0.0076750051
1.9389469624,-0.0013437632,0.0085832244,0.0004352432,-0.0218210220,0.0143579217,-0.0119391261
1.9489630461,-0.0012856189,0.0066085826,0.0021977525,-0.0292981118,0.0153598031,-0.0130027924
1.9589819908,0.0027630862,0.0007558235,0.0030332308,-0.0175004415,0.0121653425,-0.0225530211
1.9689480066,0.0087947780,-0.0001400939,0.0068726046,-0.0078323660,0.0047585582,-0.0225117411
1.9789600372,0.0090212161,-0.0098110074,0.0175729487,-0.0099847335,0.0079263877,-0.0246537216
1.9889529943,0.0013697383,0.0018509993,0.0124577982,-0.0153624546,0.0153118661,-0.0310722068
1.9992330074,-0.0061982637,0.0066194902,-0.0024101634,-0.0250309259,0.0216746908,-0.0279183593
2.0091681480,-0.0060020154,0.0036750801,-0.0035986800,-0.0335911252,0.0237551518,-0.0268634800
2.0189981461,-0.0077894395,0.0036293038,-0.0038967032,-0.0411100313,0.0290495176,-0.0258299075
2.0289909840,0.0001230773,0.0075537930,-0.0051168101,-0.0389890894,0.0291022491,-0.0215821657
2.0389080048,0.0021320221,0.0036206015,-0.0014428395,-0.0368713439,0.0281166118,-0.0141420932
2.0489840508,0.0001411971,0.0045189033,0.0021777849,-0.0336848721,0.0292282160,-0.0120267440
2.0588910580,0.0011129912,0.0035108693,0.0077670319,-0.0314175896,0.0132124964,-0.0119238123
2.0689680576,0.0031076607,-0.0013664594,0.0192035530,-0.0356149971,0.0035790442,-0.0097336285
2.0788969994,0.0031826135,0.0005336174,0.0208550189,-0.0366373844,-0.0007302169,-0.0128926709
2.0889379978,0.0023997363,-0.0005122057,0.0108490689,-0.0195819680,0.0025990007,-0.0139885619
2.0988941193,-0.0051392978,-0.0103672976,0.0000244480,-0.0068515241,0.0123150107,-0.0140596675
2.1088728905,-0.0050440198,-0.0025914542,-0.0136526721,0.0016207900,0.0209218152,-0.0151837878
2.1188778877,-0.0011269513,0.0004252562,-0.0124882357,0.0165527351,0.0210669581,-0.0120091671
2.1288871765,0.0017381844,0.0035056241,-0.0024711986,0.0197778232,0.0178946014,-0.0109284557
2.1389570236,0.0016906199,0.0113929873,0.0063673360,-0.0058349967,0.0187297687,-0.0151659455
2.1489500999,0.0027705666,0.0084582930,0.0043491824,-0.0068970658,0.0176618397,-0.0140958866
2.1588649750,0.0029469070,-0.0012983313,0.0023835998,0.0027323929,0.0176775530,-0.0204749554
2.1689300537,0.0011183557,0.0025996335,-0.0025443335,-0.0036490737,0.0144308936,-0.0193870552
2.1788320541,0.0071175629,-0.0040931334,0.0044174893,-0.0036859587,0.0176645033,-0.0162209570
2.1889140606,0.0063016349,-0.0079593891,0.0054669483,-0.0090247979,0.0186738409,-0.0183485560
2.1988511086,0.0025151905,-0.0069869985,-0.0003853340,-0.0048324494,0.0262278989,-0.0141527457
2.2088470459,-0.0023046199,-0.0060456027,-0.0033194323,-0.0080804406,0.0325973779,-0.0163165629
2.2188439369,-0.0062026447,0.0046259533,-0.0103224413,-0.0230399482,0.0346160531,-0.0163176283
2.2288990021,-0.0042626923,0.0075402032,-0.0085139172,-0.0251537003,0.0324530341,-0.0173645169
2.2388081551,-0.0031974975,0.0036605366,-0.0046696560,-0.0134099582,0.0325369239,-0.0184367057
2.2488260269,0.0007442471,0.0086194044,-0.0036185880,0.0026323912,0.0304870922,-0.0226841811
2.2586579323,-0.0011021260,0.0096729761,-0.0015371341,0.0112535767,0.0219734982,-0.0258208532
2.2688398361,0.0020021137,0.0058882008,0.0015911560,0.0123454724,0.0198261905,-0.0279324725
2.2787981033,0.0041892165,-0.0027557842,0.0038116674,0.0166677833,0.0134468544,-0.0278941244
2.2888698578,-0.0003562037,-0.0085101360,0.0001465183,0.0252436940,0.0102795577,-0.0310667474
2.2987840176,0.0018699702,-0.0063748588,0.0004304152,0.0199454688,0.0059519210,-0.0331630558
2.3088221550,0.0020929810,-0.0023446314,0.0025200944,0.0007166471,0.0068901521,-0.0310309269
2.3187751770,-0.0035422507,0.0035038360,-0.0034235020,-0.0121522807,0.0121799894,-0.0246774256
2.3287720680,-0.0024352137,0.0122726923,-0.0133007662,-0.0132580251,0.0143635143,-0.0183164645
2.3389580250,-0.0052569574,0.0132131344,-0.0154032009,-0.0229155794,0.0186043326,-0.0140896281
2.3487901688,0.0006087956,0.0103109246,-0.0087191360,-0.0292597637,0.0079399701,-0.0055169128
2.3587861061,0.0055002207,0.0025387176,0.0028295021,-0.0248512961,-0.0080762804,-0.0075407820
2.3688440323,0.0114155347,-0.0022680990,0.0172808263,-0.0289696120,-0.0273282714,-0.0052882805
2.3789558411,0.0183666889,-0.0119819874,0.0306838844,-0.0363661423,-0.0359478593,-0.0062881643
2.3887429237,0.0156377498,-0.0130638713,0.0253906939,-0.0256730169,-0.0369611904,-0.0094762342
2.3987269402,0.0080548162,-0.0102977389,0.0094297631,-0.0204444323,-0.0251319632,-0.0053049251
2.4087469578,0.0042809779,-0.0143133039,-0.0005285043,-0.0173738077,-0.0111684762,-0.0000856621
2.4189360142,-0.0093749231,-0.0076702465,-0.0124736326,-0.0133001022,0.0102899438,0.0050815362
2.4287359715,-0.0046491390,0.0030114420,-0.0222788956,-0.0155174509,0.0199010260,0.0060831513
2.4387540817,-0.0067508882,0.0010182032,-0.0136146443,-0.0250989702,0.0187148545,0.0007845259
2.4487061501,-0.0010337296,-0.0028987161,-0.0068927901,-0.0176799372,0.0251850039,0.0007373879
2.4589028358,0.0105386907,-0.0057758321,0.0009033185,-0.0048124753,0.0188554674,-0.0013562564
2.4687519073,0.0114428038,-0.0125887031,0.0087040765,-0.0004867036,0.0124670779,-0.0023802419
2.4786911011,0.0104250843,-0.0096523995,0.0087952120,0.0165776350,0.0147294328,-0.0024032779
2.4887349606,0.0064842636,-0.0125450129,0.0129107339,0.0166234411,0.0083351834,-0.0002370628
2.4988789558,-0.0032292667,-0.0115972990,0.0081538660,0.0101805888,0.0125672128,-0.0002632949
2.5087389946,-0.0043098396,0.0030289658,-0.0015181798,-0.0037695821,0.0231109336,-0.0045714909
2.5186738968,-0.0071655875,-0.0009738437,-0.0113369124,-0.0336919278,0.0261101853,-0.0013814231
2.5286688805,-0.0012606445,-0.0127047533,-0.0114589231,-0.0358040817,0.0249887295,-0.0056222407
2.5388760567,-0.0032893184,-0.0127959484,-0.0078289406,-0.0443544239,0.0259983335,-0.0045593735
2.5487160683,0.0005019244,-0.0138507718,-0.0042450922,-0.0465153158,0.0270958208,0.0007469750
2.5586690903,0.0022497114,-0.0071525206,-0.0008181829,-0.0656565204,0.0163004324,0.0050778072
2.5687110424,-0.0008810821,-0.0044044484,0.0064073903,-0.0506703779,0.0079386383,0.0136206960
2.5786280632,0.0000189182,-0.0074506630,0.0051427586,-0.0250172112,0.0049076951,0.0115000205
2.5886940956,-0.0031452838,0.0051331888,0.0058511598,-0.0217479151,-0.0057004746,0.0179408751
2.5986139774,-0.0022341076,-0.0027309887,0.0067523820,-0.0110731684,-0.0045747561,0.0147381583
2.6086349487,0.0005996760,0.0011437306,-0.0000378389,0.0071058362,-0.0076586967,0.0126206791
2.6186161041,-0.0013316933,-0.0086443657,-0.0037916799,0.0091703190,-0.0001371307,0.0157592129
2.6286079884,0.0004745063,-0.0067047705,-0.0094686048,0.0187049694,0.0074454215,0.0188905578
2.6386561394,-0.0017550352,0.0010824570,-0.0121898549,0.0261022970,0.0150186522,0.0230867695
2.6486279964,-0.0020547870,0.0040117274,-0.0090249078,0.0186254717,0.0139283547,0.0273486264
2.6586408615,-0.0014085833,0.0049887071,-0.0019897718,0.0208117962,0.0075349035,0.0273873731
2.6685869694,0.0002312001,0.0050210129,0.0060237749,0.0208504107,0.0032509428,0.0263527352
2.6786599159,0.0019749340,0.0040609608,0.0081662042,0.0188172199,-0.0064440286,0.0189785771
2.6885800362,0.0068110758,-0.0105623836,0.0074421866,0.0199075192,-0.0096328976,0.0200608857
2.6986420155,0.0057863528,-0.0144630307,0.0037433605,0.0210236497,-0.0128883459,0.0137084480
2.7085890770,-0.0011366371,-0.0125543708,-0.0009918708,0.0252634026,-0.0096400883,0.0147468131
2.7186560631,-0.0003944103,0.0050236355,-0.0047288435,0.0209509451,-0.0043337401,0.0136506557
2.7285850048,-0.0044605797,0.0108524924,-0.0046675699,0.0028403839,-0.0087489951,0.0136919357
2.7385740280,-0.0016371373,0.0127728349,-0.0085618990,0.0006916132,-0.0055904859,0.0104877530
2.7486259937,0.0022373137,0.0098384386,-0.0095525282,-0.0110113826,-0.0078730807,0.0041363798
2.7585940361,0.0012614068,0.0000169644,-0.0058072703,-0.0227246322,-0.0132673141,0.0084271319
2.7685990334,0.0051483447,-0.0136803621,-0.0000642437,-0.0153298313,-0.0067337807,0.0158163384
2.7785611153,-0.0029292468,-0.0001302591,0.0045224531,-0.0196116604,-0.0067337807,0.0200704727
2.7885389328,-0.0012328092,0.0163205042,-0.0055033462,-0.0196255110,-0.0066975616,0.0243198127
2.7986350060,-0.0023775164,0.0152305728,-0.0076127546,-0.0195538700,-0.0131583903,0.0190512817
2.8086600304,-0.0024773541,0.0132148033,-0.0028881331,-0.0131183425,-0.0131903477,0.0094854720
2.8185448647,0.0043642456,0.0054206024,-0.0067421691,0.0082346164,-0.0119948555,0.0041474327
2.8286099434,0.0033994850,0.0044985781,-0.0055814879,0.0252929628,-0.0044903341,-0.0086618401
2.8385229111,-0.0013639394,-0.0003194443,-0.0052932398,0.0402147882,-0.0022247829,-0.0065594073
2.8485889435,0.0026874181,-0.0127942199,-0.0007810492,0.0593959391,0.0042818524,-0.0129893431
2.8585228920,0.0007349190,-0.0018782249,0.0016746622,0.0593602508,0.0064661773,-0.0076923156
2.8685250282,-0.0013069275,0.0119267469,0.0030852656,0.0465376638,0.0064033261,-0.0034333889
2.8785638809,-0.0022822383,0.0120429164,0.0044594510,0.0347832702,0.0073918924,-0.0023699887
2.8885090351,-0.0071223443,0.0139898425,-0.0060214894,0.0273202937,0.0062653748,-0.0023574717
2.8985650539,-0.0061253076,0.0101628667,-0.0047759311,0.0155845415,0.0072060032,-0.0066044144
2.9085021019,-0.0021275345,-0.0033926002,0.0022614102,0.0038764873,0.0038909004,-0.0086995233
2.9185750484,0.0008454558,-0.0062460531,0.0072357757,0.0006885501,0.0006927100,-0.0044252831
2.9284729958,0.0037673053,-0.0032631389,0.0092449291,0.0060835821,-0.0067380420,-0.0033184735
2.9385509491,0.0028087434,-0.0022665493,0.0112181408,0.0050481451,-0.0110126827,-0.0022273762
2.9484820366,0.0018888649,-0.0061710109,0.0121883852,0.0040108440,-0.0163283516,0.0020573833
2.9585330486,-0.0010683897,0.0035315522,0.0062420471,0.0072359322,-0.0195007101,0.0031380942
2.9686119556,-0.0059689051,0.0132191544,0.0002553564,-0.0109678386,-0.0121690258,0.0020408719
2.9788689613,-0.0019808474,0.0073396335,-0.0037374396,-0.0173968431,-0.0090179741,0.0009608271
2.9885900021,0.0000642773,-0.0004811517,-0.0019253392,-0.0205939692,-0.0080102338,-0.0032930402
2.9984989166,0.0020750996,-0.0053805937,0.0046182973,-0.0397334397,-0.0188090857,0.0010395236
3.0083551407,0.0049834782,-0.0112624997,0.0170132015,-0.0248548910,-0.0112033635,0.0020422037
3.0182540417,0.0039510662,-0.0025784604,0.0146885021,-0.0398000181,-0.0123605076,0.0052473182
3.0285160542,-0.0009758535,-0.0008530251,0.0111652715,-0.0568880588,-0.0145584140,0.0137730287
3.0386948586,0.0029021141,-0.0058785309,0.0096919639,-0.0579713024,-0.0103431623,0.0073706564
3.0484549999,-0.0010596875,0.0065833102,0.0021557908,-0.0696529970,-0.0168644451,0.0052963197
3.0584888458,0.0010270413,-0.0111288661,0.0064690812,-0.0728386641,-0.0158860013,-0.0021434866
3.0684480667,0.0040100450,-0.0083650583,0.0018904310,-0.0664132610,-0.0179829728,-0.0031967668
3.0786659718,0.0020931896,-0.0085092420,0.0052037342,-0.0472440869,-0.0135354940,-0.0000502421
3.0884351730,0.0059688324,-0.0065981378,0.0107033951,-0.0281082094,-0.0048189680,0.0020046530
3.0984048843,0.0049519474,-0.0047515263,0.0074702604,-0.0281763859,0.0016328059,0.0062108496
3.1083889008,0.0000412401,-0.0097713703,0.0062114699,-0.0261276178,0.0112859663,0.0082716038
3.1184811592,-0.0020611945,-0.0040239324,0.0040452583,-0.0165486261,0.0145688448,0.0082424423
3.1284360886,-0.0021926824,-0.0021184317,0.0058952076,-0.0175827332,0.0113363005,0.0061393436
3.1384410858,-0.0032541815,-0.0051213135,0.0048160059,-0.0122996857,0.0177944656,0.0071584024
3.1484289169,-0.0023843709,-0.0041920175,0.0009253722,-0.0006004199,0.0221782941,0.0092465868
3.1584160328,-0.0005844894,-0.0032344691,-0.0009156365,0.0068328618,0.0254750215,0.0134712923
3.1682281494,0.0002337929,-0.0090986127,-0.0007369418,0.0142817236,0.0287299361,0.0123825911
3.1784520149,0.0029542383,-0.0061693420,-0.0044029849,0.0195831452,0.0330469236,0.0123505015
3.1883759499,0.0037305292,-0.0041672220,-0.0031205316,0.0292616040,0.0256129727,0.0092047751
3.1983919144,0.0035279330,-0.0050415029,0.0098921163,0.0250976197,0.0106611885,0.0135506550
3.2083630562,0.0042934353,-0.0039878716,0.0208540652,0.0219484307,0.0021318826,0.0189201199
3.2183179855,0.0031172570,0.0047670375,0.0151727302,0.0219496302,0.0031763739,0.0167915896
3.2285940647,-0.0077950126,0.0065983902,0.0083912713,0.0079824161,0.0116731897,0.0231205914
3.2396168709,-0.0118289059,-0.0023024909,-0.0002588529,0.0110907238,0.0244931132,0.0198492967
3.2485570908,-0.0091316467,0.0035101541,-0.0089132087,-0.0017180154,0.0243940465,0.0198588837
3.2584638596,-0.0113344854,-0.0014316073,-0.0020786424,-0.0112828920,0.0189806372,0.0198984332
3.2683558464,-0.0067448085,-0.0023743145,0.0116216643,-0.0101997843,0.0179020576,0.0177798886
3.2786798477,-0.0031402770,0.0141533976,0.0085870726,-0.0101607693,0.0146641852,0.0146159194
3.2897520065,-0.0042844182,0.0111374026,0.0103672249,-0.0218704194,0.0103075206,0.0157147385
3.2987799644,-0.0033849541,0.0002851853,0.0092165573,-0.0250206739,0.0059636384,0.0104326252
3.3089549541,-0.0014903012,0.0011707315,0.0060507758,-0.0271061957,-0.0004561776,0.0115381032
3.3186609745,-0.0035952094,0.0050091515,0.0154931648,-0.0356026143,-0.0058634598,0.0115779182
3.3281440735,-0.0037392441,0.0126856929,0.0121839745,-0.0388274342,-0.0047832821,0.0158227310
3.3383340836,-0.0086710220,0.0144274598,0.0039199693,-0.0538131744,0.0014860658,0.0126054985
3.3482089043,-0.0126281744,0.0092924600,-0.0034773250,-0.0634495541,0.0046269982,0.0136542516
3.3581280708,-0.0049133366,0.0081494814,-0.0088819163,-0.0624019988,0.0088710114,0.0093778800
3.3681900501,-0.0011807445,0.0090209013,-0.0006230969,-0.0548599325,0.0003789898,0.0094276816
3.3781499863,0.0006666419,0.0040635834,0.0106677515,-0.0473960191,0.0025484010,0.0062205703
3.3881931305,-0.0032747451,0.0058625708,0.0102202995,-0.0452298075,0.0003912405,0.0019834810
3.3981230259,-0.0013329450,0.0096574193,0.0078193648,-0.0419923365,-0.0017675181,-0.0033163428
3.4082009792,-0.0012594226,0.0095605617,0.0045247180,-0.0324036255,0.0025364163,-0.0086629055
3.4183399677,-0.0010927680,0.0046469341,0.0023738842,-0.0196240451,0.0079389047,-0.0140213184
3.4280960560,-0.0018826488,0.0036443837,-0.0065101283,-0.0079514105,0.0176210944,-0.0172794294
3.4381551743,-0.0017134908,0.0036590465,-0.0142328041,0.0058522867,0.0283762682,-0.0216068011
3.4480948448,-0.0026506546,0.0095923310,-0.0131211178,0.0121812886,0.0359431095,-0.0174107235
3.4581499100,0.0003103849,0.0058011780,-0.0060337083,0.0121101821,0.0444945171,-0.0174669158
3.4680929184,0.0022368964,0.0078763133,0.0029586654,0.0078371409,0.0444705524,-0.0164013859
3.4781520367,0.0031889018,0.0098953610,0.0041161878,0.0131176561,0.0498890169,-0.0121893305
3.4880671501,0.0051914984,0.0070163975,-0.0024328728,0.0162828229,0.0552393086,-0.0143510178
3.4980750084,0.0042640502,0.0090388423,-0.0041426914,0.0142111499,0.0508749187,-0.0228201374
3.5080959797,0.0053597623,0.0013433466,-0.0028246541,0.0131365638,0.0529769510,-0.0260201916
3.5181200504,0.0103481049,-0.0023744933,0.0053302748,0.0099817831,0.0475994982,-0.0270455070
3.5280690193,0.0114977891,-0.0081040496,0.0075957282,0.0121250954,0.0486394614,-0.0323657021
3.5380978584,0.0096735591,-0.0031339757,0.0039203269,0.0131533425,0.0518858582,-0.0292026661
3.5480561256,0.0029916104,-0.0069936742,0.0050724847,0.0088944156,0.0497334898,-0.0270609520
3.5580949783,-0.0008413258,-0.0010915032,0.0022941332,0.0078216940,0.0518317930,-0.0302591436
3.5680329800,0.0021749374,0.0068076621,-0.0004762906,-0.0049801208,0.0517146140,-0.0323742256
3.5780680180,0.0043124789,0.0020205744,0.0044525368,-0.0220567100,0.0515769273,-0.0334255099
3.5879778862,0.0074481005,-0.0028073422,0.0006198984,-0.0039426871,0.0559831262,-0.0345291235
3.5980610847,0.0027618047,0.0030595430,-0.0109919803,0.0088193147,0.0635252073,-0.0388355851
3.6080110073,0.0019099650,0.0021940239,-0.0078080194,0.0120041883,0.0635952428,-0.0335263088
3.6180620193,0.0049364800,-0.0054460396,0.0003835660,0.0162330214,0.0647800863,-0.0239762142
3.6280021667,0.0020514664,-0.0063209762,0.0045964820,0.0173057429,0.0637286678,-0.0229077544
3.6380100250,-0.0018144611,-0.0014013281,-0.0010115999,0.0076652337,0.0679268688,-0.0229270626
3.6480410099,-0.0008848372,0.0094142919,0.0010597211,-0.0071904110,0.0571240298,-0.0228466336
3.6579830647,0.0011563536,0.0036442049,0.0032100778,0.0088382224,0.0561570339,-0.0249743666
3.6681530476,0.0051356787,0.0037519701,0.0005679827,0.0131834354,0.0465805717,-0.0238529108
3.6780869961,0.0004035171,-0.0030382506,-0.0001736183,0.0068112910,0.0422619916,-0.0238233488
3.6881120205,0.0034846303,-0.0048990478,-0.0038282771,0.0132454876,0.0390962921,-0.0248697065
3.6981930733,0.0036023792,-0.0028149716,-0.0026076932,0.0186776705,0.0284313969,-0.0269287284
3.7080740929,0.0018693444,-0.0143991942,0.0025809507,0.0218553543,0.0306117255,-0.0248203035
3.7181358337,0.0058646435,-0.0093866820,0.0028807621,0.0154227540,0.0316825844,-0.0184470918
3.7280900478,0.0000622209,-0.0025379888,-0.0009447832,0.0026086885,0.0326431878,-0.0195067637
3.7381539345,0.0021019217,-0.0035030476,-0.0057609575,-0.0134553649,0.0368408598,-0.0142114684
3.7480921745,0.0011464593,-0.0064398875,-0.0038943787,-0.0273314994,0.0367335342,-0.0142010823
3.7581620216,0.0011494991,-0.0055191149,-0.0069569247,-0.0263261572,0.0410875380,-0.0057300990
3.7680768967,0.0010628041,-0.0036254160,-0.0080316560,-0.0209697410,0.0379407443,-0.0035886511
3.7781009674,-0.0009979072,-0.0017304054,-0.0090779560,-0.0135295354,0.0391277187,0.0038366413
3.7880840302,0.0017706093,-0.0046442379,-0.0041012065,0.0003362140,0.0392622091,0.0070132595
3.7981350422,-0.0003678862,-0.0026924245,-0.0038999815,0.0259536915,0.0394582152,0.0059282882
3.8080520630,-0.0005062285,-0.0016678205,-0.0054611461,0.0324142538,0.0330863371,0.0049027046
3.8181409836,-0.0016202990,-0.0025555126,-0.0021366377,0.0292168632,0.0330498517,0.0038440982
3.8280448914,0.0012646851,-0.0093034143,-0.0036550064,0.0313937329,0.0287733469,0.0017455271
3.8381040096,-0.0027467969,-0.0043667783,-0.0043110149,0.0314122401,0.0276809186,-0.0003694221
3.8480370045,-0.0038098458,-0.0013674131,-0.0049393075,0.0314194299,0.0255706292,0.0028314311
3.8580598831,-0.0009744826,-0.0012939802,-0.0064835446,0.0271517150,0.0234401003,0.0070959511
3.8680229187,-0.0050045615,-0.0022732846,-0.0082211988,0.0143871848,0.0159052182,0.0124656819
3.8780970573,-0.0032163325,-0.0042014350,-0.0041302340,0.0090708500,0.0116265845,0.0167460497
3.8880128860,-0.0043956107,-0.0032525889,-0.0011876125,-0.0100738155,0.0039787847,0.0146842301
3.8980379105,-0.0036087099,0.0005700954,-0.0013328093,-0.0142902657,-0.0045590433,0.0200546253
3.9080500603,-0.0008490446,0.0005066761,0.0004790526,-0.0270622540,-0.0078914566,0.0168979820
3.9179999828,-0.0019615057,0.0032937296,-0.0008556146,-0.0365415104,-0.0250323601,0.0202000365
3.9280629158,0.0028397080,-0.0016696086,0.0008250576,-0.0257956535,-0.0324580520,0.0170535110
3.9379930496,0.0007840630,0.0021081932,-0.0014869469,-0.0289781317,-0.0356692933,0.0202674121
3.9479951859,0.0007278856,0.0010160574,-0.0018102427,-0.0300332755,-0.0367553309,0.0192128010
3.9579670429,-0.0012505117,-0.0001242390,-0.0080333846,-0.0289716069,-0.0356866010,0.0181423444
3.9680099487,-0.0012682739,-0.0022199980,-0.0152049558,-0.0311716441,-0.0261207949,0.0138322841
3.9779958725,-0.0003825489,-0.0033149950,-0.0126614468,-0.0450629592,-0.0251423493,0.0159609485
3.9881410599,0.0005254385,-0.0112518901,-0.0062883394,-0.0493764803,-0.0198317394,0.0159295239
3.9979948997,0.0042972798,-0.0084437365,-0.0067120688,-0.0398053452,-0.0154819982,0.0158943702
4.0080509186,-0.0006745222,-0.0086441273,-0.0081680315,-0.0526598953,-0.0091868183,0.0137377419
4.0179800987,0.0011162695,-0.0088067884,-0.0086417692,-0.0516106039,-0.0091316905,0.0190478191
4.0279870033,0.0018956598,-0.0069917669,-0.0061468976,-0.0388210416,-0.0079367310,0.0222183131
4.0379118919,0.0026017067,0.0006976494,-0.0064020054,-0.0132186105,-0.0066530872,0.0243175477
4.0480909348,-0.0005256895,0.0025262602,-0.0113894837,-0.0067860121,-0.0108603491,0.0264651217
4.0579619408,-0.0026933018,0.0004873046,-0.0104252594,0.0028216094,-0.0118350666,0.0285887271
4.0679631233,-0.0009493593,0.0004629859,-0.0113078849,0.0135498876,-0.0171233043,0.0254283529
4.0779819489,0.0027796861,-0.0053704013,-0.0072079198,0.0200473350,-0.0288204420,0.0265619271
4.0879468918,0.0035946306,-0.0072678556,0.0027082067,0.0147910537,-0.0374386944,0.0234343112
4.0979709625,0.0082539553,-0.0033439032,0.0076212985,0.0062630791,-0.0417167954,0.0309050120
4.1079378128,0.0099908644,-0.0014482966,0.0075689061,-0.0000832332,-0.0492383614,0.0320206098
4.1181111336,0.0039771134,0.0013048419,-0.0013934274,-0.0001099985,-0.0470782742,0.0341291651
4.1281538010,0.0018298563,0.0011414656,-0.0064820545,-0.0214629583,-0.0482758991,0.0384014100
4.1380009651,-0.0013644162,0.0028990873,-0.0049686925,-0.0406254679,-0.0548283421,0.0405867994
4.1479601860,0.0012971696,0.0007804998,-0.0015194315,-0.0416997857,-0.0548184887,0.0427122675
4.1579742432,0.0000301238,0.0025216111,0.0008387070,-0.0566651523,-0.0527880900,0.0427053422
4.1679100990,-0.0041551357,0.0012444028,0.0058420403,-0.0907954276,-0.0562584549,0.0427516811
4.1779398918,-0.0005350474,0.0028728612,0.0058116419,-0.0896956772,-0.0594704933,0.0417118520
4.1879029274,0.0021443900,0.0016190776,0.0069059236,-0.0715257227,-0.0593935288,0.0342619233
4.1979670525,-0.0029667381,0.0081267720,0.0059741838,-0.0864882991,-0.0573687293,0.0342577957
4.2078609467,-0.0069456166,-0.0000325671,0.0011350018,-0.0864954889,-0.0552584417,0.0310569443
4.2179012299,-0.0070062345,-0.0012810460,-0.0055146115,-0.0598372445,-0.0476620384,0.0203654170
4.2279052734,-0.0100607937,0.0102370149,-0.0091228979,-0.0513369665,-0.0412198529,0.0160681400
4.2379169464,-0.0062412089,0.0091581112,-0.0027958055,-0.0460193008,-0.0390355252,0.0171143636
4.2478380203,-0.0033316973,0.0061405669,-0.0012373227,-0.0257111005,-0.0389511064,0.0086005041
4.2578940392,-0.0044098562,0.0187565461,0.0003492337,-0.0214957148,-0.0325027928,0.0085542984
4.2678642273,-0.0034391347,0.0128363138,0.0039792163,-0.0268763639,-0.0292926207,0.0138491951
4.2778682709,-0.0024197761,0.0058859955,0.0007391077,-0.0300603081,-0.0283176359,0.0064111194
4.2878880501,-0.0092105633,0.0018295416,-0.0015827316,-0.0311716441,-0.0229822583,0.0063772975
4.2978477478,-0.0101520484,0.0037133463,-0.0000217456,-0.0407973751,-0.0188242644,0.0010437842
4.3078389168,-0.0110225147,-0.0012480250,0.0005877119,-0.0354449525,-0.0177776441,-0.0064034793
4.3179059029,-0.0079882508,0.0016693840,0.0031890969,-0.0290662833,-0.0113868555,-0.0149491634
4.3278350830,-0.0009993080,0.0036247738,-0.0009479422,-0.0259290822,-0.0038719480,-0.0139376950
4.3378448486,0.0021295485,-0.0002856484,-0.0040761130,-0.0248547606,-0.0028349131,-0.0181928948
4.3478307724,0.0002757248,0.0026240714,-0.0042679803,-0.0068054525,0.0069692484,-0.0129571194
4.3579020500,0.0013262865,0.0104545122,-0.0062567489,-0.0057660192,0.0133232828,-0.0215010736
4.3678092957,-0.0034329954,0.0192171112,-0.0102928178,-0.0089679379,0.0112063382,-0.0161731523
4.3778762817,0.0016837951,0.0046877633,-0.0043387311,-0.0014686109,0.0101471981,-0.0214820299
4.3878011703,0.0057831937,0.0019193062,0.0045736535,0.0113944570,0.0048754709,-0.0246440005
4.3978009224,0.0108885700,-0.0027818910,0.0135786636,0.0178748593,-0.0046852771,-0.0235237442
4.4078149796,0.0101140374,-0.0065554013,0.0196204875,0.0199976657,-0.0056831641,-0.0171444062
4.4178552628,0.0073285932,-0.0026043288,0.0148781640,0.0199858155,-0.0056530703,-0.0139588676
4.4277329445,0.0015660760,0.0032506951,0.0091099245,0.0113976542,-0.0014079914,-0.0097308327
4.4378547668,0.0006633934,0.0022666224,0.0052284701,-0.0046328455,-0.0025246548,-0.0001481134
4.4477829933,-0.0013185206,0.0061205993,0.0031765203,-0.0121099362,-0.0015227736,-0.0012117799
4.4578099251,-0.0042610830,0.0089654094,-0.0018870730,-0.0206588171,-0.0015651179,0.0009164852
4.4677677155,-0.0033221308,0.0059879790,0.0017919642,-0.0313309021,-0.0026982930,0.0030560689
4.4778280258,0.0044578249,0.0001437434,0.0093641980,-0.0291303322,-0.0091287615,-0.0011541224
4.4877510071,0.0064884061,-0.0018382898,0.0120101077,-0.0215395242,-0.0198397301,-0.0106514869
4.4978160858,0.0115048820,-0.0056962003,0.0167561267,-0.0087178685,-0.0208197720,-0.0117158201
4.5077409744,0.0126790339,-0.0134700770,0.0205526445,-0.0043199230,-0.0368085913,-0.0105528180
4.5177769661,0.0021207568,-0.0096532339,0.0192719195,-0.0171841905,-0.0294406898,-0.0116515048
4.5277409554,-0.0016831819,0.0038862594,0.0052468283,-0.0237060040,-0.0176799055,-0.0053488673
4.5377292633,-0.0054774350,0.0037660368,-0.0009450216,-0.0333928540,-0.0091801602,-0.0032754634
4.5476522446,-0.0122631555,0.0094492203,-0.0092151063,-0.0441509597,-0.0006766872,0.0009264725
4.5577907562,-0.0045226878,0.0123030310,-0.0115464823,-0.0473841727,0.0025183072,0.0030350301
4.5677218437,-0.0064874059,0.0082918173,-0.0080748694,-0.0463223681,0.0056784134,-0.0033605513
4.5777821541,0.0032567021,0.0005144247,0.0043507321,-0.0366307274,-0.0038820682,-0.0054310258
4.5876231194,0.0072112614,-0.0062960018,0.0167609546,-0.0280233920,-0.0092230374,-0.0128391404
4.5977430344,0.0054371590,-0.0102365846,0.0184278581,-0.0290590934,-0.0114054978,-0.0170735680
4.6076369286,0.0017523405,-0.0083812708,0.0102686984,-0.0194472112,-0.0123908678,-0.0160114989
4.6177568436,0.0030022499,-0.0142011875,0.0053467853,0.0040107099,-0.0079614986,-0.0192437768
4.6278061867,-0.0037200216,-0.0044649472,0.0032705169,-0.0099122962,-0.0069004945,-0.0075546303
4.6377010345,-0.0027184251,0.0004201898,0.0060544712,-0.0185145717,0.0005177406,-0.0075983061
4.6477560997,-0.0046510166,0.0091230040,-0.0048879879,-0.0186373442,0.0133877322,-0.0023697221
4.6576728821,-0.0046288138,0.0041674743,-0.0098759430,-0.0197509453,0.0187297668,-0.0013400109
4.6678791046,-0.0056262976,-0.0017279616,-0.0060806768,-0.0198300406,0.0283483062,-0.0014023290
4.6776680946,0.0001838144,-0.0036895506,-0.0071502225,-0.0219650976,0.0293770861,-0.0045965244
4.6876511574,-0.0008461240,-0.0046719541,-0.0004303355,-0.0101007139,0.0145057272,-0.0045083738
4.6977119446,0.0011068818,-0.0124102468,0.0104400022,0.0144606885,0.0125749353,-0.0023875653
4.7078838348,0.0039546723,-0.0035113923,0.0155142648,0.0252134688,0.0051311343,-0.0076587601
4.7176418304,0.0029984948,-0.0015047422,0.0147676570,0.0295284539,-0.0022740513,-0.0023006131
4.7276420593,0.0059412951,-0.0004342428,0.0121451123,0.0316509902,-0.0011797585,-0.0012468004
4.7376699448,-0.0008544687,-0.0004710785,0.0035918455,0.0219512284,0.0084012300,0.0029471456
4.7478661537,-0.0037133757,-0.0083281631,-0.0088894265,0.0079416689,0.0232832395,0.0060475976
4.7576861382,-0.0076729124,-0.0084052915,-0.0157211926,-0.0123861069,0.0305704474,0.0017653680
4.7676191330,-0.0048187738,-0.0074673523,-0.0186847951,-0.0209516324,0.0337105803,0.0017509870
4.7776799202,0.0028631922,-0.0132427448,-0.0060097473,-0.0166211985,0.0262638498,0.0017955946
4.7878332138,0.0036250588,-0.0044227471,0.0085193617,-0.0080346344,0.0209772084,0.0007614894
4.7976198196,0.0093219811,0.0034176477,0.0114744408,0.0037743542,0.0104340212,0.0071964855
4.8076429367,0.0082973177,-0.0004716149,0.0135212643,0.0123854196,0.0029918172,0.0040515587
4.8175501823,0.0072601670,-0.0014432302,0.0146626337,0.0220060889,-0.0011539257,0.0104458090
4.8277769089,0.0013446447,-0.0024599663,0.0070602400,0.0262335911,0.0031721133,0.0125395861
4.8375878334,-0.0016611281,0.0014027724,-0.0025184650,0.0101831183,0.0083809895,0.0114555452
4.8476181030,-0.0037543240,0.0072189341,-0.0054023163,-0.0069021257,0.0082670068,0.0135929994
4.8576049805,-0.0067057973,-0.0074936380,-0.0053861635,-0.0111816917,0.0113967536,0.0082628150
4.8677167892,-0.0039231246,-0.0016687742,-0.0074168341,-0.0090644788,0.0135507183,0.0082473680
4.8776040077,-0.0021744731,0.0031719573,-0.0036307473,-0.0186384097,0.0081618112,0.0114752539
4.8875918388,-0.0023467604,-0.0008045069,0.0001527172,-0.0144548491,0.0178314820,0.0135344090
4.8975858688,-0.0044475263,0.0020053752,-0.0077770250,-0.0102012493,0.0210435223,0.0103234360
4.9074649811,-0.0074980920,0.0048263441,-0.0137141841,-0.0102049764,0.0231447555,0.0060602482
4.9188251495,-0.0046636229,0.0048300396,-0.0127215283,-0.0090542259,0.0145707084,0.0029305008
4.9275321960,-0.0057272082,0.0087671047,-0.0001202721,-0.0121530788,0.0048640193,-0.0044411290
4.9375438690,0.0011139449,0.0107834702,0.0018447739,-0.0024931282,-0.0014753693,-0.0044061085
4.9475507736,0.0022022065,0.0068920623,-0.0001097221,-0.0024736878,-0.0046634395,-0.0022606659
4.9575529099,-0.0026251141,0.0107679134,-0.0031034250,0.0017773835,-0.0024910988,-0.0022786423
4.9675278664,-0.0034745696,0.0029235848,-0.0108711617,-0.0024852725,-0.0025422317,-0.0044001164
4.9775781631,-0.0063387817,0.0009394058,-0.0128810899,-0.0089084171,-0.0014966747,-0.0012148423
4.9875679016,-0.0015037123,0.0068417559,-0.0080854790,-0.0163186621,-0.0090355510,-0.0011607802
4.9975581169,0.0005043384,0.0068574916,-0.0052768486,-0.0130791944,-0.0122451931,-0.0043288767
5.0074501038,0.0044386620,0.0049627195,0.0043808920,-0.0119747818,-0.0175624602,-0.0021703849
5.0175428391,0.0025306877,0.0058987509,0.0051757200,-0.0141119678,-0.0175741781,-0.0021711835
5.0275130272,0.0016861793,0.0019402275,-0.0018081564,-0.0087944344,-0.0143448282,-0.0043206210
5.0375280380,0.0008221504,-0.0029905669,-0.0068024890,-0.0152153149,-0.0133037996,-0.0011330834
5.0475397110,-0.0001566473,-0.0049471487,-0.0000982780,-0.0131031629,-0.0121823419,0.0031077340
5.0574660301,0.0017329988,-0.0000642172,0.0027597051,-0.0024640998,-0.0078275409,0.0020065173
5.0674529076,-0.0051672822,0.0134986406,-0.0061988728,-0.0067986613,-0.0003704238,0.0030235783
5.0774888992,-0.0031496945,-0.0001918903,-0.0062070983,-0.0099686217,-0.0046621077,0.0041165398
5.0875201225,-0.0032335881,0.0046745907,-0.0024138589,-0.0078199841,-0.0046818154,-0.0001343980
5.0975060463,-0.0013173881,0.0076001654,-0.0015057225,-0.0035486715,-0.0056991428,0.0019938671
5.1075139046,0.0006853875,0.0027693876,0.0024317007,0.0029150862,-0.0099878972,-0.0054195742
5.1174478531,-0.0001879099,0.0037741431,0.0014932853,0.0071610971,-0.0046647713,-0.0118318014
5.1274590492,0.0019148227,0.0038055547,-0.0052801268,0.0018222583,-0.0036554330,-0.0139594004
5.1374821663,0.0021220383,-0.0029745928,-0.0033209820,-0.0013382491,-0.0069255284,-0.0181841049
5.1474571228,0.0032733616,-0.0058306684,-0.0013235707,0.0103839207,-0.0057388237,-0.0150128137
5.1574721336,0.0023794409,0.0001167425,0.0046090586,0.0125268335,-0.0067897076,-0.0150081534
5.1674642563,-0.0014472071,0.0040603052,0.0075734360,0.0060947668,-0.0067668045,-0.0065046791
5.1774020195,-0.0004120234,0.0079723960,0.0046270592,-0.0013752664,-0.0068301875,-0.0075631524
5.1873941422,-0.0041456884,0.0021021136,0.0016476016,-0.0077412874,-0.0090715038,-0.0139185200
5.1973919868,-0.0039426452,-0.0018106332,-0.0004345674,-0.0141535141,-0.0070072878,-0.0160494484
5.2074022293,-0.0008674029,0.0011622080,-0.0014870065,-0.0055970438,-0.0069865147,-0.0213675145
5.2174401283,0.0041900212,0.0002719530,0.0013705592,-0.0194065981,-0.0166788232,-0.0170441382
5.2274160385,-0.0004877809,-0.0065671434,0.0070627434,-0.0076878909,-0.0154830646,-0.0128105124
5.2374582291,0.0084285969,-0.0045326580,0.0050875051,-0.0001725834,-0.0228597540,-0.0074566258
5.2474431992,0.0046015019,-0.0025721423,0.0108020408,-0.0076195812,-0.0271652862,-0.0042363317
5.2573871613,0.0056160921,-0.0006150833,0.0136087639,-0.0033992697,-0.0228206050,-0.0000181510
5.2673988342,0.0056908363,-0.0006615153,0.0085527999,-0.0258795433,-0.0155038368,0.0010124922
5.2774362564,0.0009019610,-0.0076478352,0.0052363379,-0.0408678167,-0.0102741867,0.0009882574
5.2874097824,0.0019412276,-0.0096878046,-0.0018850465,-0.0217340700,0.0015851352,-0.0044139647
5.2974090576,-0.0009353522,-0.0107369060,-0.0068969624,-0.0089899097,0.0091756769,-0.0023434900
5.3074178696,-0.0019464556,-0.0126821036,-0.0029975076,0.0015945574,0.0189039372,0.0007732075
5.3173351288,-0.0001611773,-0.0058211316,-0.0018744369,0.0143164778,0.0275943652,0.0049549025
5.3274202347,-0.0003003839,-0.0038504235,-0.0007013578,0.0186265372,0.0222928114,0.0060486626
5.3374109268,0.0014844474,-0.0037698976,0.0083356602,0.0196871422,0.0233636685,0.0049771401
5.3474187851,0.0062182480,-0.0027256242,0.0115175946,0.0175981577,0.0169529058,0.0071449536
5.3573851585,0.0022959646,-0.0134752626,0.0107702715,0.0218859799,0.0148471454,0.0071562715
5.3674111366,0.0012293395,-0.0095705623,0.0032211046,0.0271843392,0.0191723853,0.0081869150
5.3773927689,0.0000670489,-0.0017291537,0.0034906964,0.0239909440,0.0170320012,0.0103259664
5.3873929977,-0.0019785229,-0.0095162028,0.0037956338,0.0207256414,0.0234467573,0.0134738237
5.3973898888,-0.0031653706,-0.0085736150,0.0020529132,0.0089241089,0.0287427194,0.0187607296
5.4074029922,-0.0063579744,0.0011101732,-0.0037593741,0.0024987003,0.0308396928,0.0198140107
5.4172568321,-0.0056339866,0.0039769183,-0.0075809257,0.0057522841,0.0255016536,0.0177220982
5.4273462296,-0.0039616888,0.0049607526,-0.0006137986,0.0122077866,0.0180972666,0.0209527779
5.4373650551,0.0026104089,0.0021134384,0.0093798144,0.0155006517,0.0074270461,0.0199566223
5.4472837448,0.0034001705,-0.0017606845,0.0154695613,0.0240781605,0.0053013107,0.0135900695
5.4573812485,0.0042253667,0.0031498440,0.0127856238,0.0251550116,0.0052863965,0.0114671309
5.4673233032,-0.0006776515,-0.0047123660,0.0090490682,0.0080817509,0.0061868113,0.0072236499
5.4773178101,-0.0065392619,-0.0057593812,0.0012843113,0.0070083644,0.0093312059,0.0008292668
5.4873061180,-0.0094888275,0.0000417599,-0.0074728625,0.0038290825,0.0061093136,0.0019147713
5.4974889755,-0.0095693534,0.0020148524,-0.0025904079,-0.0079125287,0.0039273859,0.0072485497
5.5073199272,-0.0058108931,0.0039738785,0.0051184995,-0.0228384808,0.0016743513,0.0072735837
5.5172929764,-0.0058829850,0.0048476825,0.0057762964,-0.0431152545,0.0015079039,0.0062266951
5.5272932053,0.0008876559,0.0018196473,0.0053052409,-0.0654831454,-0.0040181554,0.0052157594
5.5373148918,0.0028155681,-0.0051580896,0.0095633371,-0.0654630363,-0.0072096880,0.0062960708
5.5473232269,0.0018477675,-0.0082820887,0.0040805442,-0.0568887256,-0.0114185475,0.0063173757
5.5573081970,-0.0001776877,-0.0015934339,0.0035463076,-0.0430465490,-0.0080856010,0.0084102210
5.5671229362,0.0006187495,0.0100196367,0.0031855206,-0.0260188263,-0.0046839458,0.0158130098
5.5770397186,-0.0034038487,0.0069406400,-0.0009748239,-0.0282676015,0.0071008084,0.0210501160
5.5880141258,-0.0046087867,0.0067781578,-0.0031716723,-0.0294408575,0.0178285539,0.0273584798
5.5973210335,-0.0039125746,0.0085888272,-0.0082361000,-0.0145299518,0.0222118497,0.0262563303
5.6072740555,-0.0060886806,0.0045767794,-0.0140704410,0.0025323895,0.0255229585,0.0230357684
5.6172437668,-0.0044568842,0.0055435072,-0.0051750438,0.0014539417,0.0276348442,0.0208976511
5.6272258759,0.0001347598,0.0046184431,0.0037796597,0.0057426966,0.0265719779,0.0177143738
5.6372537613,-0.0000955526,0.0123880869,0.0018808347,0.0025865845,0.0243357196,0.0092327381
5.6472458839,0.0007940170,0.0113956695,-0.0018799800,0.0133111347,0.0211487152,0.0018091768
5.6572241783,-0.0001203183,0.0026319392,-0.0046031969,0.0111981826,0.0221205056,-0.0077576963
5.6672210693,0.0009673771,-0.0041470756,-0.0063426392,0.0112365317,0.0199287236,-0.0141178574
5.6772079468,-0.0028255049,-0.0021715991,-0.0082008140,0.0134012820,0.0167297348,-0.0151608847
5.6872158051,-0.0017538730,0.0008798012,-0.0050544040,0.0144859878,0.0166927166,-0.0204733592
5.6972088814,-0.0007059339,0.0048824917,-0.0000771779,-0.0036251042,0.0101868799,-0.0151073560
5.7072000504,-0.0007192853,0.0107608205,0.0075862510,-0.0249479692,0.0036818420,-0.0065511512
5.7171511650,-0.0036003652,0.0184706822,0.0014142495,-0.0227916092,0.0025976691,-0.0097304331
5.7271947861,-0.0025255445,0.0203499570,-0.0076221721,-0.0334549062,0.0003957676,-0.0075839255
5.7371850014,-0.0034428302,0.0154186254,-0.0020657678,-0.0344774276,-0.0060048737,-0.0054178433
5.7471742630,0.0005842384,0.0066042314,-0.0032543440,-0.0281031523,-0.0006479251,-0.0097065978
5.7571811676,0.0007193622,0.0056203376,-0.0025027890,-0.0238101333,-0.0017214452,-0.0139514105
5.7671737671,0.0018981632,-0.0021982423,-0.0045946734,-0.0174409188,0.0026029958,-0.0139839007
5.7771639824,0.0040029222,-0.0041075577,-0.0017545123,-0.0088787237,0.0026080557,-0.0214278363
5.7871608734,0.0041964585,-0.0001695386,-0.0028150578,-0.0045883711,0.0025867503,-0.0278050415
5.7971677780,0.0034452912,0.0018581519,-0.0009169478,-0.0035392186,0.0047337906,-0.0278203543
5.8071708679,0.0046476657,0.0019230613,-0.0018945236,-0.0025173640,0.0090441173,-0.0246618446
5.8171219826,0.0028656658,0.0039276849,-0.0008818406,0.0070168860,0.0176743567,-0.0236606300
5.8271198273,0.0020436284,0.0078568822,-0.0096039074,0.0037886025,0.0187635906,-0.0183534827
5.8371000290,0.0022135612,0.0010610590,-0.0075879591,-0.0143544478,0.0186157823,-0.0194030348
5.8471431732,-0.0005968574,-0.0008724562,-0.0018804568,-0.0293051712,0.0206104927,-0.0225927029
5.8571319580,0.0054098899,-0.0057195653,0.0008736950,-0.0324258618,0.0099155027,-0.0203958601
5.8671207428,0.0056133205,-0.0086667174,0.0015801291,-0.0291605592,0.0035007473,-0.0235437173
5.8771271706,0.0076983208,-0.0037647716,0.0052048070,-0.0279970244,-0.0103375707,-0.0181436259
5.8871240616,0.0088617140,-0.0037606589,0.0059194071,-0.0257708877,-0.0210173801,-0.0191383157
5.8971080780,0.0042054588,-0.0018472901,0.0075101359,-0.0300129037,-0.0242589787,-0.0191131476
5.9071321487,0.0024673876,-0.0019157162,0.0022470455,-0.0343155041,-0.0231598914,-0.0116805332
5.9171018600,0.0007514891,-0.0068912734,-0.0039861696,-0.0386338234,-0.0167928059,-0.0138464812
5.9270868301,-0.0108064478,0.0016903648,-0.0162460115,-0.0397907011,-0.0071553597,-0.0107209962
5.9370889664,-0.0058722561,0.0065412293,-0.0185297038,-0.0313182548,-0.0006404683,-0.0065197260
5.9470939636,-0.0019990269,0.0065591107,-0.0089852111,-0.0292095598,0.0004900435,-0.0012165734
5.9571170807,0.0008606252,0.0055705081,-0.0014073153,-0.0313564688,0.0015531774,0.0009063655
5.9671130180,0.0018469330,0.0015887985,-0.0016556878,-0.0270357560,-0.0058677206,0.0041386439
5.9771099091,0.0028940078,-0.0082056755,-0.0037333865,-0.0067379419,-0.0057561342,-0.0011882109
5.9871058464,-0.0000235501,-0.0062627424,-0.0018228788,0.0071152905,-0.0024516841,-0.0022817049
5.9971790314,0.0077678198,-0.0012745491,0.0012850267,0.0199887455,-0.0108891111,-0.0011756939
6.0070090294,0.0058184201,-0.0021633140,0.0082962615,0.0200047232,-0.0140681267,0.0020320835
6.0170898438,0.0048475498,0.0017737517,0.0084238155,0.0125927469,-0.0195097625,-0.0021750452
6.0270891190,-0.0037688080,-0.0080555910,0.0035626392,0.0029422501,-0.0142404325,-0.0022024759
6.0370550156,-0.0017191831,-0.0090382332,-0.0032983322,-0.0066649709,-0.0132686449,-0.0053914776
6.0470280647,-0.0007005993,-0.0031864874,-0.0044060247,-0.0163506214,-0.0037244088,-0.0054466054
6.0570349693,0.0013638076,-0.0119738216,-0.0035432477,-0.0249578226,0.0047526993,-0.0065591410
6.0670318604,-0.0005479220,-0.0130157704,-0.0028320451,-0.0303280894,0.0079357093,-0.0044512488
6.0770249367,-0.0015424255,-0.0101365680,-0.0011280078,-0.0249391831,0.0015683577,-0.0033487002
6.0870132446,-0.0006340507,-0.0052584638,0.0074303849,-0.0216312706,-0.0133237727,0.0020575167
6.0970139503,0.0060814554,-0.0003321996,0.0169873927,-0.0172711425,-0.0260771196,0.0063856863
6.1070351601,0.0070388848,0.0015738377,0.0186928604,-0.0193777047,-0.0303504281,0.0085396506
6.1169819832,0.0080170566,0.0014916429,0.0155235035,-0.0204654709,-0.0282135047,0.0095896013
6.1269989014,0.0041748816,-0.0015556446,0.0064886911,-0.0151162464,-0.0292500071,0.0085301958
6.1369762421,0.0023121473,-0.0114251012,-0.0033823748,-0.0055946466,-0.0184964314,0.0073908963
6.1469998360,0.0003321108,-0.0095514888,-0.0083827870,-0.0077994764,-0.0120553095,0.0126626249
6.1569828987,0.0001881358,-0.0047220220,-0.0084959762,-0.0100597013,0.0018525168,0.0168262087
6.1669797897,0.0019394692,-0.0028186075,-0.0047159689,-0.0218045078,0.0017707578,0.0178973339
6.1769709587,-0.0002113346,-0.0068109860,0.0038287144,-0.0292658843,-0.0014548629,0.0211051106
6.1869921684,0.0063515240,-0.0039115776,0.0142733557,-0.0345290899,-0.0100550093,0.0201021638
6.1969618797,0.0022806164,-0.0118931765,0.0168252084,-0.0323804542,-0.0132111218,0.0243720096
6.2070102692,0.0001438793,-0.0091230506,0.0116193993,-0.0238729864,-0.0088792238,0.0232755877
6.2169532776,-0.0010649029,-0.0004996291,0.0054473383,-0.0292328633,-0.0067681354,0.0253920015
6.2269310951,-0.0002523724,-0.0074441065,0.0062115891,-0.0260783508,0.0007014987,0.0210917946
6.2369589806,-0.0004770819,-0.0017162195,-0.0008204479,-0.0186650418,0.0082321195,0.0199749973
6.2469472885,-0.0035965207,0.0020364888,-0.0068625705,-0.0219271481,0.0167299993,0.0167349949
6.2568979263,-0.0056870645,-0.0010086527,-0.0118772285,-0.0177369304,0.0274289828,0.0145394858
6.2669320107,-0.0029466811,-0.0029995076,-0.0089728134,-0.0070262281,0.0242781974,0.0113652647
6.2769250870,-0.0012341205,-0.0020151369,-0.0011513132,-0.0038079312,0.0211236831,0.0145707792
6.2869238853,0.0004948315,-0.0029865138,0.0077127917,0.0058215265,0.0180008616,0.0156466961
6.2969141006,0.0021957394,-0.0000323883,0.0117754443,0.0153989196,0.0202421769,0.0188114624
6.3069572449,0.0000460681,0.0008830198,0.0070670350,0.0164207742,0.0245525017,0.0219699722
6.3168897629,-0.0040554171,0.0037066110,-0.0044732587,0.0164054614,0.0277301874,0.0187628604
6.3269071579,-0.0051821535,0.0007365712,-0.0101249712,0.0078694969,0.0297472663,0.0123813944
6.3368577957,-0.0063137477,0.0007291206,-0.0080385106,0.0025678095,0.0275224615,0.0070879618
6.3468880653,-0.0006051722,-0.0001736513,-0.0029792686,0.0047220406,0.0243509021,0.0092318058
6.3568859100,-0.0007730785,0.0017889509,0.0010641317,0.0079459306,0.0222278293,0.0081815887
6.3668880463,-0.0018108550,-0.0041052331,-0.0036603112,0.0122314887,0.0190818384,0.0113861701
6.3768529892,-0.0077567166,-0.0090307230,-0.0016358393,0.0027196095,0.0093471846,0.0061422731
6.3868818283,-0.0040592318,0.0026982196,0.0003232461,0.0027443771,0.0050994428,0.0093569756
6.3968677521,-0.0032637182,0.0085873967,0.0091364486,0.0017373031,-0.0023853714,0.0104708420
6.4068622589,-0.0033786956,0.0114986068,0.0091440780,-0.0014648819,-0.0024101387,0.0104732392
6.4168438911,-0.0014954868,0.0124058491,0.0012901525,-0.0100185564,-0.0013938765,0.0115327779
6.4268231392,-0.0112292832,0.0063696872,-0.0105898278,-0.0143461926,0.0060451310,0.0104251690
6.4368667603,-0.0083922809,0.0043533812,-0.0145649808,-0.0143709602,0.0082012266,0.0125357229
6.4468660355,-0.0056328541,0.0014354953,-0.0058459537,-0.0154135888,0.0039452286,0.0157512240
6.4568529129,-0.0078623956,0.0072437893,0.0047295792,-0.0164892375,0.0039598760,0.0189411584
6.4667801857,-0.0061679250,0.0179033652,0.0026052694,-0.0154359573,0.0060965302,0.0178641770
6.4768080711,-0.0063133305,0.0168351308,0.0033911567,-0.0281913020,0.0016732861,0.0115249213
6.4868278503,-0.0053711003,0.0118821627,0.0021879773,-0.0195946172,-0.0015483398,0.0019782875
6.4968261719,-0.0013414684,0.0060010324,-0.0037547846,-0.0099057704,-0.0058709169,-0.0118094301
6.5068211555,0.0018202600,-0.0027398698,-0.0047346251,-0.0056329947,-0.0037547688,-0.0182004832
6.5167808533,0.0030360159,-0.0085010761,-0.0027018685,0.0093182568,-0.0026141368,-0.0235310663
6.5268077850,0.0051644081,-0.0015663734,-0.0026034017,0.0157157034,-0.0025464925,-0.0214111898
6.5368061066,0.0013882455,0.0024189719,0.0042876704,0.0050742435,-0.0089881467,-0.0149871139
6.5468101501,-0.0033955637,0.0053782235,0.0100527508,-0.0055696126,-0.0143781183,-0.0106951632
6.5567617416,-0.0013749364,0.0151287084,0.0059830649,-0.0152238375,-0.0101460889,-0.0075307954
6.5667877197,0.0006850895,0.0160549656,-0.0001274843,-0.0290911831,-0.0113221407,-0.0075134849
6.5767831802,0.0009299454,-0.0015833607,-0.0023453136,-0.0419667698,-0.0018335645,-0.0107513554
6.5867810249,0.0021015939,-0.0104442472,-0.0085137384,-0.0356311090,0.0078073451,-0.0140054729
6.5967321396,0.0022570428,-0.0192498788,-0.0077341693,-0.0239147991,0.0100547867,-0.0119039724
6.6068739891,0.0032163200,-0.0114304060,-0.0011140008,-0.0206931718,0.0068914834,-0.0097609265
6.6169171333,0.0080307061,-0.0074515571,0.0105116470,-0.0099923238,0.0016751501,-0.0044223536
6.6267642975,0.0060436064,-0.0006166926,0.0162074063,-0.0120916944,-0.0047084466,0.0009324641
6.6367268562,0.0079522068,0.0032551058,0.0141284568,-0.0121321734,0.0006261312,-0.0001644918
6.6467599869,0.0060428316,0.0012042889,0.0032581787,-0.0132626854,0.0070573986,0.0029817668
6.6567487717,0.0051732594,-0.0086511010,-0.0065599578,-0.0133051621,0.0144897494,-0.0023766465
6.6667442322,0.0022435125,-0.0174756870,-0.0084910290,-0.0028067157,0.0338546559,0.0028024027
6.6766290665,0.0030578908,-0.0125667090,-0.0053937333,0.0131353661,0.0414784886,0.0048662191
6.6867818832,0.0048522288,-0.0134668583,-0.0002019901,0.0174259841,0.0393650047,0.0038145371
6.6967711449,0.0065934593,-0.0143795246,0.0088883741,0.0216725282,0.0394568816,0.0101830866
6.7067632675,0.0043655271,-0.0075178375,0.0111387474,0.0365915559,0.0417280272,0.0122827236
6.7166070938,0.0001943942,0.0002793440,0.0076351268,0.0397719033,0.0439030305,0.0143938120
6.7266869545,-0.0040029949,0.0071127187,0.0031766396,0.0418611541,0.0482216105,0.0175515208
6.7367100716,-0.0042313403,0.0051603685,-0.0031485457,0.0333261192,0.0470982939,0.0186259747
6.7467188835,-0.0054398542,-0.0006662241,0.0001884204,0.0194726251,0.0458860211,0.0143939452
6.7567548752,-0.0036819640,-0.0035801164,-0.0004934568,0.0109526394,0.0447240844,0.0112202549
6.7667279243,-0.0028658274,-0.0065125455,-0.0002856750,0.0035226857,0.0424654558,0.0038033521
6.7767248154,-0.0019340578,-0.0123956436,-0.0050793188,-0.0102710240,0.0327286720,0.0017477910
6.7867259979,-0.0040190285,-0.0133951539,0.0036383967,-0.0198546741,0.0294572450,0.0028380894
6.7968630791,0.0036222574,-0.0055813421,0.0073611839,-0.0368383154,0.0186243057,0.0029269059
6.8066787720,-0.0004064802,0.0040710340,0.0088915927,-0.0410008356,0.0068081268,-0.0001807369
6.8166732788,-0.0033173624,0.0058659087,0.0026020508,-0.0452581681,0.0036014146,0.0019607109
6.8266782761,-0.0043575531,0.0096457368,0.0002008777,-0.0452280752,-0.0017059990,0.0062446715
6.8368558884,-0.0111699766,0.0065155397,-0.0080431597,-0.0388636515,0.0047260677,0.0040795216
6.8466639519,-0.0054072207,0.0152382022,-0.0151380198,-0.0260969922,0.0091181528,0.0061669080
6.8566150665,-0.0054875677,0.0112860566,-0.0103829997,-0.0154261040,0.0092068361,0.0061558555
6.8666491508,0.0022489366,0.0054902206,-0.0054352777,0.0005970700,0.0082528917,0.0050884602
6.8768291473,-0.0026705924,0.0025475391,-0.0004976291,0.0091309035,0.0104254987,0.0018830798
6.8866400719,-0.0056112176,-0.0013435116,-0.0013155240,0.0229841359,0.0137299486,0.0007895855
6.8966369629,-0.0007363025,-0.0002834430,-0.0067741172,0.0442966148,0.0192152634,-0.0024498831
6.9066381454,-0.0007317427,-0.0011427632,-0.0082003968,0.0517806299,0.0181952715,-0.0035108866
6.9168219566,-0.0036786858,-0.0068875779,-0.0037247438,0.0516998023,0.0278194025,-0.0025091388
6.9266147614,0.0001978513,-0.0048147072,-0.0119400518,0.0452411026,0.0331406668,0.0006480385
6.9366111755,0.0030047533,-0.0056517352,-0.0055606859,0.0388705581,0.0277741291,0.0038747247
6.9466209412,0.0057753855,-0.0094405049,0.0027074914,0.0249526110,0.0298676416,0.0113076074
6.9567642212,0.0133413905,-0.0083729858,0.0088555319,0.0100484956,0.0223279651,0.0177399404
6.9666452408,0.0101462239,-0.0094139809,0.0089917285,0.0121697038,0.0202885158,0.0273132063
6.9766283035,0.0088523561,-0.0055737128,0.0071629984,0.0047284318,0.0159672704,0.0284076296
6.9865608215,0.0056046480,-0.0076326956,0.0081378324,-0.0101919277,0.0105623854,0.0348274484
6.9967823029,0.0071626538,-0.0018794170,0.0070526702,-0.0155069325,0.0083727343,0.0337838866
7.0066947937,0.0029871103,-0.0001282326,-0.0038068790,-0.0080266446,0.0094539775,0.0284596961
7.0166091919,-0.0002132121,0.0007192859,-0.0097072022,-0.0038111266,0.0179958008,0.0241541639
7.0266108513,-0.0024249319,0.0015924344,-0.0107006924,-0.0047994256,0.0083690053,0.0242172815
7.0365371704,-0.0045817560,-0.0033408634,-0.0058206217,-0.0004727216,0.0051151551,0.0146734435
7.0465731621,0.0020665464,0.0015845069,-0.0047450559,0.0124060595,-0.0012434080,0.0093937265
7.0565590858,0.0029573378,-0.0012945762,0.0031975012,0.0113846036,-0.0066014221,0.0083653471
7.0665597916,0.0057800943,-0.0022147528,0.0101147396,0.0092532756,-0.0066269878,0.0073046098
7.0765471458,0.0047036344,0.0065057050,0.0023058753,0.0092149265,-0.0023435599,0.0083395140
7.0865721703,-0.0051067835,0.0083159572,-0.0065568583,-0.0089781918,0.0028687788,0.0093808100
7.0965671539,-0.0042375987,0.0072809826,-0.0095522301,-0.0144374054,0.0156964269,0.0146139218
7.1065678596,-0.0034430686,0.0091446405,-0.0135692852,-0.0208769292,0.0199217983,0.0145910187
7.1164798737,-0.0085041886,0.0090389615,-0.0117499130,-0.0145013221,0.0231823064,0.0145630557
7.1265239716,-0.0009078446,0.0061424742,-0.0058413642,-0.0037799682,0.0179121755,0.0135273524
7.1365189552,0.0028448638,0.0003364453,0.0031035643,0.0133729205,0.0105306935,0.0103786970
7.1465220451,0.0046575004,-0.0015549293,0.0101589067,0.0230268799,0.0052523082,0.0093437918
7.1565132141,0.0045525962,0.0004359850,0.0084619625,0.0326283723,0.0063836188,0.0072018118
7.1665039062,0.0005671319,0.0062750350,0.0018800001,0.0283271037,0.0106164478,0.0061149760
7.1764988899,-0.0005176428,0.0111732250,-0.0037347574,0.0229270104,0.0180615820,0.0071347002
7.1864929199,-0.0082605248,-0.0015739432,-0.0103173153,0.0154304784,0.0222515315,0.0039255908
7.1964902878,-0.0024694565,-0.0034771792,-0.0149655836,0.0100976313,0.0211529769,0.0049976469
7.2064881325,-0.0006688300,-0.0034214489,-0.0050884383,-0.0036799666,0.0082390439,0.0072157937
7.2164759636,0.0049787993,-0.0023786060,0.0104915602,-0.0175369270,0.0028546641,0.0157624092
7.2264809608,0.0095892781,-0.0004356137,0.0220480654,-0.0238550119,-0.0089236982,0.0190303754
7.2364668846,0.0074814493,-0.0005816451,0.0198032949,-0.0270505361,-0.0110576898,0.0222330932
7.2464499474,0.0073409611,-0.0026886694,0.0155281527,-0.0473225191,-0.0101910960,0.0169296730
7.2564287186,-0.0014813903,-0.0068985452,0.0003190141,-0.0506151170,0.0004764616,0.0168602988
7.2664389610,-0.0015327397,-0.0070834984,-0.0137128131,-0.0336092375,0.0123011628,0.0093350038
7.2764883041,-0.0055128401,-0.0081941718,-0.0187888052,-0.0165916365,0.0199127421,0.0092745498
7.2864847183,-0.0057097441,-0.0052588214,-0.0100428360,-0.0048433682,0.0199854486,0.0071410909
7.2964801788,-0.0049851006,0.0094130998,-0.0031856794,0.0143979704,0.0179689005,0.0039538201
7.3064770699,0.0007755097,0.0075822840,0.0048896177,0.0229983814,0.0126460418,-0.0013296248
7.3164710999,0.0017583903,0.0047116647,0.0032340388,0.0347567722,0.0106004681,-0.0013250972
7.3264617920,-0.0001240436,-0.0030494563,-0.0012163419,0.0507554449,0.0118020866,-0.0002816708
7.3364658356,-0.0011173848,-0.0029332272,-0.0016571778,0.0582486466,0.0097125703,-0.0013353506
7.3464641571,-0.0051235622,0.0059634815,-0.0011327761,0.0560648553,0.0140071837,0.0028878904
7.3564400673,-0.0023272100,0.0099999672,0.0013341409,0.0304051656,0.0170575697,0.0081994319
7.3664321899,-0.0043822890,0.0090286499,0.0005545717,0.0036553117,0.0243413150,0.0092332708
7.3763880730,-0.0034604433,0.0030889877,-0.0091397660,-0.0081486180,0.0327806063,0.0070627946
7.3864202499,-0.0045007830,0.0000533828,-0.0199679639,-0.0241632685,0.0347580016,0.0028115907
7.3964242935,-0.0036257866,-0.0048670401,-0.0142222540,-0.0208835863,0.0241226684,0.0060654413
7.4064388275,0.0010592279,-0.0038156740,0.0032952528,-0.0132416468,0.0059577795,-0.0001964497
7.4163861275,0.0068153972,-0.0017833343,0.0159381721,-0.0078661898,0.0006684752,0.0008945141
7.4263811111,0.0038406488,0.0011361608,0.0197717045,-0.0014021648,-0.0057124589,-0.0011934040
7.4363689423,-0.0029051963,0.0068885456,0.0069962842,0.0082615148,-0.0110166762,-0.0054159788
7.4463682175,-0.0047343438,0.0088360673,0.0001705986,0.0082788253,-0.0110619497,-0.0107276533
7.4563341141,-0.0045655137,0.0078718429,-0.0066291587,0.0018522181,-0.0079156924,-0.0118053025
7.4663319588,-0.0072793430,0.0058927904,-0.0125341313,-0.0131214047,-0.0027238594,-0.0160780773
7.4763307571,-0.0041781729,0.0039676200,-0.0155386822,-0.0142853390,0.0069319634,-0.0108280554
7.4863920212,-0.0011596147,-0.0038121573,-0.0107290642,-0.0185477287,0.0047886516,-0.0076240059
7.4963407516,-0.0041091209,-0.0048023094,-0.0021451015,-0.0185473301,0.0006045594,0.0030269071
7.5063271523,0.0045047039,0.0050217281,0.0084574325,-0.0131365852,-0.0079130288,0.0020159713
7.5163321495,0.0044412846,0.0089217788,0.0131966574,-0.0077660540,-0.0131860878,0.0062993998
7.5263452530,0.0054470832,0.0010684499,0.0121364696,-0.0120497486,-0.0110907126,0.0052264119
7.5363130569,0.0044858390,0.0058429013,-0.0016783376,-0.0110633140,-0.0004154311,0.0019659039
7.5461530685,0.0006606516,0.0018561849,-0.0114795463,-0.0025558462,0.0039164666,0.0008694807
7.5562877655,-0.0041559404,-0.0089004273,-0.0113711851,0.0101608811,0.0157600772,-0.0002774096
7.5662870407,-0.0023176435,-0.0020143620,-0.0102089541,0.0208279062,0.0158607438,0.0018392706
7.5762820244,0.0005018648,0.0039365659,-0.0060636299,0.0197864771,0.0116023496,0.0050559696
7.5862689018,0.0013783809,-0.0008747808,0.0010004145,0.0187401213,0.0094475858,0.0040082824
7.5962972641,0.0032717523,-0.0027887456,0.0031463604,0.0156304818,-0.0012758985,0.0030187846
7.6062889099,0.0042473311,-0.0085742706,0.0091823442,0.0167980120,-0.0130326897,0.0020318173
7.6162810326,0.0003020700,-0.0046656360,0.0102394922,0.0189316031,-0.0130137810,0.0020290208
7.6263990402,0.0060904557,0.0061152349,0.0064386232,0.0071657570,-0.0109490324,0.0041486309
7.6362481117,-0.0025967720,-0.0047219028,-0.0004188318,-0.0045914333,-0.0099527435,0.0062750317
7.6462340355,-0.0064804619,-0.0028588406,-0.0074088471,-0.0163436960,-0.0058320346,-0.0011802213
7.6562728882,-0.0064846640,-0.0000252953,-0.0144410031,-0.0206364449,-0.0058038048,0.0062603848
7.6666121483,0.0031877097,-0.0048670401,-0.0057846801,-0.0248618163,-0.0132726403,0.0116237244
7.6762571335,0.0040028626,-0.0038972727,0.0085600717,-0.0301033184,-0.0261144042,0.0138324164
7.6862521172,0.0009119746,-0.0010622969,0.0169687364,-0.0279946253,-0.0249838904,0.0191355702
7.6961960793,0.0046698386,-0.0001842013,0.0176016781,-0.0344277583,-0.0218203217,0.0201829914
7.7062611580,-0.0012933377,0.0054410468,0.0044486625,-0.0301848091,-0.0164889395,0.0148334987
7.7161860466,-0.0061405962,-0.0005982152,-0.0065709846,-0.0217094347,-0.0068435031,0.0105169145
7.7262301445,-0.0070869392,-0.0055641760,-0.0135541456,-0.0175000411,0.0038043475,0.0019457971
7.7361760139,-0.0061322218,0.0012414226,-0.0175619032,-0.0047018211,0.0070672524,-0.0033977025
7.7461757660,0.0016284522,0.0042828093,-0.0106103914,0.0070200823,0.0103461370,-0.0055519333
7.7561831474,0.0035768684,-0.0053525795,0.0042446358,0.0166358240,0.0083061550,-0.0023562734
7.7663660049,-0.0022818211,-0.0043592681,0.0073026521,0.0176486261,0.0157773867,-0.0045302119
7.7761821747,-0.0003954533,0.0093317991,0.0006136995,0.0218987633,0.0179515928,-0.0045491201
7.7861738205,-0.0003482763,0.0083847409,-0.0050207870,0.0144373849,0.0178666376,-0.0077305324
7.7962789536,-0.0031647149,-0.0042465557,0.0000639659,0.0112756807,0.0125072915,-0.0066311797
7.8062467575,-0.0021308127,-0.0061585535,-0.0026517410,0.0176643375,0.0136436634,-0.0045182277
7.8161759377,-0.0012020532,0.0007295975,-0.0044218199,0.0155183636,0.0126090236,0.0007993062
7.8261590004,-0.0003704492,0.0056604515,0.0016019446,0.0112615665,0.0073138610,0.0103981383
7.8361558914,-0.0005597833,0.0056838761,0.0114199026,0.0028145518,-0.0055396194,0.0158032887
7.8461651802,0.0002175507,0.0105521446,0.0143224103,0.0007415470,-0.0151293958,0.0211788788
7.8561658859,-0.0029520157,0.0172960535,0.0142104132,0.0018799147,-0.0247191731,0.0233638696
7.8661527634,-0.0049690371,0.0152297383,0.0043742759,-0.0002604676,-0.0215838328,0.0169706866
7.8761472702,-0.0030590359,0.0170984641,-0.0055107968,-0.0141624352,-0.0163943972,0.0116355754
7.8861441612,-0.0059440201,0.0121134287,-0.0124779241,-0.0067386059,-0.0067995610,0.0020066504
7.8961629868,-0.0058570867,0.0052772532,-0.0144300954,-0.0014258670,-0.0004220891,-0.0076025673
7.9061822891,-0.0048117703,0.0053155194,-0.0096105831,-0.0174213462,0.0004594172,-0.0150338523
7.9161748886,-0.0027690593,0.0063441764,0.0009265643,-0.0227264930,-0.0007094442,-0.0213946775
7.9261732101,0.0023714241,0.0064080725,0.0017361145,-0.0162435621,-0.0060940897,-0.0319881998
7.9361371994,0.0056500072,-0.0003284446,0.0065259440,-0.0098691517,-0.0007374074,-0.0362768248
7.9461212158,0.0060506696,-0.0060915579,0.0074485047,-0.0066954633,0.0056363363,-0.0437571108
7.9561119080,0.0026316580,-0.0090234512,-0.0072142379,-0.0004190588,0.0196152683,-0.0396024473
7.9660549164,0.0019377407,-0.0030552975,-0.0090454714,0.0144437775,0.0283078272,-0.0364820212
7.9761009216,-0.0028231803,0.0106907850,-0.0069692032,0.0122384131,0.0337031260,-0.0290810931
7.9860992432,-0.0008292559,0.0235225931,-0.0038385291,0.0196771547,0.0348930247,-0.0216572657
7.9960899353,-0.0035632316,0.0187120810,-0.0084104436,0.0293099433,0.0328083001,-0.0237735473
8.0060949326,-0.0053264266,0.0129264360,-0.0138820903,0.0324420854,0.0392907001,-0.0185058154
8.0160808563,0.0016365584,0.0053077112,-0.0143235223,0.0453253947,0.0318740644,-0.0227170717
8.0261249542,0.0047237808,-0.0012823573,-0.0039907591,0.0475794934,0.0190296397,-0.0268849190
8.0360965729,0.0088461274,-0.0088123316,0.0102640493,0.0477418154,0.0008269334,-0.0310174786
8.0461635590,0.0179209951,-0.0163095221,0.0205914471,0.0499591604,-0.0087841488,-0.0320190936
8.0560684204,0.0152914459,-0.0122492546,0.0180028174,0.0372212604,-0.0184788536,-0.0287580527
8.0660610199,0.0116909975,-0.0082777375,0.0142145259,0.0073235496,-0.0165906735,-0.0308742002
8.0760536194,0.0042274529,-0.0073630442,0.0013799767,-0.0151988044,-0.0070725349,-0.0224213265
8.0860643387,-0.0004058543,-0.0074421396,-0.0086523788,-0.0302422009,0.0024847509,-0.0160984509
8.0960464478,-0.0090989238,0.0021521219,-0.0159914996,-0.0548582003,0.0087421145,-0.0118716145
8.1060400009,-0.0071572727,0.0059700380,-0.0126315849,-0.0623648465,0.0108670508,-0.0065681953
8.1160297394,0.0016435918,0.0030268200,-0.0052573578,-0.0559279881,0.0076938937,-0.0086776856
8.1258430481,0.0055786306,-0.0018890133,0.0040786369,-0.0515529513,-0.0050978009,-0.0085977912
8.1358270645,0.0115616852,-0.0135870809,0.0135612590,-0.0237482190,-0.0092033297,-0.0139025412
8.1460838318,0.0126504535,-0.0086813206,0.0124393804,0.0029723435,-0.0122281490,-0.0170898121
8.1561384201,0.0080036456,-0.0086830491,0.0056439145,0.0200222991,-0.0078389924,-0.0192550942
8.1660556793,0.0053397948,-0.0164163932,0.0039345725,0.0274413340,-0.0013688428,-0.0193022322
8.1760616302,-0.0003325406,-0.0095375413,-0.0046158927,0.0337453038,0.0114931604,-0.0204508565
8.1860322952,-0.0040074652,-0.0094741220,-0.0130655663,0.0304376576,0.0242931116,-0.0205315500
8.1960058212,-0.0039078360,-0.0132681960,-0.0117799537,0.0132424254,0.0349233858,-0.0120906597
8.2060375214,-0.0010266963,-0.0151427025,-0.0057209628,0.0067946455,0.0360331237,-0.0014694406
8.2161979675,-0.0050931638,-0.0083292359,-0.0036852856,0.0078453962,0.0360853188,0.0038421010
8.2261781693,0.0004710492,-0.0014261237,0.0061917407,-0.0006652679,0.0296703000,0.0113263819
8.2360401154,0.0002839502,-0.0073145260,0.0092188222,-0.0038750423,0.0286202151,0.0166483112
8.2461862564,0.0001529392,-0.0132336849,0.0034434299,0.0015322398,0.0201116819,0.0166997090
8.2644958496,-0.0019273225,-0.0171814188,0.0025553803,0.0026178774,0.0200727992,0.0113881677
8.2669229507,-0.0049513048,-0.0153066749,-0.0032810469,-0.0036935480,0.0103685064,0.0072059399
8.2779846191,-0.0001598660,-0.0152436728,-0.0002131957,0.0123567907,0.0072515430,0.0029645893
8.2867116928,-0.0011466208,-0.0132662887,-0.0010676283,0.0134659978,0.0050589629,-0.0044587059
8.2963237762,0.0017940339,-0.0073617925,-0.0038630266,0.0113660954,0.0007680776,-0.0044296775
8.3147468567,0.0105908448,-0.0091884965,-0.0007436771,0.0135485549,-0.0066602780,-0.0001334660
8.3165369034,0.0018122133,-0.0112098092,0.0002268057,0.0071576340,-0.0119754141,0.0084018316
8.3259420395,0.0006503400,-0.0014675489,0.0011692744,0.0028393185,-0.0097894920,0.0179521944
8.3359375000,-0.0005535546,0.0043269764,0.0020433764,-0.0121022137,-0.0130454721,0.0264861602
8.3456878662,-0.0028122726,0.0110122925,0.0018074018,-0.0206144750,-0.0205020569,0.0371643677
8.3557872772,-0.0060556298,0.0069597731,0.0054959757,-0.0185372084,-0.0151083572,0.0403119624
8.3657808304,-0.0034998122,0.0087446934,0.0013480884,-0.0292582996,-0.0119304070,0.0466731898
8.3757667542,-0.0048186248,0.0026705035,-0.0019167560,-0.0399333127,-0.0099170571,0.0424206555
8.3857593536,-0.0080909794,0.0014527807,-0.0062070386,-0.0346088558,-0.0067058178,0.0381465480
8.3957529068,0.0013761159,0.0023287304,-0.0093929069,-0.0313432850,-0.0110294595,0.0296736974
8.4057464600,0.0050508613,-0.0035576455,0.0030638676,-0.0258941911,-0.0217388291,0.0223026015
8.4157629013,0.0078518325,-0.0084741348,0.0116438968,-0.0151374182,-0.0281479917,0.0127740763
8.4257373810,0.0039466554,-0.0085608000,0.0094496114,-0.0162279829,-0.0228669439,0.0063662445
8.4360208511,0.0010042128,-0.0037915341,0.0023705463,-0.0141295446,-0.0196200181,0.0084654819
8.4457607269,-0.0097274547,-0.0029877655,-0.0037611027,-0.0120773120,-0.0099759130,0.0094639007
8.4557380676,-0.0079264408,0.0057379971,-0.0058836835,-0.0206777249,-0.0036061644,0.0126176151
8.4657239914,-0.0081075495,0.0163951293,-0.0061718123,-0.0270328280,-0.0100590037,0.0137262894
8.4757099152,-0.0062838858,0.0143494969,-0.0064161913,-0.0335169584,-0.0025803149,0.0189933572
8.4857311249,-0.0006170634,0.0132929450,-0.0047910707,-0.0463696420,0.0026642482,0.0189683232
8.4957017899,-0.0027101699,0.0082096225,-0.0100619094,-0.0378977209,0.0112739820,0.0189095996
8.5057020187,0.0011024412,0.0012910137,-0.0132185118,-0.0293098297,0.0091210827,0.0093560433
8.5158166885,0.0010788974,-0.0143453712,-0.0016236204,-0.0164725929,0.0091439858,-0.0002172224
8.5258359909,0.0049497420,-0.0162281021,0.0081669791,0.0006318241,0.0081620784,-0.0055347560
8.5358572006,0.0039503509,-0.0064457287,0.0090913279,-0.0089792572,0.0101927388,-0.0087257549
8.5458354950,-0.0008450213,0.0003271469,0.0030941467,-0.0079227816,0.0144125167,-0.0161905959
8.5558280945,-0.0016699794,0.0022516020,-0.0067058103,-0.0047799852,0.0219119787,-0.0173051283
8.5658130646,0.0004099246,0.0032353767,-0.0125660794,-0.0155048016,0.0271911640,-0.0152070904
8.5758113861,0.0043328935,0.0023254522,-0.0086422460,-0.0080720512,0.0294420663,-0.0088531878
8.5858087540,0.0004280742,-0.0025760762,-0.0057104127,-0.0156103959,0.0358328521,-0.0046398006
8.5958127975,0.0002814468,0.0081415540,-0.0019504923,-0.0251993723,0.0325742103,-0.0024890320
8.6057987213,-0.0017486576,0.0041929851,0.0056964858,-0.0219143629,0.0208792035,0.0018340773
8.6158504486,0.0010986861,-0.0026090376,0.0163391326,-0.0197164565,0.0134114353,0.0018825468
8.6258430481,0.0049142176,0.0032315620,0.0191158745,-0.0207593516,0.0112476163,-0.0002274755
8.6358089447,0.0088268453,0.0041420828,0.0091848476,-0.0250008348,0.0080049513,-0.0002017759
8.6459140778,0.0011517343,-0.0067350497,0.0021557312,-0.0218130294,0.0122502968,-0.0066058794
8.6559591293,-0.0007003609,-0.0077873697,-0.0096668499,-0.0122858379,0.0219436698,-0.0066756541
8.6656646729,0.0002567109,-0.0038869611,-0.0087418454,-0.0123209916,0.0262185764,-0.0067033512
8.6760168076,-0.0017458859,-0.0038991801,-0.0048790472,-0.0081037423,0.0305715147,-0.0014224359
8.6857223511,-0.0009734097,0.0039419304,0.0029574137,-0.0027734265,0.0285387225,0.0060237627
8.6957530975,-0.0059840744,0.0019321212,0.0077841384,-0.0123486891,0.0231546089,0.0103161121
8.7056064606,-0.0042343801,0.0096898442,0.0038177471,-0.0038076648,0.0221700389,0.0124413157
8.7155733109,-0.0014591876,0.0116234189,0.0028705101,-0.0058726799,0.0156964269,0.0071725175
8.7255811691,0.0004141268,0.0067178379,0.0028841596,-0.0101475865,0.0167230759,0.0061064539
8.7355785370,0.0053072507,-0.0040086736,0.0010362369,0.0016222540,0.0156929661,-0.0002704856
8.7457199097,-0.0004810158,-0.0109023685,-0.0056985514,0.0058004875,0.0264223088,0.0007194113
8.7557258606,0.0033193764,-0.0059764613,-0.0065554874,0.0036517163,0.0285339281,-0.0003550409
8.7656917572,-0.0045605963,-0.0079720849,-0.0025888581,0.0014924249,0.0306729805,0.0017573782
8.7757358551,-0.0027887288,-0.0020957820,0.0013641816,-0.0038432181,0.0285352599,0.0060221651
8.7857427597,-0.0049240654,0.0066452394,0.0013053518,-0.0102300113,0.0263482723,0.0060408064
8.7957248688,-0.0031759504,0.0163697377,0.0011885267,-0.0197923556,0.0219766945,0.0039531547
8.8056755066,-0.0042156344,0.0123769408,0.0000398856,-0.0282822475,0.0155073423,0.0050634267
8.8156690598,-0.0051300591,0.0025469430,-0.0039871233,-0.0122666638,0.0187561326,-0.0045304783
8.8257198334,-0.0012437168,0.0055018435,-0.0039430754,0.0037107053,0.0241964385,-0.0077640885
8.8357267380,0.0007791456,-0.0022632710,-0.0047367113,0.0069227433,0.0221034605,-0.0056287656
8.8457164764,-0.0040698415,-0.0080995196,-0.0006927747,0.0133236516,0.0221620500,-0.0045712246
8.8556776047,-0.0051357215,0.0007319220,0.0004268389,0.0165210422,0.0222006645,-0.0024468210
8.8656635284,-0.0032998386,0.0144389039,-0.0014147061,0.0091038728,0.0146798976,-0.0002680889
8.8756408691,0.0005356607,0.0125446087,0.0064801676,-0.0025471905,0.0028501370,0.0019420686
8.8854837418,-0.0033271376,0.0076458226,0.0064797504,-0.0004073409,0.0038991563,-0.0023157932
8.8956041336,-0.0013254348,0.0076124440,-0.0032228131,0.0048944801,0.0071684527,-0.0002177551
8.9056472778,-0.0032664600,0.0076038609,-0.0051759379,-0.0025317445,0.0028085914,-0.0033714704
8.9156827927,-0.0052019423,0.0036926635,-0.0032301445,-0.0046833120,0.0038810468,-0.0012531921
8.9255971909,0.0045073563,0.0047458778,0.0016791922,-0.0121409632,0.0016948578,-0.0001714160
8.9356393814,0.0016360816,-0.0011623135,0.0025040607,-0.0206564199,-0.0005230230,-0.0012108479
8.9456167221,0.0006545123,0.0007080802,-0.0016257663,-0.0292570982,0.0068920162,-0.0012529257
8.9556150436,-0.0003369514,0.0045080553,-0.0068331854,-0.0378050469,0.0068478077,0.0008762719
8.9657888412,-0.0052044457,0.0004697808,-0.0062714117,-0.0484686084,0.0067380858,-0.0023027435
8.9756460190,-0.0022769633,0.0023476251,-0.0037937660,-0.0526905209,0.0023966008,-0.0065225223
8.9856061935,0.0075110132,0.0043129097,0.0026342969,-0.0526132882,-0.0061713215,-0.0085917991
8.9955930710,0.0076906616,-0.0065015783,0.0041374071,-0.0494241528,-0.0040224167,-0.0107351104
9.0058050156,0.0127320522,-0.0094827646,-0.0010889071,-0.0355762467,0.0003417055,-0.0128978640
9.0157299042,0.0118701393,-0.0046674241,-0.0072774785,-0.0260032490,0.0046877181,-0.0129311532
9.0256299973,0.0109826559,-0.0115044946,-0.0016028184,-0.0270986073,0.0068440801,-0.0097571984
9.0356349945,0.0090486938,-0.0115497941,0.0049092276,-0.0452789441,0.0078411670,-0.0012499960
9.0458126068,0.0040510828,-0.0009327165,0.0083566410,-0.0443100855,0.0206560325,-0.0034585556
9.0556030273,0.0002019342,0.0008089312,-0.0105771320,-0.0444693416,0.0398973711,-0.0025184597
9.0655813217,0.0011079249,0.0036370524,-0.0167311337,-0.0423891470,0.0473768599,-0.0046931971
9.0755901337,0.0020223197,-0.0022706620,-0.0120435851,-0.0360292494,0.0527710915,-0.0047331448
9.0857448578,0.0049421126,-0.0101061696,-0.0130377905,-0.0115215108,0.0593461692,-0.0079800710
9.0955677032,0.0068527693,-0.0149128670,-0.0069576995,0.0130625283,0.0573551878,-0.0132972049
9.1055908203,0.0096479589,-0.0059703221,0.0041065915,0.0248355642,0.0531801507,-0.0122159617
9.1155729294,0.0085784728,-0.0048666229,0.0142488582,0.0259527601,0.0457392819,-0.0079168202
9.1257638931,0.0056031281,-0.0009050599,0.0136184199,0.0366267115,0.0458218418,-0.0079248101
9.1355705261,-0.0031512443,0.0029681691,-0.0015861887,0.0494616851,0.0427128635,-0.0089795552
9.1455211639,-0.0079343384,-0.0009059540,-0.0146870511,0.0494249314,0.0459462106,-0.0058133230
9.1555948257,-0.0070671206,0.0041163932,-0.0131397145,0.0462204814,0.0459280983,-0.0047473926
9.1656770706,-0.0071861511,0.0061688195,-0.0097632902,0.0216706637,0.0436460339,0.0005965065
9.1755752563,-0.0053885048,0.0081835156,-0.0065655606,0.0142463036,0.0361439101,0.0048996424
9.1855401993,-0.0016168121,0.0043154727,-0.0063192742,0.0078930669,0.0286404546,0.0081399102
9.1955118179,-0.0007550481,-0.0034682981,0.0016304355,-0.0005004182,0.0104156453,0.0093260817
9.2055397034,-0.0037402574,-0.0132713551,0.0045675142,-0.0025664987,0.0008077589,0.0125770029
9.2155056000,-0.0000374678,-0.0035186640,0.0045011742,-0.0014220048,-0.0108880457,0.0190275796
9.2255039215,-0.0012109044,0.0013262996,0.0102619035,-0.0152033307,-0.0217007454,0.0169825368
9.2355642319,-0.0101473695,0.0079750782,0.0088534458,-0.0397294462,-0.0271815322,0.0234103426
9.2456932068,-0.0034906033,0.0195437446,-0.0013964671,-0.0439534858,-0.0315166265,0.0202542301
9.2557239532,-0.0112564927,0.0163374320,-0.0156199234,-0.0460541882,-0.0326695070,0.0117616756
9.2655067444,-0.0063439673,0.0103795296,-0.0189895537,-0.0482014939,-0.0295160580,0.0074931616
9.2754783630,-0.0003725353,-0.0053053130,-0.0183991697,-0.0450359285,-0.0231196787,0.0032021434
9.2854671478,-0.0003503028,-0.0083165402,-0.0158819463,-0.0354469493,-0.0209079236,0.0031811043
9.2954673767,0.0015754339,-0.0073378910,-0.0025595922,-0.0300279483,-0.0294484142,-0.0010189670
9.3055515289,-0.0013530317,-0.0044300188,0.0087406142,-0.0310356878,-0.0358871408,-0.0031012925
9.3154869080,-0.0003389779,0.0042996178,0.0093083484,-0.0267364159,-0.0390690826,-0.0041461838
9.3254566193,-0.0011453691,0.0080952412,-0.0037037630,-0.0182465259,-0.0325997323,-0.0052564554
9.3354473114,-0.0058537787,0.0138335591,-0.0176590588,-0.0140120983,-0.0282918029,-0.0052873483
9.3454589844,-0.0047092503,0.0040496956,-0.0226601865,-0.0141085051,-0.0186279900,-0.0000379914
9.3554344177,-0.0056944555,0.0069536339,-0.0208557751,-0.0130931744,-0.0132534653,0.0031158568
9.3654356003,-0.0067030257,0.0108238822,-0.0199956205,-0.0024085734,-0.0152902510,0.0052463859
9.3754243851,-0.0009167257,0.0079859858,-0.0102008479,0.0018777847,-0.0173930824,0.0052562393
9.3854436874,0.0039492184,0.0031726726,-0.0023383994,0.0073324712,-0.0312543027,0.0042799246
9.3953962326,0.0050046379,-0.0075194468,0.0055153472,0.0073379306,-0.0312694833,0.0021537899
9.4054117203,0.0059679979,-0.0006882778,0.0044663651,-0.0033253664,-0.0334713869,0.0043002982
9.4154062271,0.0001674231,0.0011711487,-0.0034638543,0.0115835415,-0.0290819630,0.0042619482
9.4254055023,-0.0017422501,0.0060400735,-0.0112199085,0.0169010758,-0.0258526132,0.0021125113
9.4354448318,-0.0056317216,0.0070264707,-0.0082520740,0.0105770007,-0.0365678407,0.0053763483
9.4454221725,-0.0036611024,0.0051027904,-0.0072054761,0.0127434824,-0.0408171825,0.0064647822
9.4553937912,-0.0016871158,0.0119779473,-0.0081728594,0.0085251676,-0.0451679900,0.0011828013
9.4653863907,0.0033060845,0.0071314941,-0.0081783431,0.0074684257,-0.0472955890,0.0033221187
9.4753932953,0.0092590982,-0.0015621415,-0.0022364755,0.0181510299,-0.0482836217,0.0022551231
9.4853706360,0.0092923576,-0.0063677062,0.0066599352,0.0256459638,-0.0535151362,0.0086581614
9.4953784943,0.0044689411,-0.0073414077,0.0095672710,0.0011209147,-0.0537678674,0.0023067885
9.5053873062,-0.0004288319,0.0062174569,0.0043704016,-0.0127408383,-0.0580957681,0.0087188818
9.5154094696,-0.0003490213,-0.0006308786,0.0080697639,-0.0084162652,-0.0655286536,0.0098234275
9.5254030228,-0.0042052930,0.0002368459,0.0009636980,-0.0074399505,-0.0569162555,0.0161412451
9.5354127884,-0.0013712111,0.0128557449,-0.0051445263,-0.0085255885,-0.0537388399,0.0139977988
9.5453605652,-0.0091759032,0.0078504449,-0.0044292109,-0.0139152939,-0.0473677628,0.0139602479
9.5553798676,-0.0023924175,0.0058988105,-0.0007530350,-0.0224471278,-0.0464058258,0.0097126402
9.5654077530,0.0064526135,-0.0048215617,0.0039600236,-0.0149508622,-0.0485036001,0.0075962264
9.5753841400,0.0075289542,-0.0165231451,0.0135357482,-0.0170680769,-0.0485680476,0.0012206181
9.5853509903,0.0046865279,-0.0204841122,0.0171111915,-0.0192097910,-0.0485664494,0.0033468863
9.5953216553,0.0037151512,-0.0117951268,0.0099573834,-0.0139545742,-0.0388991721,0.0043437071
9.6053247452,-0.0041405624,0.0056310664,0.0007878047,-0.0172760691,-0.0260630026,0.0085123535
9.6153211594,-0.0042410558,0.0094405180,-0.0014465350,-0.0322899073,-0.0197204184,0.0137934024
9.6253080368,-0.0032754901,0.0073643099,-0.0028849144,-0.0599950403,-0.0231955778,0.0074609369
9.6353321075,0.0006062326,0.0101678139,-0.0035469432,-0.0631261170,-0.0307269972,0.0043240003
9.6452703476,0.0094807083,-0.0044691195,0.0077197058,-0.0459338129,-0.0423961692,-0.0009242916
9.6552944183,0.0125450427,-0.0171756372,0.0180699322,-0.0363036916,-0.0455203280,0.0001522913
9.6652984619,0.0135783488,-0.0191624984,0.0225408766,-0.0299360715,-0.0422374494,0.0033137298
9.6752901077,0.0048621232,-0.0144840116,0.0132390363,-0.0375178233,-0.0315509811,0.0096227583
9.6852798462,-0.0049470430,-0.0088562006,0.0039386852,-0.0365926400,-0.0154846618,0.0127051007
9.6953296661,-0.0099377697,0.0055691372,-0.0111607211,-0.0313649885,-0.0015619220,0.0115502207
9.7052936554,-0.0091226166,0.0161934868,-0.0192766692,-0.0228732340,0.0038568117,0.0125715425
9.7152776718,-0.0111579960,0.0131888157,-0.0185112860,-0.0271582603,0.0080464967,0.0061719669
9.7252864838,-0.0015147391,0.0093420511,-0.0078446763,-0.0100783445,0.0092201522,0.0029652549
9.7352867126,0.0063047046,-0.0012799731,0.0039978726,0.0102845849,0.0028882201,-0.0055050617
9.7452898026,0.0112163955,-0.0079831118,0.0130059225,0.0220943727,-0.0045201611,-0.0075900503
9.7551155090,0.0134051377,-0.0225326642,0.0123507483,0.0317796245,-0.0109250639,-0.0149903093
9.7652807236,0.0115658278,-0.0194868073,0.0155653460,0.0414231941,-0.0161762852,-0.0128382090
9.7752847672,0.0077261860,-0.0057459702,0.0138347251,0.0285420194,-0.0087660393,-0.0096906191
9.7852973938,-0.0019502703,0.0010185608,0.0041454537,0.0124698421,-0.0035009696,-0.0044015809
9.7952928543,-0.0087442463,0.0097211963,-0.0095104473,0.0112750148,0.0093722185,0.0018889387
9.8052797318,-0.0107527142,0.0116260415,-0.0162867215,-0.0026746225,0.0157315806,0.0082317898
9.8152751923,-0.0079528755,0.0057617794,-0.0123674171,-0.0155777726,0.0263349563,0.0092314072
9.8253040314,-0.0003118280,0.0057649384,-0.0104191797,-0.0102144312,0.0231700558,0.0092481840
9.8353738785,0.0034600731,-0.0049029817,0.0043206317,-0.0016254708,0.0199702680,0.0028912192
9.8452663422,0.0102650458,-0.0165119395,0.0133173568,0.0155247543,0.0125941113,-0.0002600993
9.8552789688,0.0161090437,-0.0203023180,0.0165789220,0.0337342508,0.0062936042,-0.0034184749
9.8652582169,0.0103033120,-0.0212297663,0.0149625642,0.0379263312,0.0169867296,-0.0066779181
9.8754243851,0.0024790403,-0.0066057076,0.0044674976,0.0357514620,0.0212571081,-0.0056431466
9.8852634430,-0.0052805608,-0.0037002198,-0.0069146054,0.0378510989,0.0255485252,-0.0056724413
9.8952484131,-0.0082115000,0.0012021431,-0.0162925031,0.0377823897,0.0309587382,0.0027945468
9.9052629471,-0.0103079444,0.0051599513,-0.0149283903,0.0292240549,0.0319885798,0.0059810188
9.9152669907,-0.0095347231,0.0071745287,-0.0097301500,0.0206887573,0.0287741460,0.0123804621
9.9251747131,0.0038453278,0.0093008643,0.0042040450,-0.0005150652,0.0115003502,0.0114448927
9.9351654053,0.0076843435,-0.0053069224,0.0159429405,-0.0164206624,-0.0004031805,0.0083443075
9.9451646805,0.0125668282,-0.0170523152,0.0149358613,-0.0089259949,-0.0035425150,0.0094218226
9.9551849365,0.0096248323,-0.0171494111,0.0070061190,-0.0057331305,-0.0003541785,0.0051525095
9.9651498795,-0.0012017849,-0.0075569977,-0.0049051540,-0.0079097319,0.0018301464,0.0125766033
9.9751234055,-0.0032928053,-0.0027299158,-0.0049992101,-0.0079382267,0.0060874755,0.0104239704
9.9851436615,-0.0053739017,-0.0008434883,-0.0041418569,-0.0154398195,0.0092449188,0.0114711253
9.9951210022,-0.0074735051,0.0078405505,-0.0101811187,-0.0143639017,0.0081849815,0.0114769842
10.0051240921,-0.0085733002,0.0077783237,-0.0112157958,-0.0037165843,0.0135658979,0.0061226990
10.0151224136,-0.0028315249,0.0107413298,-0.0111378925,0.0102013610,0.0083338516,0.0061448030
10.0253067017,0.0010145840,0.0039755474,-0.0060496824,0.0187687501,0.0041431012,0.0082907779
10.0351219177,0.0018823084,0.0020960935,0.0001157027,0.0347871333,0.0042477637,0.0061546564
10.0451288223,0.0056957239,0.0080515509,-0.0033725400,0.0443761125,0.0064595188,0.0061336178
10.0551099777,0.0017642912,0.0003054508,0.0028523307,0.0262562279,0.0031140561,0.0061674397
10.0651273727,-0.0051297015,-0.0007019273,0.0020436745,0.0187828653,0.0020147034,0.0093669612
10.0751304626,-0.0032285813,0.0022304424,-0.0046375887,0.0102769956,-0.0002287435,0.0051397262
10.0851411819,-0.0091617769,0.0041253935,-0.0046664374,-0.0046979589,0.0018293471,0.0093864026
10.0951194763,-0.0053557223,0.0031329759,-0.0027817984,-0.0217879973,0.0038187285,0.0072596027
10.1051054001,-0.0073639220,0.0049698125,-0.0069877403,-0.0399126709,0.0015318720,0.0062246984
10.1151084900,-0.0025000039,0.0029470690,-0.0083228843,-0.0495025814,0.0035052747,-0.0044057090
10.1251363754,0.0034123298,0.0009290942,-0.0116254585,-0.0398432948,-0.0028327825,-0.0043713544
10.1351165771,0.0015443799,-0.0040037264,-0.0099497931,-0.0152174458,-0.0112057608,-0.0053946739
10.1451158524,0.0005249020,0.0038229593,-0.0023269553,-0.0109460019,-0.0122233545,-0.0032662754
10.1550302505,0.0043830210,0.0126567846,0.0053305132,-0.0119393617,-0.0207931399,-0.0053379484
10.1650991440,0.0035498675,0.0087260371,0.0042161448,-0.0108666401,-0.0218445584,-0.0042694882
10.1750984192,0.0017922458,0.0018562445,-0.0017635721,-0.0076749744,-0.0176069345,-0.0106697297
10.1851062775,-0.0009117189,-0.0020957820,-0.0115875499,0.0029108250,-0.0047449321,-0.0160724856
10.1950321198,0.0012542543,-0.0039978256,-0.0173410680,0.0135211246,0.0038677305,-0.0193266012
10.2050342560,-0.0024688605,-0.0107665891,-0.0151786702,0.0208858289,0.0157086775,-0.0162213556
10.2150316238,0.0043794448,-0.0037684075,-0.0148148434,0.0379246026,0.0190818384,-0.0120049063
10.2250308990,0.0043426091,0.0041759978,-0.0095099108,0.0464605689,0.0170647595,-0.0056234393
